filepath,CCAE_0,CCAE_1,CCAE_2,CCAE_3,CCAE_4,CCAE_5,CCAE_6,CCAE_7,CCAE_8,CCAE_9,CCAE_10,CCAE_11,CCAE_12,CCAE_13,CCAE_14,CCAE_15,CCAE_16,CCAE_17,CCAE_18,CCAE_19,CCAE_20,CCAE_21,CCAE_22,CCAE_23,CCAE_24,CCAE_25,CCAE_26,CCAE_27,CCAE_28,CCAE_29,CCAE_30,CCAE_31
2120_2018-05-01_2018-10-25.png,-2.467010736465454,2.888819932937622,0.39054760336875916,-1.9948320388793945,1.8573312759399414,-2.1947028636932373,0.5028886795043945,0.16993793845176697,-1.3099114894866943,2.150888442993164,1.0039470195770264,-0.28689199686050415,-0.7395731210708618,1.5578433275222778,-2.6391165256500244,-0.0015067843487486243,1.036253571510315,1.992413878440857,3.7648823261260986,-0.9402035474777222,-3.875352621078491,2.999234199523926,-2.468322277069092,-2.102900981903076,0.20977678894996643,-3.0969507694244385,-0.4462141990661621,-0.6157369017601013,-1.7618521451950073,1.617193579673767,-1.2237638235092163,4.378749847412109
2120_2017-09-01_2018-02-28.png,2.032264232635498,-5.8259382247924805,2.5804831981658936,-3.245795726776123,0.4313758313655853,2.7693474292755127,-1.129262089729309,-2.6804986000061035,-1.9884170293807983,1.9303733110427856,1.7470792531967163,-2.111520290374756,-4.155307769775391,2.0199697017669678,0.19505608081817627,-5.352692127227783,-8.164525032043457,-0.36958441138267517,-0.5321816802024841,1.566676378250122,4.358891010284424,-2.5634703636169434,-1.2619067430496216,1.7695327997207642,-2.48207426071167,0.8259283900260925,3.381648302078247,1.7472724914550781,-0.5318835973739624,0.19094052910804749,0.28356367349624634,0.07462411373853683
2120_2017-12-04_2018-05-31.png,1.0654451847076416,-1.6114892959594727,-0.6152561902999878,1.2273415327072144,-1.8638793230056763,-0.19187651574611664,2.68133544921875,-0.7476927638053894,3.9619414806365967,0.6591052412986755,1.4447813034057617,-0.11381921172142029,-3.2401742935180664,3.9139223098754883,0.8925988674163818,0.8797658085823059,-7.003826141357422,1.6311808824539185,3.7931604385375977,3.8688552379608154,3.860907793045044,-3.534975528717041,1.7050384283065796,1.1340699195861816,-0.11377067118883133,0.2614828050136566,-0.3016354441642761,-1.0054192543029785,3.1074728965759277,3.4451184272766113,3.30342435836792,-4.846439361572266
2120_2017-10-05_2018-04-03.png,3.4698753356933594,-2.3706231117248535,1.0387721061706543,-4.026731014251709,-0.9017882347106934,1.946432113647461,1.5045630931854248,-0.5192891359329224,0.2714950144290924,-0.6235217452049255,-0.34041669964790344,1.45992910861969,-1.3726481199264526,-0.9347123503684998,-0.18131592869758606,-2.9504776000976562,-3.808527708053589,0.5252845287322998,1.918001651763916,1.4179762601852417,2.281935930252075,-1.376267433166504,-0.6912318468093872,1.4763191938400269,0.8196163177490234,2.1283860206604004,-2.2350213527679443,0.61860191822052,0.9783725142478943,-4.371793746948242,1.2599817514419556,-2.226902961730957
2120_2016-08-12_2017-02-08.png,0.6105992197990417,2.191370964050293,-2.1875576972961426,-0.15077660977840424,0.9480895400047302,1.8285341262817383,-3.580397367477417,-0.03647472336888313,-3.2564949989318848,0.8661841750144958,3.9575111865997314,5.137166976928711,3.1390175819396973,0.8944694995880127,-3.441236972808838,-0.3026362359523773,2.074922561645508,1.6294347047805786,3.581540584564209,-2.1121926307678223,-6.22042989730835,-1.9141623973846436,2.69098162651062,-2.013585090637207,-0.49400126934051514,0.9820343852043152,-2.5089097023010254,-2.3989713191986084,-2.9130470752716064,-2.002413511276245,2.231682538986206,-2.583808422088623
2120_2018-12-17_2019-06-13.png,-0.019333617761731148,3.0838639736175537,-3.5261847972869873,-0.7540876269340515,2.2583236694335938,-0.9885618090629578,-2.4407906532287598,-1.0226231813430786,-0.036128610372543335,1.5762370824813843,3.112910509109497,5.650660037994385,0.1401277482509613,1.5009403228759766,0.18946848809719086,2.3960087299346924,-0.5936620831489563,-1.235155701637268,2.988342046737671,-1.8102120161056519,-2.073885202407837,1.5939074754714966,1.0821545124053955,2.4546799659729004,3.6358463764190674,-0.7068138718605042,-0.7750837206840515,-4.8239216804504395,2.0445961952209473,5.102385997772217,-0.37736377120018005,-2.8970837593078613
2120_2018-12-19_2019-06-17.png,0.12010908126831055,3.999130964279175,-4.301297187805176,-1.11131751537323,1.7623869180679321,0.010097703896462917,-3.3299059867858887,-0.5355324149131775,-0.6874154806137085,2.9501545429229736,3.2846009731292725,6.681227207183838,0.06577668339014053,0.9540092945098877,-0.9486148357391357,2.1704835891723633,0.27165499329566956,-2.3417603969573975,3.2943062782287598,-1.3046225309371948,-3.02874493598938,2.059859037399292,2.0228497982025146,2.248438596725464,5.32482385635376,-0.6066688895225525,-0.40710705518722534,-5.4755539894104,2.6668663024902344,4.96118688583374,-0.3641107976436615,-4.273499965667725
2120_2016-09-05_2017-03-02.png,-4.400356292724609,-1.3319249153137207,-0.09009502083063126,0.059936508536338806,-0.674592912197113,5.168006896972656,-3.4036219120025635,-0.43989098072052,0.7463777661323547,-1.244554042816162,5.761625289916992,-0.6538928151130676,-2.228700637817383,-0.12528599798679352,-0.07925435900688171,4.130588054656982,0.6210928559303284,-0.15040025115013123,-4.125485897064209,3.224198579788208,-0.24914488196372986,1.1251342296600342,1.7371933460235596,-0.2525642216205597,-1.8959026336669922,-0.9439715147018433,-1.6728602647781372,-0.649364173412323,-0.24639397859573364,6.000667572021484,1.0972239971160889,2.44569730758667
2120_2016-07-21_2016-12-21.png,4.499067783355713,-0.8148407340049744,2.0179173946380615,-1.7209208011627197,-0.8777832984924316,0.7576152086257935,1.5124396085739136,7.532402038574219,-0.28531017899513245,0.342858225107193,1.6461219787597656,3.965324640274048,-1.263927936553955,2.086324453353882,-0.14780539274215698,-2.1360788345336914,-3.7552497386932373,-3.1411149501800537,-0.9449317455291748,1.4994150400161743,-1.9440975189208984,3.954282522201538,-0.8777405023574829,0.6914844512939453,-3.4137308597564697,1.0937912464141846,0.3020322322845459,-0.20217517018318176,1.4794639348983765,-1.8554402589797974,-2.9527711868286133,0.30387991666793823
2120_2017-12-29_2018-06-27.png,0.28164029121398926,-0.48643577098846436,1.4704293012619019,1.2764427661895752,-0.2850464880466461,0.0004462288925424218,-0.6894670724868774,2.6115922927856445,4.282458782196045,-1.0968538522720337,-1.0563271045684814,-2.479555606842041,-0.8236933350563049,1.9674336910247803,1.4872807264328003,-2.839301824569702,-0.5501065254211426,2.7440648078918457,0.6115530133247375,2.91310977935791,-3.685432195663452,3.706846237182617,0.42551878094673157,2.230076551437378,0.3660380244255066,-5.459562301635742,-1.1451729536056519,-2.0694117546081543,2.4775595664978027,-5.2547526359558105,0.08034905046224594,2.634239435195923
2120_2017-08-07_2018-02-02.png,-2.520454168319702,-2.9183294773101807,-3.1115245819091797,-0.7202309370040894,-5.913063049316406,0.41703158617019653,3.0451018810272217,-4.583611011505127,2.596729278564453,-4.816642761230469,3.45906925201416,-0.9790841937065125,4.043672561645508,-0.5316055417060852,-4.471338748931885,1.5316321849822998,2.016653060913086,2.1391236782073975,-3.5847272872924805,-1.574111819267273,0.34719106554985046,-0.3973785936832428,-0.1442146599292755,2.1732327938079834,-1.8354374170303345,1.2001910209655762,1.7707247734069824,-0.03512262925505638,-2.3689966201782227,0.1721242070198059,-0.5490466952323914,-0.33447450399398804
2120_2018-12-10_2019-06-06.png,-0.10885410010814667,1.4109604358673096,-3.2491650581359863,-2.3134045600891113,2.2286932468414307,-0.4612121880054474,-0.41043680906295776,-0.5450552701950073,0.515786349773407,-0.6079265475273132,5.248828411102295,2.8401734828948975,1.7985482215881348,6.124094009399414,-1.9387247562408447,-0.9049500226974487,-4.046610355377197,-0.9666127562522888,4.9452691078186035,-2.624471664428711,-3.277836561203003,0.5357658863067627,1.1817222833633423,1.6046415567398071,2.165585994720459,1.1825363636016846,-2.4972190856933594,-4.494387149810791,0.5653348565101624,3.6102123260498047,0.5732184052467346,0.9710572957992554
2120_2017-04-05_2017-10-02.png,-0.015444890595972538,1.06789231300354,6.25667667388916,1.7475203275680542,-4.197474479675293,2.2494657039642334,-0.3460879325866699,-3.2184133529663086,1.0038129091262817,0.9525679349899292,0.06704214960336685,1.2096848487854004,0.00800703838467598,2.6865453720092773,1.4984180927276611,-4.164341449737549,-1.1602486371994019,-0.37830570340156555,-3.5827276706695557,-0.9075807332992554,3.3456642627716064,-3.272242784500122,-2.293179512023926,-2.1324353218078613,-0.11202222108840942,-2.9656267166137695,-2.7988197803497314,0.5953745245933533,-1.7488957643508911,-4.910219192504883,-1.3924428224563599,-8.626200675964355
2120_2018-07-23_2019-01-18.png,0.9973735213279724,0.6519194841384888,-0.20652642846107483,-1.8537923097610474,-5.792015552520752,-1.1992614269256592,3.84619140625,-3.100634813308716,1.8165130615234375,-3.1274776458740234,1.1364768743515015,-2.5499773025512695,-0.949329137802124,1.5701828002929688,1.5064061880111694,-1.5675932168960571,-3.193450450897217,2.269076347351074,-0.6256446242332458,-3.403512477874756,3.7771151065826416,-3.028855800628662,-1.609421730041504,2.717135190963745,-1.4281835556030273,-2.0612738132476807,1.9615252017974854,5.434834003448486,-4.204726696014404,-2.5637784004211426,4.074798107147217,1.8547238111495972
2120_2016-07-21_2017-01-17.png,1.1949410438537598,4.862926959991455,2.8640215396881104,-2.217916250228882,1.1784385442733765,-3.6455745697021484,0.5129949450492859,5.099675178527832,-1.5483603477478027,-1.9224015474319458,-0.727136492729187,2.911315679550171,2.572796106338501,-2.3092167377471924,0.7400964498519897,2.7999677658081055,3.342691659927368,-1.8344942331314087,-1.2983779907226562,0.9270964860916138,-2.646728515625,1.9335709810256958,-0.46051618456840515,-0.18475110828876495,-4.054839134216309,3.0415074825286865,-2.8205482959747314,2.3226258754730225,1.1480097770690918,-2.601951837539673,-3.1682584285736084,3.136866331100464
2120_2017-10-16_2018-04-13.png,3.8713011741638184,-4.90953254699707,-0.23541392385959625,-1.8874872922897339,-1.7112598419189453,-0.7554020881652832,-0.001954055391252041,-2.925827980041504,0.09377895295619965,0.7164638638496399,2.7435317039489746,2.654061794281006,-2.316390037536621,-1.898422122001648,-0.2560027241706848,0.8051205277442932,-2.849766254425049,-0.660765528678894,-1.1789947748184204,1.019388198852539,0.8447175025939941,-3.9288082122802734,0.21271485090255737,2.8014931678771973,-2.425814151763916,1.2483654022216797,-2.093029499053955,0.7302740812301636,-0.4794313907623291,-2.3932952880859375,1.6507104635238647,-2.214015007019043
2120_2018-05-23_2018-11-19.png,-1.2910417318344116,1.7627840042114258,-2.4159741401672363,4.8540263175964355,-0.5138378739356995,-3.0812010765075684,-1.0344088077545166,-2.749805212020874,2.4434168338775635,3.696089506149292,-0.9533674120903015,0.16668079793453217,0.7929826974868774,1.2396423816680908,0.7828900814056396,-0.14442633092403412,-0.18433724343776703,4.699724197387695,-0.8665130734443665,-5.53267240524292,0.8156049251556396,-0.0819375216960907,3.046886444091797,1.2357277870178223,2.4468507766723633,-3.7400784492492676,-2.83223295211792,-0.8146378993988037,0.2945941090583801,2.08217716217041,-1.1330616474151611,-3.770289897918701
2120_2018-05-07_2018-10-30.png,-3.4035632610321045,2.3374955654144287,0.7602619528770447,-2.836949586868286,2.488562822341919,-2.73905611038208,0.6975933909416199,-0.5625451803207397,-2.093491792678833,1.8827855587005615,2.227343797683716,-1.5867806673049927,-0.9214473962783813,1.6192870140075684,-3.410924196243286,0.29173433780670166,0.64891517162323,0.9578713774681091,3.351557970046997,-0.6848013401031494,-3.2468719482421875,2.4184420108795166,-3.242584466934204,-1.9303737878799438,0.5998677611351013,-1.406684160232544,0.14355316758155823,-0.6622706055641174,-3.1385233402252197,0.325090616941452,-1.5749435424804688,6.3389058113098145
2120_2019-03-18_2019-09-12.png,-2.333916187286377,2.413672685623169,-3.242368459701538,2.4845216274261475,-1.3874855041503906,0.39468446373939514,-0.6474243402481079,-0.11240224540233612,0.39974701404571533,0.9656192660331726,-0.28449246287345886,-1.1887418031692505,-0.2688034772872925,-2.325209140777588,-0.954453706741333,-0.9905110597610474,1.0857954025268555,-0.45029205083847046,0.20984965562820435,-0.4519743025302887,-6.0212626457214355,0.28877225518226624,1.205522060394287,2.240971088409424,8.792905807495117,-4.08587121963501,-0.9037521481513977,-2.6446757316589355,1.5960512161254883,0.1884821206331253,-1.5330485105514526,-4.167447090148926
2120_2018-05-25_2018-11-21.png,-2.4700305461883545,3.5596373081207275,-2.4280383586883545,3.385643243789673,1.510382056236267,-3.5747225284576416,-2.2111918926239014,-2.11086368560791,1.556663155555725,3.1120073795318604,-1.7215498685836792,0.8984020352363586,3.0553040504455566,1.042812466621399,0.6499528288841248,0.06307568401098251,1.815730094909668,4.163377285003662,-0.049355119466781616,-4.91274881362915,1.9431995153427124,-0.614301323890686,0.7864692211151123,-0.2387702465057373,2.359750509262085,-1.9735716581344604,-0.29827162623405457,0.3126220405101776,-2.5788168907165527,1.7595127820968628,-2.539632558822632,-4.939169883728027
2120_2016-07-21_2017-01-10.png,3.9107825756073,2.7672841548919678,1.9300085306167603,-1.9577099084854126,0.9792914986610413,-3.1407556533813477,-0.6192886233329773,5.909177303314209,-1.6438684463500977,-1.8019154071807861,-0.6667281985282898,4.4992241859436035,1.3861479759216309,-1.199786901473999,2.2288622856140137,0.6823903918266296,1.2642905712127686,-2.3963639736175537,-0.8331798911094666,0.702397346496582,-3.242544412612915,2.0785090923309326,-0.354003369808197,0.4466370642185211,-4.753900527954102,3.18092679977417,-2.518559694290161,0.8997544646263123,1.2307872772216797,-1.5722168684005737,-1.2455813884735107,1.8301924467086792
2120_2018-02-09_2018-08-08.png,-0.6107232570648193,2.900015115737915,-2.6223032474517822,-0.23091845214366913,-0.014891543425619602,-3.6478304862976074,0.743034303188324,0.8488835096359253,0.1555129587650299,1.240682601928711,2.0621414184570312,1.3518620729446411,-0.35481828451156616,3.0127639770507812,-0.47302284836769104,1.145851731300354,0.4976612329483032,-0.13595902919769287,3.351571798324585,-2.703697681427002,-3.6976876258850098,2.824345111846924,0.9365055561065674,1.2301883697509766,1.669252634048462,-4.744853973388672,-3.4737184047698975,-2.76924204826355,1.0133706331253052,1.3594212532043457,-1.6876956224441528,1.5342843532562256
2120_2017-07-27_2018-01-23.png,1.8433114290237427,-2.2393202781677246,-1.9206769466400146,-1.2369837760925293,-3.7019236087799072,3.099686622619629,1.8318090438842773,-5.0979719161987305,-1.9590502977371216,-1.7372000217437744,1.5285735130310059,-3.3384485244750977,1.4790449142456055,-1.8598461151123047,-4.330560684204102,-0.08690560609102249,0.30337774753570557,-0.6978333592414856,-3.6958346366882324,-3.686232805252075,-1.6178797483444214,-2.455871343612671,-0.3397422432899475,-0.6360470652580261,2.59236478805542,3.099360227584839,-1.5741734504699707,-1.8205747604370117,-2.0680556297302246,-5.1025285720825195,-2.098308563232422,-0.41389286518096924
2120_2016-07-21_2016-12-27.png,4.1380085945129395,-0.300930917263031,1.4804635047912598,-1.875449776649475,-1.2041425704956055,0.027480414137244225,1.2161515951156616,7.400702953338623,-0.7995079755783081,0.24160312116146088,1.836594820022583,4.131438732147217,-0.5946512222290039,1.4982423782348633,-0.32831624150276184,-1.5893529653549194,-2.9307384490966797,-3.538590908050537,-0.6524440050125122,1.4401969909667969,-2.2213401794433594,3.755570888519287,-0.9434034824371338,0.8444156050682068,-4.190101623535156,1.828890085220337,-0.39869412779808044,-0.3467787206172943,1.9977502822875977,-1.6751294136047363,-2.8734917640686035,0.38738393783569336
2120_2016-07-21_2017-01-05.png,4.893295764923096,1.5013935565948486,1.2332361936569214,-1.912300944328308,0.22574393451213837,-2.8878989219665527,-0.6441618204116821,5.95814323425293,-1.158703327178955,-1.7076020240783691,0.38395747542381287,4.744307994842529,1.1808102130889893,0.2826208770275116,1.9497692584991455,-0.8259822726249695,-0.4520162343978882,-2.9713847637176514,-0.14509662985801697,0.9045530557632446,-3.2227516174316406,2.3804898262023926,-0.7291790843009949,0.9889472126960754,-4.641294956207275,2.337432384490967,-1.9283961057662964,0.34505558013916016,1.0678659677505493,-1.0735747814178467,-1.4938944578170776,1.7313467264175415
2120_2019-01-28_2019-07-26.png,1.377155065536499,-1.1058826446533203,-0.006809093523770571,-0.733442485332489,-0.932120680809021,-2.048722982406616,1.3722631931304932,-1.1210994720458984,2.0760490894317627,1.007141351699829,0.8736703991889954,1.8064059019088745,-2.368724822998047,2.699850082397461,0.15424780547618866,-0.3918437063694,-3.2591662406921387,1.1507631540298462,1.5954605340957642,-0.780735433101654,-1.9092167615890503,1.2178125381469727,2.211390256881714,0.7366628050804138,-2.554908037185669,-3.332960367202759,-1.3601748943328857,-0.8101780414581299,2.131843328475952,0.5929379463195801,-0.06172057241201401,-0.09049754589796066
2120_2018-08-13_2019-02-07.png,0.23385193943977356,-5.753294467926025,5.357705593109131,-1.9314805269241333,-2.116258144378662,2.9381463527679443,7.3615522384643555,-2.0992329120635986,1.672639012336731,2.439872980117798,-2.0013208389282227,1.8288202285766602,-4.955052375793457,3.0028414726257324,-4.704448223114014,0.669750988483429,-2.6436712741851807,-4.084239959716797,-0.9724019765853882,-1.5334173440933228,4.386488437652588,0.20941932499408722,2.5270824432373047,1.030905842781067,0.7908230423927307,0.43894848227500916,3.452712059020996,-1.2008684873580933,0.9873921275138855,-1.23198664188385,1.82807195186615,-4.785245895385742
2120_2018-06-20_2018-12-17.png,-0.8776474595069885,1.9269510507583618,-1.5118134021759033,0.3103252649307251,-2.9298694133758545,-0.16632522642612457,0.12901335954666138,-4.225401878356934,-3.391575813293457,0.15105552971363068,2.7966043949127197,-3.0586557388305664,1.273319959640503,5.236424922943115,-1.2682679891586304,-1.8399815559387207,2.2171072959899902,-2.7471070289611816,0.786997377872467,-4.487037181854248,-1.308912992477417,-3.6620144844055176,-3.5984292030334473,-0.08532924950122833,2.85229754447937,3.656986951828003,2.776577949523926,-2.1025948524475098,-3.5320851802825928,2.738985776901245,0.20223793387413025,-1.411191463470459
2120_2019-05-13_2019-11-07.png,5.131277084350586,2.09889817237854,-1.0372323989868164,-6.621817588806152,-7.393441677093506,-1.0889555215835571,0.5880586504936218,-1.6993440389633179,-0.839030385017395,-4.740566730499268,-1.4632959365844727,-1.378794550895691,-1.829471468925476,0.4773389995098114,0.639479398727417,-2.4253878593444824,-6.81881046295166,0.9133762121200562,3.9023051261901855,-5.168649673461914,-1.7805105447769165,-1.259856104850769,-2.573166847229004,3.014085054397583,-2.2577743530273438,-4.983393669128418,1.3472014665603638,2.9648241996765137,2.0143704414367676,-7.366219997406006,3.157414674758911,-2.46286678314209
2120_2016-09-08_2017-03-07.png,-2.3392608165740967,-2.3535027503967285,-1.2406208515167236,1.4385939836502075,-0.3914799988269806,2.563852548599243,-2.9724271297454834,-0.9466820359230042,0.29228633642196655,0.3941933512687683,4.5466837882995605,0.3512442409992218,-3.371609687805176,0.3973948657512665,1.9883756637573242,2.7233541011810303,-2.796652317047119,0.023891594260931015,-2.4416239261627197,2.613447904586792,-1.4339094161987305,0.10593768954277039,0.880902886390686,1.1452007293701172,-1.9252194166183472,-0.8218791484832764,-1.841719388961792,0.470971941947937,-1.304927945137024,4.032922744750977,1.643143892288208,3.196779251098633
2120_2017-06-22_2017-12-19.png,1.7978684902191162,0.4513520896434784,1.1543302536010742,0.8049863576889038,2.058647632598877,-3.722506046295166,-2.3026957511901855,-4.173050403594971,-0.9796898365020752,0.7048951387405396,0.20211975276470184,0.5049152374267578,2.7023849487304688,-0.3780266344547272,3.7689836025238037,1.1877001523971558,0.9988274574279785,0.6596962809562683,-0.33750709891319275,0.7079872488975525,3.5031330585479736,-1.976057529449463,-0.08221040666103363,2.427114725112915,-2.2167959213256836,1.6494323015213013,0.6224961280822754,2.291659355163574,-3.7943525314331055,-5.447259426116943,-1.4322069883346558,3.3003547191619873
2120_2017-09-29_2018-03-28.png,0.9081635475158691,1.6873244047164917,2.2411158084869385,-1.874517560005188,0.329149454832077,2.3010425567626953,2.204146146774292,2.2489984035491943,-2.358790159225464,-0.030200818553566933,-4.247994899749756,0.4013668894767761,-0.5925647020339966,-2.246469736099243,3.4380290508270264,-1.5264877080917358,-1.6867676973342896,2.4473845958709717,2.243767023086548,3.3255250453948975,7.260494232177734,1.3381134271621704,1.2065423727035522,-0.02419908344745636,1.7574266195297241,3.603818655014038,-2.948672294616699,3.638982057571411,-1.0019129514694214,-6.263025760650635,-2.108030080795288,-4.646968364715576
2120_2017-08-10_2018-02-06.png,-2.8794684410095215,-1.6066155433654785,-1.25063157081604,-0.9720325469970703,-3.408255100250244,2.4285953044891357,1.5970399379730225,-3.412051200866699,2.0214858055114746,-1.940353274345398,2.485840320587158,0.1176694855093956,2.1728856563568115,-0.44507476687431335,-2.956482410430908,2.038553476333618,1.5482255220413208,-0.2927190363407135,-2.4457380771636963,-2.0790131092071533,1.6048306226730347,-2.1949472427368164,0.12281392514705658,1.734144926071167,-0.008745555765926838,0.5475576519966125,1.3683710098266602,-1.1112886667251587,-2.910193920135498,3.2346928119659424,0.020327439531683922,-1.8819199800491333
2120_2018-10-19_2019-04-17.png,-0.6906099319458008,0.24710063636302948,0.49879592657089233,-2.926954746246338,-1.2034103870391846,-0.9419199824333191,-3.9755356311798096,-1.7764923572540283,2.5301337242126465,0.094996377825737,0.790413498878479,1.6127355098724365,-0.2522294819355011,0.7800021767616272,-1.2629715204238892,-0.8856331706047058,-4.934045314788818,0.16314353048801422,3.258957862854004,-4.328157901763916,-5.829429626464844,1.8093870878219604,0.7340917587280273,3.26460599899292,1.665061354637146,-4.298070430755615,-4.910379886627197,0.6440601944923401,-0.9260236024856567,-1.707969307899475,-0.7800790071487427,4.176535606384277
2120_2017-02-08_2017-08-07.png,1.56134033203125,-0.8329870104789734,-0.5115023255348206,-1.9989501237869263,-4.581672668457031,6.3064985275268555,3.378591537475586,0.11468734592199326,-2.9554760456085205,-1.1800795793533325,-3.042454957962036,3.137260913848877,0.10042490810155869,-0.7643839716911316,-4.303953170776367,-5.386834144592285,-1.3480327129364014,-3.628999948501587,0.062401145696640015,-3.6281514167785645,-0.6763436198234558,-3.2157223224639893,-0.9291788339614868,-2.6672019958496094,-1.5501378774642944,-4.105930328369141,1.2759671211242676,-2.6485092639923096,4.379952430725098,-4.3741559982299805,1.116031289100647,-1.6166071891784668
2120_2016-09-15_2017-03-14.png,-0.23605914413928986,-2.6206767559051514,-1.0615744590759277,2.4111125469207764,1.1730360984802246,-1.794870138168335,-3.5120320320129395,-0.9466279149055481,-0.07894209027290344,0.07781694084405899,3.3898980617523193,0.8834624886512756,-3.2390565872192383,1.0319392681121826,3.9249765872955322,2.0583276748657227,-5.205794811248779,-3.272486686706543,-0.8053739666938782,0.31709998846054077,-2.6975865364074707,-0.0318361334502697,-0.38657236099243164,2.57915997505188,-2.9162604808807373,-0.8075761795043945,-2.132145881652832,-0.4154202342033386,-1.380953311920166,4.542518138885498,1.861930012702942,7.564845085144043
2120_2016-11-18_2017-05-17.png,-3.5632364749908447,0.9589179754257202,0.30926433205604553,0.6917694807052612,2.702486038208008,-0.40418219566345215,-3.165294885635376,-5.595300674438477,0.6931470036506653,-0.35330748558044434,-2.5185701847076416,-3.5250654220581055,-4.124460697174072,-3.520199775695801,3.292553186416626,3.5360093116760254,1.7172465324401855,4.78033971786499,-5.345585346221924,2.1689674854278564,2.7699379920959473,1.440926194190979,1.695949673652649,2.519108533859253,3.0775556564331055,1.0155253410339355,-3.423457384109497,0.06315433233976364,-1.1598995923995972,3.2097933292388916,2.7324588298797607,3.375610828399658
2120_2017-12-25_2018-06-22.png,3.193505048751831,-4.061114311218262,0.1281518191099167,1.5503050088882446,-0.1981082260608673,-0.9047681093215942,-1.093044638633728,0.31533586978912354,3.964108467102051,2.633216142654419,-2.2143301963806152,-0.7950499653816223,-1.2993874549865723,0.7196142077445984,1.4820903539657593,-3.2061378955841064,-0.5010541081428528,0.4045412838459015,0.7211723327636719,3.4952948093414307,-5.197636604309082,2.5523579120635986,0.7454252243041992,1.8048672676086426,1.0188937187194824,-4.084659576416016,-1.2643376588821411,-2.594348430633545,5.897041320800781,-4.769728660583496,0.2905488610267639,1.3375808000564575
2120_2017-12-22_2018-06-20.png,3.176406145095825,-4.763477325439453,-0.7399662137031555,1.0525144338607788,0.890369176864624,-2.0577452182769775,-0.8202256560325623,-0.9832622408866882,3.543133020401001,3.6529381275177,-1.9799131155014038,0.04623289033770561,-1.5458009243011475,0.11468757688999176,1.383097767829895,-2.9312856197357178,-0.7214362025260925,0.2781636416912079,0.9283013343811035,4.057626724243164,-4.213369369506836,2.190203905105591,0.7222817540168762,1.7072033882141113,1.3658733367919922,-3.402848958969116,-1.9203888177871704,-2.1953670978546143,5.993266582489014,-3.707552671432495,0.2518244981765747,0.39227205514907837
2120_2017-12-11_2018-06-07.png,1.9139931201934814,-1.4763716459274292,-1.6993868350982666,-3.0565969944000244,1.0668277740478516,-2.0348103046417236,2.4784014225006104,0.6156116724014282,2.923654556274414,2.3171257972717285,-0.4111731946468353,-0.5494183301925659,-4.5345306396484375,4.622001647949219,2.170980930328369,0.31491512060165405,-6.426656246185303,1.1731752157211304,4.196834564208984,4.864808559417725,1.8395521640777588,-2.7710227966308594,0.8714577555656433,-0.4737977981567383,-1.0353882312774658,0.7818317413330078,-1.9763280153274536,-0.8973671197891235,5.500877380371094,2.76334285736084,2.3199286460876465,-4.555286884307861
2120_2016-09-14_2017-03-13.png,-0.140025794506073,-2.9443905353546143,-2.079857587814331,2.6283743381500244,-0.10482124984264374,-0.6130025386810303,-3.6347806453704834,-1.2882126569747925,-0.10022211074829102,0.7008276581764221,3.8756942749023438,0.3551498055458069,-3.327214002609253,0.6244325637817383,4.3653154373168945,2.1026692390441895,-5.042843818664551,-2.3386175632476807,-0.9527329206466675,0.9688140749931335,-2.452712059020996,-0.593335747718811,0.07129548490047455,2.6939189434051514,-3.1723616123199463,-0.9898995161056519,-2.448716402053833,0.3501462936401367,-1.492610216140747,4.549603462219238,1.8492416143417358,6.062151908874512
2120_2016-09-26_2017-03-24.png,0.776220977306366,0.5635786056518555,0.38923129439353943,1.550655484199524,1.6664505004882812,-4.294361591339111,-1.9041718244552612,1.253871202468872,-0.477691113948822,-0.4173716604709625,1.4132221937179565,1.247539758682251,0.3291974365711212,0.12897895276546478,2.302638530731201,1.5820802450180054,-0.3916967809200287,-1.6262027025222778,1.9289137125015259,-0.6372535824775696,-4.845839500427246,2.6280770301818848,1.306051254272461,0.7485633492469788,-1.6262238025665283,0.31339728832244873,-1.3141273260116577,-2.979822874069214,0.25373291969299316,1.490373969078064,0.48109591007232666,5.755455493927002
2120_2017-11-16_2018-05-15.png,3.4769866466522217,-6.746206760406494,2.0684053897857666,-3.1109962463378906,0.2443457543849945,-4.33168888092041,1.1175041198730469,-6.617439270019531,-0.1536334604024887,0.9570534229278564,-0.017506606876850128,2.7267184257507324,-6.899661064147949,-4.612899303436279,-3.2152161598205566,-0.3196350932121277,-5.866929054260254,-0.6927200555801392,1.0808130502700806,-0.05355687811970711,3.749091386795044,0.2518231272697449,1.5463895797729492,4.834056854248047,1.5822190046310425,2.405407667160034,-2.099992275238037,-2.5310990810394287,2.581115484237671,-0.5396737456321716,4.05801248550415,-0.3522787392139435
2120_2017-09-28_2018-03-27.png,0.5042344331741333,2.1203956604003906,2.6586685180664062,-0.8955699801445007,-0.2791047692298889,2.5871076583862305,2.303886890411377,1.8928614854812622,-2.299616813659668,0.12799282371997833,-4.467634201049805,0.09550079703330994,-1.2127459049224854,-2.7232303619384766,3.0414249897003174,-0.412972092628479,-0.21093377470970154,1.9969042539596558,1.6381657123565674,2.773723840713501,6.711190700531006,1.1898945569992065,1.1143217086791992,-0.5915151834487915,2.7345423698425293,3.6656222343444824,-3.025130271911621,3.40262508392334,-1.7924351692199707,-6.2907795906066895,-3.2098169326782227,-5.251884937286377
2120_2018-08-20_2019-02-14.png,0.6662880182266235,-4.565422058105469,3.69635272026062,-2.5647354125976562,-2.7870211601257324,1.4740957021713257,5.175204753875732,-2.618680238723755,2.1114888191223145,1.9048508405685425,-0.8861109614372253,1.9740712642669678,-3.1023714542388916,2.088719129562378,-2.877045154571533,-0.13427327573299408,-2.382983684539795,-1.9530885219573975,0.2753063440322876,-0.6068507432937622,3.9813179969787598,-1.395965576171875,1.4751181602478027,1.3519527912139893,-0.9363630414009094,-0.046040140092372894,1.111483097076416,-0.830223023891449,0.7911239266395569,-2.5296692848205566,1.7421314716339111,-3.4032938480377197
2120_2018-02-16_2018-08-15.png,-1.8377277851104736,2.9137582778930664,-2.6212689876556396,2.7411978244781494,-3.6221835613250732,-4.1020097732543945,3.0483927726745605,0.9259316325187683,0.7244280576705933,0.7592982649803162,3.981698989868164,1.0808347463607788,-1.9096850156784058,3.9373202323913574,-2.2826550006866455,3.357076406478882,0.6718589663505554,-1.3268053531646729,3.556668996810913,-3.88682222366333,-1.9873294830322266,1.3923163414001465,3.4076807498931885,1.5266153812408447,1.1892389059066772,-3.967081069946289,-1.7336639165878296,-4.491975784301758,0.5149275064468384,1.8751596212387085,-1.285760760307312,1.505023717880249
2120_2016-08-24_2017-02-20.png,0.19025835394859314,-3.641477346420288,-1.9382003545761108,-0.0024899018462747335,-0.6447228193283081,0.5127547383308411,-1.902441143989563,-3.3674442768096924,-1.6850881576538086,-2.486144781112671,1.846366286277771,-0.18219797313213348,-0.1165165975689888,-4.736645221710205,2.180469036102295,2.8376569747924805,3.568484306335449,0.9617840647697449,-5.487097263336182,6.118709564208984,0.445246160030365,0.48001912236213684,2.877319812774658,-0.8711476922035217,-1.3534265756607056,1.0904333591461182,-3.325899600982666,-1.9899694919586182,2.812596559524536,4.039032459259033,1.2243884801864624,-2.489103317260742
2120_2019-02-04_2019-08-01.png,-0.03175835311412811,0.6111757755279541,-0.13517142832279205,-0.573445200920105,-1.12163245677948,-2.261477470397949,2.032282829284668,-0.04539185389876366,2.232926368713379,0.859820544719696,1.5716066360473633,0.7492042779922485,-1.038223385810852,2.916013240814209,0.589229166507721,-1.4207942485809326,-1.9888697862625122,1.867057204246521,2.538058042526245,-0.9856293201446533,-2.2993695735931396,1.2716259956359863,0.01882418617606163,0.7878898978233337,-1.4581992626190186,-3.5183703899383545,-1.4100384712219238,-0.5489476919174194,0.41498446464538574,-1.3855355978012085,-0.1319761872291565,0.8442317843437195
2120_2016-10-07_2017-04-05.png,-1.5153863430023193,4.408498764038086,1.0650073289871216,-0.11745095252990723,1.4284663200378418,-2.5612003803253174,1.4472652673721313,2.4369096755981445,-0.026931211352348328,-0.5737336277961731,0.9039823412895203,0.10048345476388931,0.42334428429603577,0.35782235860824585,-0.09329220652580261,2.3158280849456787,3.9039533138275146,0.24566422402858734,0.05389159917831421,-0.05271204188466072,-2.6567182540893555,2.0695688724517822,1.1078615188598633,-0.7413936257362366,-1.2666757106781006,-0.52467280626297,-0.23209793865680695,-1.1061769723892212,-1.5468393564224243,1.2815622091293335,-2.087751626968384,3.377204179763794
2120_2017-09-21_2018-03-20.png,1.2452478408813477,1.8869757652282715,3.73561429977417,3.4453954696655273,0.32870662212371826,0.6078646183013916,-0.5362276434898376,0.6865842342376709,0.9553364515304565,4.025667190551758,-3.0271496772766113,0.4492678642272949,-0.36961451172828674,-1.6080306768417358,2.34891676902771,1.1954911947250366,-1.3488318920135498,-1.603049635887146,-1.239365816116333,1.1525732278823853,4.335971832275391,-0.06687510013580322,0.15565204620361328,0.7336557507514954,4.944700241088867,2.1211044788360596,-1.0317951440811157,3.992623805999756,-3.6478686332702637,-4.70724630355835,-5.906459808349609,-6.001933574676514
2120_2018-04-23_2018-10-19.png,-2.115201234817505,2.0585744380950928,1.5866841077804565,-3.062427520751953,1.8302081823349,-2.107029438018799,1.6024606227874756,0.197800874710083,1.6706743240356445,3.381727933883667,-0.990776002407074,-0.545570433139801,-0.6768307089805603,2.195054292678833,-3.4710607528686523,-2.4468023777008057,-0.7945032119750977,2.660625696182251,1.3658254146575928,-1.249487280845642,-2.15323805809021,3.8340413570404053,-4.366901874542236,-1.1397449970245361,0.18222466111183167,-5.621649265289307,-0.3252650201320648,-0.7418938875198364,-1.50108003616333,3.864104986190796,-2.607327699661255,2.409090757369995
2120_2018-11-21_2019-05-20.png,-1.4673525094985962,2.9068708419799805,-1.0946276187896729,-1.4587416648864746,-0.47988244891166687,-1.5176918506622314,-0.5225649476051331,0.29660964012145996,1.3276859521865845,0.4852052628993988,1.8590631484985352,1.562145709991455,0.2002774327993393,3.4731321334838867,-1.4179425239562988,0.4613410234451294,-1.6215451955795288,0.496753066778183,3.9914402961730957,-3.106707811355591,-3.650374174118042,2.336559295654297,0.12699028849601746,0.7528842091560364,0.1747739315032959,-3.1322579383850098,-0.8132014274597168,-2.823620557785034,0.48973745107650757,1.833911418914795,-0.7795246243476868,0.013972888700664043
2120_2018-08-13_2019-02-08.png,0.30215877294540405,-5.756978988647461,5.451786994934082,-2.08015513420105,-2.001836061477661,3.131277322769165,7.457087516784668,-2.252941608428955,1.729001522064209,2.4420418739318848,-1.951882243156433,2.05580735206604,-4.847799777984619,3.150634527206421,-4.6985626220703125,0.5239794850349426,-2.3182568550109863,-4.140181541442871,-1.1064900159835815,-1.347627878189087,4.594231605529785,0.24728770554065704,2.6155638694763184,0.9403769373893738,0.8136130571365356,0.5952473282814026,3.4494690895080566,-1.1295963525772095,1.0304726362228394,-1.2664927244186401,1.3668490648269653,-5.1469902992248535
2120_2018-06-28_2018-12-25.png,-0.870002269744873,-0.859457790851593,-1.8208669424057007,-0.18331068754196167,-3.967154026031494,0.3234511613845825,-0.6236227750778198,-3.89325213432312,-2.57843017578125,0.5427362322807312,4.9872260093688965,-4.358470916748047,1.0221145153045654,1.7797372341156006,-1.6573209762573242,1.880205750465393,2.266751527786255,-2.543599843978882,-1.1878212690353394,-4.601698398590088,0.15189778804779053,-2.1455159187316895,-2.2184746265411377,1.680389404296875,3.840413808822632,3.6146013736724854,4.278323650360107,-1.1351654529571533,-3.284423828125,0.6882479786872864,-2.758679151535034,-2.305845022201538
2120_2018-06-06_2018-12-03.png,-3.702202796936035,2.1304707527160645,-2.2234878540039062,-0.6240062117576599,1.992165446281433,-0.883903443813324,-0.08573272079229355,-2.345696210861206,0.7390016913414001,1.3011504411697388,-0.8541439771652222,0.4802924394607544,5.549403190612793,0.6832965016365051,2.0812134742736816,-4.2252302169799805,0.4375627934932709,0.7661809325218201,4.136236190795898,0.1346120685338974,-1.4127728939056396,-2.018559694290161,-2.5984742641448975,-2.3617053031921387,5.352399826049805,-0.7712371349334717,3.2568411827087402,0.6066835522651672,-3.854485034942627,0.39128151535987854,0.6307491660118103,-1.807151436805725
2120_2017-05-11_2017-11-07.png,2.0888431072235107,-0.8677014708518982,0.9560068845748901,-2.613992929458618,-4.561989784240723,0.30533289909362793,0.9298401474952698,-3.4223642349243164,2.246690034866333,-0.9512395262718201,-0.15523594617843628,0.09099374711513519,-3.0645217895507812,0.9958767294883728,-0.26329904794692993,-1.3223408460617065,-4.800291538238525,1.6923803091049194,-0.346401184797287,-1.5540499687194824,-0.4754835367202759,-0.6815612316131592,0.3441877067089081,1.696507215499878,-1.2728697061538696,-3.443880796432495,-3.0610294342041016,-0.1137189045548439,-0.6982789635658264,-5.7828545570373535,2.9449820518493652,-4.745193958282471
2120_2019-05-02_2019-10-29.png,1.0461586713790894,1.226318597793579,-0.6550271511077881,-3.5416007041931152,-4.7849650382995605,1.8064088821411133,2.0531327724456787,-1.524785041809082,0.5421596169471741,-1.1327850818634033,-0.8273289799690247,-0.3847637176513672,-0.8070603609085083,2.306086301803589,-0.42570745944976807,-3.8328208923339844,-4.213770389556885,-0.7238143682479858,4.070947647094727,-6.002044200897217,0.25882217288017273,-1.2312556505203247,0.12839704751968384,0.5573846697807312,0.32231682538986206,-3.0318756103515625,2.326258420944214,1.2483539581298828,-1.1678835153579712,-3.8723649978637695,1.1708661317825317,-1.3719972372055054
2120_2018-04-02_2018-09-27.png,-0.28054019808769226,3.3414511680603027,-0.7426050305366516,1.1914323568344116,-0.04425475746393204,-2.572129964828491,-1.7305656671524048,0.588944137096405,1.7019882202148438,-0.9967235922813416,-0.35059499740600586,3.0786075592041016,1.6596794128417969,2.7515528202056885,-2.3632988929748535,0.06235571950674057,1.9925717115402222,0.7701535224914551,3.321503162384033,-4.076878547668457,-6.209466457366943,3.7512288093566895,-2.238933801651001,-1.6753368377685547,2.4357545375823975,-3.9445600509643555,0.902388334274292,-5.703154563903809,0.11855781078338623,7.403736114501953,1.0867582559585571,4.0330047607421875
2120_2018-05-21_2018-11-16.png,-1.2365642786026,2.0183517932891846,-2.2710986137390137,4.810297966003418,0.6019312739372253,-3.447080373764038,-1.2132785320281982,-2.239276885986328,2.652026891708374,2.7732908725738525,-1.0295156240463257,0.8617173433303833,1.2215397357940674,2.5662455558776855,1.1951625347137451,0.12637870013713837,0.01505964994430542,5.196774482727051,-0.2023288905620575,-4.672307014465332,1.4926652908325195,1.1379858255386353,3.4292027950286865,1.4054917097091675,1.5315686464309692,-4.040884494781494,-3.22824764251709,-1.352115273475647,0.860733687877655,2.8222739696502686,-0.7893036603927612,-2.4331207275390625
2120_2017-01-27_2017-07-26.png,-0.2659302055835724,3.6665430068969727,-1.1392319202423096,-1.184427261352539,-2.9277970790863037,3.1556484699249268,0.7337451577186584,3.4048914909362793,-3.7216033935546875,-2.209162712097168,1.2842965126037598,-1.7036173343658447,3.9996376037597656,-0.6555991768836975,-1.9019564390182495,-0.5712243318557739,-2.6954421997070312,-2.6727535724639893,2.424762487411499,-2.1872968673706055,-3.5955116748809814,-2.9467568397521973,0.3415137827396393,-4.935142993927002,1.9060758352279663,-5.144885540008545,1.9322900772094727,0.9279632568359375,0.6303325295448303,-0.4699277877807617,1.5169100761413574,-4.927597522735596
2120_2017-03-10_2017-09-06.png,0.016371378675103188,-1.6542202234268188,0.9546855092048645,0.4744201898574829,0.39592552185058594,4.608830451965332,4.577954292297363,-0.8794047236442566,-1.2461155652999878,-0.9880266785621643,-1.6815036535263062,5.007174968719482,0.3511356711387634,0.5569913387298584,-2.228764057159424,-3.379232406616211,-3.4474406242370605,-2.7927942276000977,1.0357781648635864,-4.409001350402832,5.87930154800415,-6.622518539428711,-0.2573305666446686,1.820159912109375,-4.640658855438232,0.7922584414482117,0.43521395325660706,1.1770007610321045,2.133958339691162,1.605492115020752,3.2160110473632812,-3.382645845413208
2120_2019-04-19_2019-10-16.png,0.13133350014686584,0.42804962396621704,-2.825934410095215,-2.501727342605591,-5.069058895111084,1.4033490419387817,0.41641679406166077,-1.173119068145752,-0.4163636267185211,0.3783336877822876,2.669506072998047,-2.585861921310425,2.4858133792877197,1.548776388168335,-2.1814403533935547,-2.057577610015869,-2.971778392791748,-2.0276379585266113,-0.01224324107170105,-4.654483795166016,-2.879441499710083,-2.9199349880218506,-1.6754344701766968,0.1593223363161087,3.1441080570220947,-0.9136359691619873,0.48700612783432007,-0.9358348846435547,-1.7978260517120361,-0.8497450947761536,-1.527969479560852,-3.565411329269409
2120_2017-04-20_2017-10-17.png,3.9141204357147217,-2.628288507461548,0.37093546986579895,-2.9776737689971924,-3.4591867923736572,1.480940580368042,-0.08939791470766068,-2.822909355163574,1.349399447441101,-0.7165394425392151,-0.35067176818847656,-0.34146997332572937,0.16098034381866455,-1.8039820194244385,0.9339950084686279,-2.6948459148406982,-3.5369479656219482,-0.3463880717754364,-2.4679553508758545,-0.2840679883956909,0.4747586250305176,-2.279841184616089,-1.00674569606781,2.1634573936462402,0.8290151357650757,-0.4712051749229431,-2.906276226043701,2.2757833003997803,1.0955289602279663,-4.242708206176758,0.5124009847640991,-6.236180305480957
2120_2018-05-02_2018-10-29.png,-3.0134894847869873,2.2135136127471924,0.5617367625236511,-3.0899817943573,2.607170820236206,-3.0894041061401367,0.8028485774993896,-0.28583359718322754,-1.9531103372573853,2.1368327140808105,1.6393718719482422,-1.2141849994659424,-1.013492226600647,1.027397871017456,-3.691364288330078,-0.10499418526887894,0.9383016228675842,1.221237063407898,3.4340837001800537,-0.3929366171360016,-3.42741322517395,2.8099350929260254,-3.4487733840942383,-2.4209296703338623,0.6705377101898193,-2.00518798828125,-0.5797121524810791,-0.3138025104999542,-2.9683115482330322,0.5303817987442017,-1.9770536422729492,6.493637561798096
2120_2016-08-05_2017-02-01.png,1.1986329555511475,3.196338176727295,-1.7824368476867676,0.8773869872093201,2.8053300380706787,1.6504273414611816,-2.340744972229004,0.17009781301021576,-3.35666823387146,1.2650240659713745,3.9219956398010254,4.72710657119751,2.523014783859253,0.6964188814163208,-4.652994155883789,0.876577615737915,0.9916924834251404,-0.5768222808837891,2.2306137084960938,-1.5414174795150757,-5.892093658447266,-1.8414863348007202,2.287348508834839,-1.1525142192840576,-0.68070387840271,1.7259385585784912,-3.27923846244812,-1.0001548528671265,-1.8358813524246216,-2.778216600418091,-0.1605946272611618,-1.5935910940170288
2120_2018-06-07_2018-12-04.png,-3.216503858566284,2.564680337905884,-2.3478996753692627,-1.1532853841781616,1.3341736793518066,-0.8437063097953796,0.21758851408958435,-1.9247125387191772,0.42197948694229126,1.207105040550232,-0.8511245250701904,0.39715394377708435,5.555886268615723,1.1625709533691406,1.8032914400100708,-5.403656959533691,0.23492130637168884,1.4091230630874634,3.8732998371124268,-0.047320473939180374,-1.7708288431167603,-1.7580797672271729,-2.8689210414886475,-2.7168936729431152,5.628896713256836,-0.8043895363807678,2.370161771774292,0.40525171160697937,-3.4037656784057617,-0.45984357595443726,0.4372415840625763,-1.4505681991577148
2120_2018-01-04_2018-06-28.png,-0.3528370261192322,0.9638901948928833,1.7633694410324097,0.47706660628318787,-1.0845775604248047,-0.26782840490341187,-0.1019936203956604,3.386937141418457,4.316241264343262,-2.4268147945404053,-0.5046316981315613,-2.202683210372925,-0.6109263300895691,2.8067586421966553,1.4214953184127808,-2.4690449237823486,-1.0858948230743408,3.2456793785095215,1.5074341297149658,2.04911732673645,-3.2024919986724854,3.6175787448883057,0.1541854739189148,2.410249948501587,0.13323217630386353,-5.768535614013672,-0.9138861298561096,-1.6270971298217773,1.327720284461975,-4.889145374298096,-0.020206714048981667,2.517892360687256
2120_2016-10-31_2017-04-27.png,-4.207763671875,2.2593557834625244,-0.3121795654296875,0.6109692454338074,4.89012336730957,-1.7125089168548584,-1.5154380798339844,2.4285166263580322,-3.243727207183838,-1.4822684526443481,4.212009429931641,3.1313130855560303,4.377714157104492,0.5354911088943481,0.7177912592887878,2.473949670791626,4.101131439208984,1.348366141319275,4.510211944580078,-0.8780070543289185,-2.6842446327209473,0.10739360004663467,3.485799789428711,-2.6418840885162354,-1.4178810119628906,1.7368879318237305,2.3010222911834717,-1.9073413610458374,-2.583857297897339,0.3039916753768921,1.1591393947601318,3.1663167476654053
2120_2019-03-22_2019-09-17.png,-1.8014153242111206,2.2215158939361572,-3.242574691772461,1.9378039836883545,-1.844383955001831,1.5109970569610596,0.7998664975166321,0.701582133769989,1.3310136795043945,0.19725757837295532,-1.502964973449707,-0.39944449067115784,0.09275073558092117,-1.3354912996292114,-2.0513553619384766,-3.077558755874634,0.6399197578430176,-1.7528785467147827,0.6678141951560974,-1.0101916790008545,-5.458515167236328,2.3169608116149902,0.8335990309715271,2.0119166374206543,9.299141883850098,-3.6409316062927246,-0.9109559059143066,-2.009824752807617,1.821694016456604,0.1156969964504242,-1.3777830600738525,-4.213650226593018
2120_2018-02-15_2018-08-14.png,-1.471757173538208,2.789259433746338,-2.5620710849761963,1.880180835723877,-2.4022438526153564,-3.387152671813965,2.4762070178985596,0.8652613759040833,0.853966236114502,0.8263634443283081,3.5611472129821777,1.2934867143630981,-1.4038307666778564,3.6247074604034424,-1.958413004875183,2.8546454906463623,0.48640263080596924,-0.9594213366508484,3.73087477684021,-3.1458964347839355,-2.4552505016326904,1.4245668649673462,2.37107253074646,1.3577263355255127,0.6835685968399048,-4.342269420623779,-2.072479248046875,-3.9491348266601562,0.7711648941040039,1.8447389602661133,-1.0490931272506714,1.4333165884017944
2120_2018-08-01_2019-01-28.png,4.344794750213623,-1.6482136249542236,1.007865309715271,-2.2669029235839844,-4.585025310516357,-2.8590962886810303,0.09812440723180771,-0.7566269636154175,1.7817999124526978,0.8758371472358704,3.785351037979126,-1.735994815826416,-1.339905858039856,-1.928917646408081,0.8845769166946411,0.24909503757953644,-3.1046929359436035,1.7644010782241821,0.24332258105278015,-3.8767294883728027,3.353600025177002,-3.31425404548645,-1.9922198057174683,2.242342233657837,-0.45857033133506775,-0.04151163995265961,-0.0019852486439049244,5.20940637588501,-5.968924522399902,-5.041357040405273,2.3119170665740967,-2.5745701789855957
2120_2017-03-06_2017-09-01.png,1.6657531261444092,0.7548023462295532,0.6474358439445496,2.0134475231170654,-2.9742376804351807,3.3104233741760254,3.779172420501709,-1.1988964080810547,0.7616856098175049,-2.493710994720459,-0.7469315528869629,5.397970676422119,1.0773545503616333,-1.478707194328308,-0.8417114019393921,-2.7884559631347656,-3.3843841552734375,-3.4877817630767822,1.7325851917266846,-3.458928108215332,3.0279879570007324,-7.586042404174805,1.951513648033142,1.7200617790222168,-4.091729164123535,-1.352379322052002,0.5672707557678223,0.10968390107154846,0.23827697336673737,0.5473891496658325,4.500471591949463,-3.3124475479125977
2120_2016-12-29_2017-06-27.png,-4.248079299926758,-0.5116111636161804,0.051301755011081696,-1.283371090888977,1.2357025146484375,2.0705785751342773,0.23188680410385132,0.3570179343223572,-6.032011032104492,2.6985857486724854,2.954847574234009,-1.256412386894226,0.9090074300765991,-0.4455559551715851,0.1628803163766861,2.4419729709625244,2.6452479362487793,-3.577239990234375,-0.8150349855422974,4.671869277954102,3.4793784618377686,0.08441461622714996,-1.4688791036605835,-1.1136828660964966,2.246711254119873,0.6330608129501343,5.19237756729126,3.2276313304901123,0.6919906139373779,-2.7418394088745117,-3.9404096603393555,1.9690409898757935
2120_2018-11-16_2019-05-15.png,-1.0466946363449097,2.952704429626465,-1.7383341789245605,-1.5592951774597168,-0.6757380366325378,-1.5597591400146484,-1.2575218677520752,0.3850362300872803,0.9907282590866089,0.24766740202903748,1.967620611190796,1.6609338521957397,0.2570413649082184,3.588214159011841,-1.0326069593429565,0.921635091304779,-1.6439259052276611,0.5654413104057312,2.647336721420288,-3.5550296306610107,-3.9079606533050537,2.6199803352355957,0.6840274333953857,0.7495554089546204,0.11522268503904343,-3.752178192138672,-0.3217483460903168,-3.481739044189453,-0.564887285232544,1.3407498598098755,-0.29542848467826843,-0.05486663058400154
2120_2017-01-25_2017-07-24.png,-0.1380564272403717,4.061509609222412,-1.3908720016479492,-0.21696148812770844,-1.9734063148498535,1.6006858348846436,0.12828582525253296,4.034965991973877,-4.161110877990723,-2.1170969009399414,2.385962724685669,-2.567918539047241,5.116207599639893,0.057839129120111465,-1.298651099205017,1.4870882034301758,-2.60282826423645,-2.5020458698272705,2.2760918140411377,-2.899268388748169,-3.638059377670288,-2.5129923820495605,-0.2379208654165268,-4.843574523925781,1.1428959369659424,-4.597899913787842,2.8240227699279785,1.691848874092102,0.5171701312065125,-1.0557736158370972,1.779107928276062,-4.801283836364746
2120_2018-09-28_2019-03-27.png,0.8508105278015137,-5.756095886230469,0.7137796878814697,-4.254121780395508,-2.139737367630005,-0.19577498733997345,0.8966298699378967,-1.0190014839172363,0.8747634291648865,3.2050631046295166,1.2952245473861694,-0.5817175507545471,0.940218985080719,1.9837647676467896,0.0594506561756134,-2.2712337970733643,-4.882892608642578,1.3636420965194702,-0.3889812231063843,5.813411712646484,-3.330777883529663,0.9550941586494446,-0.9439042806625366,-0.15913307666778564,-1.3275963068008423,-4.273753643035889,-4.3526716232299805,0.561137318611145,0.607330858707428,-1.9816218614578247,-1.1037092208862305,-3.145343065261841
2120_2017-09-04_2018-03-02.png,1.5301858186721802,-6.1328654289245605,2.1988754272460938,-3.1463561058044434,0.6612955331802368,1.91820228099823,-0.5250164270401001,-3.5476932525634766,-1.5201542377471924,1.46442449092865,2.139467477798462,-1.9498788118362427,-2.738027572631836,2.6970794200897217,-0.20058250427246094,-5.108837127685547,-6.311222553253174,0.11762836575508118,-0.7700182199478149,0.9116384983062744,2.938958168029785,-2.1710591316223145,-1.9462617635726929,1.7832183837890625,-1.5177663564682007,2.075269937515259,1.8986124992370605,1.0341014862060547,-0.6689349412918091,-1.1056944131851196,-0.3762921392917633,0.3498325049877167
2120_2019-04-08_2019-10-03.png,2.7708985805511475,1.2833220958709717,-3.051962375640869,-2.8034579753875732,-4.926855564117432,3.3961806297302246,-2.8938770294189453,-3.490825891494751,-0.014325200580060482,-0.858139157295227,0.9074881672859192,-4.966513156890869,1.4500125646591187,3.871335506439209,-1.6160697937011719,-4.649683475494385,-3.5074400901794434,0.6244357824325562,3.568732500076294,-6.251767635345459,-3.5923304557800293,-1.6043940782546997,-1.7930316925048828,0.6865628957748413,2.9221465587615967,3.607516050338745,-1.0227086544036865,-2.3304622173309326,2.410470724105835,1.700148105621338,-0.4133574068546295,-2.080165147781372
2120_2016-10-17_2017-04-13.png,-0.7656257152557373,4.563793182373047,-0.5641887187957764,1.7850147485733032,4.628875255584717,-5.360553741455078,1.663111686706543,-0.05143601447343826,-0.3256223499774933,-1.1287423372268677,1.659300446510315,1.8503459692001343,1.7704620361328125,0.08815129101276398,2.244454860687256,3.788923978805542,7.521629810333252,0.2032376378774643,-0.48156195878982544,-0.2636117935180664,0.5280613303184509,0.9679866433143616,1.789652943611145,-0.29212188720703125,-0.951075553894043,1.6475830078125,-0.41330307722091675,-1.9180606603622437,-0.8598717451095581,3.1310644149780273,-0.48616665601730347,5.485103130340576
2120_2019-04-01_2019-09-27.png,0.5343011617660522,2.8013508319854736,-2.601888656616211,-0.4902040958404541,-2.139312982559204,3.3421406745910645,-2.0131330490112305,-2.6611483097076416,0.7918552160263062,-0.20398922264575958,-1.0320419073104858,-2.129239082336426,1.9982637166976929,2.4245595932006836,0.030708996579051018,-7.466790199279785,-1.868562936782837,1.8231070041656494,3.120741605758667,-5.539078235626221,-3.8045294284820557,-0.47348499298095703,-1.515504240989685,-0.45090872049331665,3.76063871383667,2.9248082637786865,0.10803016275167465,-2.122897148132324,-0.5468965172767639,1.0302814245224,1.1786152124404907,-0.9484395384788513
2120_2018-04-13_2018-10-10.png,-2.9371848106384277,4.2988176345825195,0.5580735802650452,-1.8376355171203613,-0.27661922574043274,-1.6278231143951416,1.7365219593048096,3.3432681560516357,0.9436418414115906,1.9862351417541504,0.7380738854408264,0.9775674939155579,0.9725855588912964,2.5054211616516113,-2.965707778930664,0.16514812409877777,1.8173129558563232,1.643958330154419,1.6626530885696411,-1.3959274291992188,-2.4400439262390137,4.360332012176514,-4.281714916229248,-1.4864425659179688,1.0499330759048462,-5.8572096824646,2.798499584197998,-1.0947858095169067,-0.13664686679840088,4.987277984619141,-4.425713539123535,0.6335556507110596
