filepath,CCAE_0,CCAE_1,CCAE_2,CCAE_3,CCAE_4,CCAE_5,CCAE_6,CCAE_7,CCAE_8,CCAE_9,CCAE_10,CCAE_11,CCAE_12,CCAE_13,CCAE_14,CCAE_15,CCAE_16,CCAE_17,CCAE_18,CCAE_19,CCAE_20,CCAE_21,CCAE_22,CCAE_23,CCAE_24,CCAE_25,CCAE_26,CCAE_27,CCAE_28,CCAE_29,CCAE_30,CCAE_31,CCAE_32,CCAE_33,CCAE_34,CCAE_35,CCAE_36,CCAE_37,CCAE_38,CCAE_39,CCAE_40,CCAE_41,CCAE_42,CCAE_43,CCAE_44,CCAE_45,CCAE_46,CCAE_47,CCAE_48,CCAE_49,CCAE_50,CCAE_51,CCAE_52,CCAE_53,CCAE_54,CCAE_55,CCAE_56,CCAE_57,CCAE_58,CCAE_59,CCAE_60,CCAE_61,CCAE_62,CCAE_63,CCAE_64,CCAE_65,CCAE_66,CCAE_67,CCAE_68,CCAE_69,CCAE_70,CCAE_71,CCAE_72,CCAE_73,CCAE_74,CCAE_75,CCAE_76,CCAE_77,CCAE_78,CCAE_79,CCAE_80,CCAE_81,CCAE_82,CCAE_83,CCAE_84,CCAE_85,CCAE_86,CCAE_87,CCAE_88,CCAE_89,CCAE_90,CCAE_91,CCAE_92,CCAE_93,CCAE_94,CCAE_95,CCAE_96,CCAE_97,CCAE_98,CCAE_99,CCAE_100,CCAE_101,CCAE_102,CCAE_103,CCAE_104,CCAE_105,CCAE_106,CCAE_107,CCAE_108,CCAE_109,CCAE_110,CCAE_111,CCAE_112,CCAE_113,CCAE_114,CCAE_115,CCAE_116,CCAE_117,CCAE_118,CCAE_119,CCAE_120,CCAE_121,CCAE_122,CCAE_123,CCAE_124,CCAE_125,CCAE_126,CCAE_127
2120_2019-03-14_2019-03-28.png,-2.713711977005005,33.33951187133789,0.7155454158782959,4.468841552734375,22.829113006591797,5.694587230682373,14.608932495117188,-1.8973032236099243,-0.47963425517082214,-4.5136518478393555,-2.697592258453369,13.563614845275879,3.384335994720459,-1.1267014741897583,49.88701629638672,13.786348342895508,8.871247291564941,1.3076715469360352,-1.0114723443984985,-21.592927932739258,10.025792121887207,19.070581436157227,-14.533409118652344,-10.554010391235352,-8.030173301696777,10.269959449768066,-2.6222803592681885,-28.284564971923828,17.530717849731445,2.5174143314361572,28.483627319335938,-10.278497695922852,28.035829544067383,-38.96955871582031,13.607804298400879,-28.271839141845703,-6.108853816986084,-6.430719375610352,28.003541946411133,9.219141006469727,-30.130638122558594,-12.420853614807129,3.248264789581299,-14.954164505004883,15.393982887268066,-14.826506614685059,-2.426240921020508,23.591218948364258,13.271907806396484,-9.652007102966309,-2.0225987434387207,19.258604049682617,18.37857437133789,-1.121405005455017,8.394304275512695,-22.80235481262207,0.2021482288837433,17.75948715209961,-7.296456813812256,7.454003810882568,-13.282952308654785,-22.941762924194336,6.390285968780518,11.772907257080078,13.543306350708008,19.586942672729492,-17.75228500366211,-5.5768961906433105,3.124969959259033,-8.941861152648926,-31.804218292236328,1.8153839111328125,1.836809754371643,-12.18636703491211,-14.753426551818848,-2.130768299102783,13.424636840820312,-22.34410285949707,-10.516956329345703,39.624610900878906,-18.4547176361084,-2.221548557281494,4.405323505401611,34.35285568237305,-8.222291946411133,-4.361501216888428,-3.678762912750244,-0.889986515045166,14.355384826660156,-11.94757080078125,-8.208059310913086,-5.785129547119141,12.513301849365234,4.362182140350342,11.056400299072266,-8.80496597290039,17.812496185302734,-13.751581192016602,7.888416290283203,-26.35624122619629,7.644613742828369,-17.523683547973633,-13.954364776611328,30.934823989868164,-43.865482330322266,18.878385543823242,-10.469869613647461,-12.005884170532227,1.14395272731781,22.911645889282227,2.070613145828247,12.600936889648438,-25.978784561157227,-0.7213383913040161,15.492483139038086,11.403048515319824,13.3753662109375,-21.531370162963867,24.795827865600586,27.87127113342285,-6.002131938934326,-20.120433807373047,-19.16607666015625,3.3744678497314453,-0.3576001524925232,-8.624138832092285,-22.68590545654297,26.69915771484375
2120_2019-05-24_2019-06-07.png,-7.335072994232178,24.92529296875,11.029528617858887,7.781543254852295,18.601722717285156,11.701638221740723,21.869138717651367,-4.976564407348633,16.120805740356445,-8.449109077453613,2.926602840423584,1.381960391998291,-3.0620412826538086,-17.988113403320312,33.56517028808594,5.996001243591309,-24.8717098236084,-6.701026439666748,-2.2629172801971436,-18.63901710510254,7.232194900512695,36.62568283081055,-20.230426788330078,-36.80258560180664,4.271101474761963,8.731572151184082,-18.622896194458008,-31.734066009521484,39.02259063720703,-10.535882949829102,13.902599334716797,-5.879981994628906,8.512848854064941,-20.1982421875,2.965083599090576,-16.48644256591797,-4.427507400512695,6.130061149597168,6.564750671386719,14.625127792358398,-21.975170135498047,-5.20688009262085,4.497315883636475,-17.473268508911133,13.60118579864502,1.1823022365570068,-7.187954902648926,18.850252151489258,15.068258285522461,-27.372955322265625,1.6442289352416992,33.202850341796875,14.860564231872559,-4.5234174728393555,-13.068252563476562,-42.53943634033203,-5.561019420623779,4.047422409057617,1.891574740409851,11.664844512939453,-18.15481948852539,-13.908814430236816,11.206689834594727,18.08831787109375,2.038952589035034,14.670675277709961,-7.208235263824463,5.617157936096191,-7.945138931274414,-17.33833122253418,-11.125158309936523,-15.142696380615234,-12.184117317199707,-19.83251190185547,-8.311208724975586,13.752032279968262,3.6007285118103027,-12.649046897888184,-12.816801071166992,26.66510772705078,8.444341659545898,8.429267883300781,-1.1879782676696777,28.523117065429688,-0.8963491320610046,-10.394491195678711,0.45414310693740845,7.564016819000244,25.075990676879883,-19.86493492126465,1.7324721813201904,-7.120638847351074,16.811939239501953,0.058343760669231415,13.394758224487305,0.8146882057189941,12.865251541137695,-12.815427780151367,3.1005680561065674,-13.68261432647705,8.367515563964844,-14.472926139831543,-11.497602462768555,17.783666610717773,-17.533227920532227,18.128978729248047,11.29661750793457,-5.681373596191406,6.518121242523193,6.410455226898193,-7.932592868804932,19.64792823791504,-19.24117088317871,-4.352998733520508,0.4424833059310913,21.60753059387207,19.736799240112305,-40.83098602294922,11.733450889587402,32.33750915527344,-11.073518753051758,-19.876054763793945,-10.498467445373535,4.677258491516113,5.3210344314575195,4.322707653045654,-9.272814750671387,24.44622802734375
2120_2017-08-07_2017-08-21.png,-8.734890937805176,23.727258682250977,10.893132209777832,5.53834342956543,-5.119146823883057,12.25075626373291,7.376485347747803,10.308232307434082,9.930097579956055,-14.756689071655273,-4.765040874481201,14.032282829284668,4.091671943664551,-3.8196303844451904,44.11243438720703,8.76402759552002,3.9879953861236572,-7.167834758758545,6.262047290802002,3.2633984088897705,12.994324684143066,5.246089458465576,-24.958271026611328,-5.812968730926514,-7.73748779296875,15.30266284942627,-21.987001419067383,-41.22938537597656,45.92774200439453,-4.178635120391846,26.925607681274414,0.23812630772590637,0.559014618396759,-22.23225212097168,4.930663585662842,-9.47754955291748,-10.106135368347168,-19.543712615966797,20.73366355895996,11.766633987426758,-28.08670425415039,-15.328198432922363,10.939764022827148,-21.550554275512695,18.330440521240234,-19.961416244506836,8.045438766479492,31.106910705566406,15.199817657470703,-8.079087257385254,-8.890347480773926,25.392019271850586,15.244658470153809,1.823501467704773,-10.640371322631836,-16.673063278198242,-9.297863006591797,1.566144347190857,-9.74637508392334,8.56501579284668,-7.741067409515381,-18.215208053588867,15.94597053527832,4.560145854949951,17.020689010620117,6.324113845825195,-21.819787979125977,18.671993255615234,-19.776649475097656,-10.834592819213867,-8.15656852722168,-13.127715110778809,-32.97062301635742,-9.713464736938477,-10.871016502380371,-14.424088478088379,10.148929595947266,-16.856966018676758,-3.958195924758911,36.21862030029297,1.817096471786499,-0.27699440717697144,-1.9150712490081787,22.404624938964844,10.353718757629395,-14.466104507446289,-17.562028884887695,14.164055824279785,4.012497901916504,1.0542652606964111,-24.1646728515625,0.4192819595336914,17.673009872436523,3.3458433151245117,-5.636744499206543,10.460037231445312,7.837979316711426,-21.605619430541992,-9.103742599487305,-9.244811058044434,-9.26509952545166,-6.7422308921813965,-21.460655212402344,24.83439064025879,-43.8847541809082,22.781051635742188,3.8127126693725586,-6.144800186157227,15.787904739379883,21.81496238708496,-10.816534042358398,21.016956329345703,-24.254507064819336,9.182971954345703,12.162437438964844,1.2784936428070068,5.986947059631348,-31.22628402709961,20.524534225463867,16.35464096069336,-21.976619720458984,-7.681641101837158,-3.2604682445526123,13.617732048034668,-1.4573545455932617,-21.19310760498047,-25.52062225341797,18.995281219482422
2120_2019-10-24_2019-11-07.png,5.4079060554504395,39.49002456665039,-0.5044858455657959,18.606592178344727,26.9268798828125,3.7275710105895996,26.270421981811523,-6.021201133728027,2.77974796295166,1.9223225116729736,7.035214424133301,7.486898422241211,0.9647367596626282,-27.36076545715332,33.68958282470703,18.936527252197266,-9.601040840148926,-23.253490447998047,-4.4842963218688965,-12.088789939880371,0.7376064658164978,22.310392379760742,-29.488353729248047,-19.65086555480957,15.838765144348145,5.100080490112305,7.0214104652404785,-27.407581329345703,25.519559860229492,-3.1322824954986572,12.355976104736328,-7.652339935302734,20.475427627563477,-31.28790855407715,20.624319076538086,-24.252735137939453,-8.909632682800293,-3.8143348693847656,22.73301124572754,31.1197509765625,-26.66895294189453,-12.660693168640137,15.618623733520508,-9.884839057922363,14.525660514831543,-10.52116870880127,1.042017936706543,15.74146842956543,24.823579788208008,-13.280611991882324,3.078619956970215,25.587303161621094,31.77667999267578,-6.647477149963379,-2.43074369430542,-36.87836456298828,-12.112502098083496,23.650630950927734,-1.5708624124526978,17.863201141357422,-13.785290718078613,-13.58100414276123,14.96860122680664,22.962501525878906,4.866029262542725,26.86127471923828,-1.3321442604064941,1.5343124866485596,9.668519973754883,-17.275463104248047,-28.314048767089844,10.50070571899414,8.111346244812012,-19.5257568359375,-17.735950469970703,-1.7542555332183838,15.973955154418945,-22.679487228393555,-29.513805389404297,51.87419891357422,-16.230674743652344,-9.081011772155762,4.121667385101318,38.76205062866211,-0.7299748063087463,0.8959940075874329,-7.669084072113037,5.9286208152771,10.29916000366211,-17.57114601135254,-21.92194366455078,-2.967578887939453,28.366098403930664,0.09607993811368942,17.809492111206055,-13.239761352539062,24.446430206298828,-11.621936798095703,-7.174560546875,-16.93785285949707,20.363117218017578,-21.109834671020508,-16.29098129272461,32.548240661621094,-24.93073081970215,7.654423713684082,-0.48938217759132385,-20.219724655151367,1.8602893352508545,25.76930809020996,-8.467347145080566,4.991347789764404,-7.68093729019165,16.03236198425293,-3.6860175132751465,18.408681869506836,38.055931091308594,-40.04974365234375,13.019295692443848,31.115549087524414,-17.700231552124023,-25.329320907592773,-12.93268871307373,10.838568687438965,-1.6862640380859375,11.761770248413086,-11.233854293823242,5.171009063720703
2120_2017-05-10_2017-05-24.png,-11.299485206604004,39.76498794555664,7.860726356506348,17.5705509185791,12.582051277160645,23.553544998168945,21.97559928894043,-15.078509330749512,19.524822235107422,-11.891805648803711,-7.493311882019043,2.6652534008026123,3.0946576595306396,-29.310365676879883,21.432357788085938,11.286944389343262,-14.982370376586914,-30.778230667114258,2.1930294036865234,-11.16412353515625,7.754140853881836,35.30180358886719,-30.579734802246094,-33.49190139770508,21.739595413208008,12.709927558898926,-9.666777610778809,-21.138469696044922,36.55878448486328,-23.36754035949707,21.703811645507812,-3.190659761428833,8.240038871765137,-9.077689170837402,16.808263778686523,-11.88250732421875,-4.159017086029053,-8.759126663208008,12.534540176391602,35.73052215576172,-25.244670867919922,-23.622766494750977,21.110828399658203,-18.766447067260742,21.699817657470703,13.087592124938965,5.862419128417969,-7.459888935089111,6.457854270935059,-8.584097862243652,9.11583137512207,40.67950439453125,16.385501861572266,-4.824909210205078,-21.74942398071289,-37.433128356933594,4.7913432121276855,4.9437689781188965,-3.521934747695923,19.575244903564453,-13.588482856750488,-7.799832820892334,11.996965408325195,21.07750129699707,5.087997913360596,12.366146087646484,-9.615204811096191,10.603567123413086,-4.990444183349609,-7.538299083709717,-21.683565139770508,-16.679344177246094,-2.6566622257232666,-18.18773651123047,-4.694080829620361,13.936285972595215,-9.645301818847656,-16.993074417114258,-4.17627477645874,43.42803192138672,-2.9895074367523193,-6.669368743896484,10.66970157623291,16.46007537841797,-11.566611289978027,-12.232099533081055,-2.8723433017730713,19.199054718017578,30.601449966430664,-8.811187744140625,-11.124038696289062,-5.878135681152344,17.6761474609375,5.964931011199951,25.993167877197266,-16.128759384155273,16.042137145996094,-20.732328414916992,-10.712058067321777,-2.3226640224456787,22.16226577758789,-20.706592559814453,0.20673073828220367,22.26567268371582,-2.6905863285064697,25.981611251831055,13.459663391113281,-21.208585739135742,22.270673751831055,22.494077682495117,-14.401055335998535,29.916397094726562,-13.330266952514648,6.243025779724121,-15.305035591125488,14.453961372375488,24.110307693481445,-40.27201461791992,13.753828048706055,20.287099838256836,-11.83757209777832,-1.5003575086593628,-10.20446491241455,-0.8182134032249451,-0.39427822828292847,15.381357192993164,-23.563026428222656,-5.674492359161377
2120_2017-06-21_2017-07-05.png,-12.562687873840332,35.49558639526367,3.4639744758605957,15.883326530456543,18.803550720214844,4.3176398277282715,18.475385665893555,-6.916965484619141,3.9835703372955322,-1.3104220628738403,-1.213563323020935,4.630589485168457,14.164533615112305,-22.0710391998291,29.97430419921875,12.780147552490234,9.92602825164795,-17.702272415161133,12.881601333618164,-1.5323492288589478,-2.9979097843170166,16.56205940246582,-35.77304458618164,-18.65366554260254,32.07228469848633,5.571893692016602,9.352190971374512,-17.956356048583984,13.867303848266602,7.3153276443481445,27.918621063232422,-10.514902114868164,22.049497604370117,-33.772857666015625,15.134840965270996,-28.510417938232422,-13.982148170471191,-17.35610580444336,17.50234031677246,30.54183578491211,-29.156566619873047,-15.56517505645752,15.17745590209961,-8.643342018127441,17.636430740356445,-7.152009010314941,16.2664852142334,1.8860511779785156,21.908458709716797,2.53071928024292,8.261842727661133,28.030193328857422,22.275266647338867,-14.44914722442627,-23.562381744384766,-33.76716613769531,-16.213497161865234,26.74385643005371,-5.914455890655518,7.363200664520264,-21.90573501586914,-22.577482223510742,16.675886154174805,23.71255111694336,3.295734405517578,22.048673629760742,-8.897425651550293,7.00885534286499,11.234159469604492,-11.317367553710938,-29.99412727355957,8.795384407043457,4.769845962524414,3.2818551063537598,-13.511155128479004,-8.405152320861816,-0.5172470808029175,-24.092302322387695,-11.025960922241211,50.596736907958984,-20.997995376586914,-7.6241254806518555,11.656601905822754,29.068096160888672,-7.007321834564209,7.1495747566223145,-22.151018142700195,1.8453251123428345,12.515680313110352,-16.836650848388672,-37.099205017089844,-3.6384308338165283,18.53845977783203,-15.990078926086426,34.36265563964844,-24.117961883544922,23.488590240478516,-13.950145721435547,-15.750283241271973,-20.985334396362305,21.082347869873047,-17.8204288482666,3.5982017517089844,22.742528915405273,-32.64738845825195,16.53493881225586,-6.538123607635498,-25.71625328063965,10.003375053405762,21.89510154724121,-11.558528900146484,9.417186737060547,0.667665421962738,18.300966262817383,11.241008758544922,10.387129783630371,20.69934844970703,-32.27568435668945,16.83671760559082,18.80283546447754,-17.018518447875977,-1.5531681776046753,-3.630970001220703,10.473910331726074,0.48336508870124817,3.7469680309295654,-33.500789642333984,-7.826901912689209
2120_2017-07-06_2017-07-20.png,-4.293697357177734,23.57552146911621,0.14183056354522705,-0.14438094198703766,8.375317573547363,8.817608833312988,26.90326499938965,-11.700970649719238,2.4871788024902344,-10.355594635009766,3.746023654937744,-5.992217063903809,1.4261244535446167,-11.841952323913574,30.75082015991211,35.931827545166016,-3.253000259399414,-13.459177017211914,-5.785604953765869,-29.817705154418945,-2.899400472640991,25.907026290893555,-22.077186584472656,-30.007768630981445,31.56330680847168,7.650171279907227,-5.769153118133545,-16.27910614013672,26.839330673217773,2.4373257160186768,18.088851928710938,-16.587141036987305,8.60395336151123,-18.42174530029297,23.57414436340332,-20.9013671875,-13.569375038146973,-7.2451887130737305,7.240468978881836,29.71328353881836,-26.707216262817383,-21.790002822875977,10.004110336303711,-13.941682815551758,13.735285758972168,9.772933006286621,12.912115097045898,3.878884792327881,16.145368576049805,5.194600582122803,9.078962326049805,35.37721252441406,18.30988883972168,-9.308794021606445,-4.547013759613037,-24.08165168762207,-18.260955810546875,25.937454223632812,-9.093379020690918,-5.1361985206604,-9.668044090270996,-9.823542594909668,3.6473605632781982,16.021791458129883,-1.5725793838500977,9.569382667541504,-14.516764640808105,-0.7714768052101135,-5.117167949676514,-21.0225772857666,-22.876222610473633,-1.485095500946045,-12.049223899841309,-12.17601203918457,-11.29616641998291,12.051491737365723,5.614116191864014,-10.56502628326416,-11.450693130493164,30.88195037841797,-6.160460948944092,-13.749335289001465,13.348753929138184,19.735496520996094,-6.213938236236572,-4.572767734527588,-14.693626403808594,4.0563063621521,23.671701431274414,-13.40131950378418,-25.91232681274414,0.8915191888809204,16.062458038330078,2.7104129791259766,13.376846313476562,-10.506633758544922,24.68716049194336,-16.129159927368164,-16.853174209594727,0.9395396709442139,24.67483139038086,-21.45528793334961,9.63892650604248,23.251020431518555,-22.396127700805664,22.41965103149414,5.689624309539795,-1.7488276958465576,5.166787624359131,-4.612087726593018,-14.771288871765137,7.183960437774658,-19.479650497436523,3.6656112670898438,8.049764633178711,14.00693416595459,-5.907055377960205,-35.18703079223633,22.806013107299805,7.9569091796875,-8.872867584228516,-3.1738035678863525,-12.5618314743042,-5.4563093185424805,-3.238055944442749,13.768957138061523,-11.17812728881836,1.571205735206604
2120_2017-01-25_2017-02-08.png,-4.927919387817383,33.44411849975586,6.757120132446289,6.4215240478515625,-3.1095077991485596,16.308835983276367,-0.3458017110824585,-1.2029248476028442,6.177889823913574,-2.368640422821045,-3.758488178253174,8.051186561584473,2.723154067993164,1.6139652729034424,41.34271240234375,0.09804795682430267,-0.4298155605792999,-14.523778915405273,1.8373106718063354,-6.322717666625977,14.008395195007324,5.19523286819458,-19.31125831604004,-5.562623500823975,-11.396434783935547,3.4399847984313965,-18.07497215270996,-33.558746337890625,42.30519104003906,-7.330006122589111,17.668500900268555,-4.299022674560547,-4.735522270202637,-13.932098388671875,9.676417350769043,-4.325446605682373,-1.3510032892227173,-21.726633071899414,2.694409132003784,18.51248550415039,-29.885602951049805,-15.419264793395996,13.893688201904297,-6.520478248596191,8.48408317565918,-17.631540298461914,-7.711246490478516,30.425636291503906,13.508678436279297,-16.868295669555664,-7.8888115882873535,24.207372665405273,15.72300910949707,-12.42391586303711,-4.620541572570801,-16.808629989624023,-2.1274242401123047,5.968440532684326,-0.17696118354797363,20.27710723876953,-14.21125316619873,-16.24937629699707,23.05308723449707,7.235252380371094,7.052164554595947,9.325295448303223,-26.335187911987305,14.072367668151855,-22.83620834350586,0.5918970704078674,-7.0984206199646,-20.521038055419922,-31.19988250732422,-10.855144500732422,-2.629960536956787,-3.3790040016174316,5.130438327789307,-9.887202262878418,-10.67520523071289,49.07535934448242,-0.22368372976779938,-10.51811695098877,-11.363127708435059,26.42340087890625,19.811981201171875,-13.976938247680664,-13.320650100708008,2.8871712684631348,-1.2513779401779175,-5.395086288452148,-12.937093734741211,3.439915657043457,20.656099319458008,0.7227117419242859,-1.7130532264709473,13.532846450805664,16.242128372192383,-23.877782821655273,-5.393397808074951,-7.665757179260254,-13.430276870727539,-4.765468120574951,-17.10901641845703,22.011014938354492,-28.730653762817383,16.035425186157227,10.025014877319336,-9.627145767211914,7.655456066131592,29.68422508239746,-9.295877456665039,23.322731018066406,-15.833322525024414,12.216240882873535,3.9792022705078125,11.4502534866333,11.62293815612793,-19.31836700439453,19.271398544311523,29.077909469604492,-14.619451522827148,-18.550121307373047,0.05201868712902069,12.889216423034668,5.031172752380371,-14.832610130310059,-21.95458221435547,17.112613677978516
2120_2019-05-15_2019-05-29.png,1.7645175457000732,37.98647689819336,-5.675436973571777,26.982999801635742,19.1951961517334,3.514155864715576,9.695220947265625,-2.1217353343963623,1.63058340549469,0.11280927807092667,-0.536481499671936,8.588248252868652,4.434913158416748,-20.623991012573242,31.80491065979004,9.362112998962402,-3.093369245529175,-23.60076141357422,6.2083306312561035,-0.966795027256012,8.662354469299316,15.697052955627441,-36.09946060180664,-3.8089687824249268,4.832977294921875,8.851041793823242,4.819582462310791,-30.795780181884766,24.310224533081055,-2.5898263454437256,6.136721611022949,-0.455947607755661,15.102655410766602,-26.944692611694336,13.820250511169434,-18.716737747192383,-9.649323463439941,-14.368328094482422,17.687593460083008,32.780906677246094,-26.422941207885742,-9.75856876373291,13.01984977722168,-11.36865520477295,11.047504425048828,-19.41922950744629,-6.028010368347168,23.691877365112305,18.620738983154297,-11.81919002532959,-6.059971809387207,23.614463806152344,27.372318267822266,-9.174843788146973,-5.630356788635254,-27.12224769592285,-14.45578670501709,12.466906547546387,-5.782003879547119,14.018987655639648,-14.642037391662598,-17.297143936157227,22.568029403686523,9.459896087646484,12.554603576660156,19.462345123291016,-6.407407760620117,10.225824356079102,0.23637622594833374,-5.447472095489502,-24.607215881347656,6.287341117858887,3.549165964126587,-12.848100662231445,-5.866034030914307,-15.807161331176758,11.618510246276855,-19.568071365356445,-30.31652069091797,38.43120574951172,-16.786052703857422,-16.810504913330078,-0.5857576727867126,28.27564239501953,4.668807506561279,1.661673665046692,-9.608734130859375,4.8967366218566895,-5.804465293884277,-14.023801803588867,-25.3183650970459,-3.962141275405884,23.626792907714844,-1.1627253293991089,21.082429885864258,-6.264479637145996,19.360809326171875,-22.630720138549805,-4.115906715393066,-19.10862159729004,6.182340145111084,-11.646084785461426,-25.956127166748047,30.63530158996582,-34.291690826416016,5.351615905761719,4.385275363922119,-24.489118576049805,18.375789642333984,27.970163345336914,-12.357921600341797,10.40571117401123,0.36897003650665283,17.99108123779297,1.7302935123443604,6.870750427246094,35.54574966430664,-30.7038631439209,5.038153171539307,34.27220153808594,-14.9049072265625,-28.79964828491211,-14.345314979553223,8.999241828918457,-4.028655529022217,-1.1577742099761963,-17.15981101989746,4.638586044311523
2120_2018-10-24_2018-11-07.png,-7.849435806274414,50.679264068603516,-5.640467643737793,31.1618595123291,31.472333908081055,7.1644673347473145,25.589784622192383,0.38019973039627075,9.150514602661133,-22.904829025268555,-6.977306365966797,21.101808547973633,4.532090663909912,-44.62095260620117,30.993839263916016,16.00146484375,0.39504387974739075,-32.14393997192383,4.824244022369385,9.873503684997559,9.522197723388672,23.786054611206055,-45.65157699584961,-19.904008865356445,12.355667114257812,20.097673416137695,4.377845287322998,-39.09196472167969,29.526369094848633,-12.897239685058594,35.211124420166016,-2.9472782611846924,29.866952896118164,-26.893817901611328,7.473787784576416,-17.777637481689453,-11.792323112487793,-3.3860702514648438,49.04275131225586,36.02817153930664,-20.011369705200195,-12.00340747833252,31.138736724853516,-29.56714630126953,23.44723129272461,-13.06345272064209,15.85234546661377,7.644739627838135,17.347030639648438,3.9701316356658936,1.3948132991790771,18.69506072998047,23.746797561645508,6.700653076171875,-17.79075050354004,-41.988922119140625,-5.024468898773193,3.570495128631592,-6.351132869720459,12.565519332885742,-23.589797973632812,-21.657678604125977,17.123517990112305,22.372411727905273,25.187753677368164,21.83308219909668,0.2849770188331604,8.556459426879883,14.852241516113281,-12.562871932983398,-36.533878326416016,3.777576208114624,9.251957893371582,-11.467788696289062,-15.195427894592285,-5.035887241363525,4.208747386932373,-28.040191650390625,-14.626127243041992,36.0236701965332,-25.62660789489746,-2.683290481567383,9.485715866088867,31.0946044921875,-16.001697540283203,0.26635125279426575,2.585583448410034,20.90970230102539,23.61637306213379,-1.6412630081176758,-23.049667358398438,-14.416550636291504,21.64067840576172,4.0738749504089355,25.67040252685547,-20.018844604492188,8.908201217651367,-16.755826950073242,-15.022709846496582,-23.886777877807617,19.882240295410156,-19.23533821105957,-19.674209594726562,35.528419494628906,-27.033205032348633,22.243576049804688,0.6897181868553162,-32.267669677734375,22.760438919067383,43.279640197753906,-6.766314506530762,24.118839263916016,-9.024092674255371,2.986307144165039,-14.633864402770996,5.618581771850586,54.27696990966797,-44.30995559692383,8.37637710571289,21.790071487426758,-24.964035034179688,-8.524737358093262,-11.395916938781738,22.202184677124023,-2.674638032913208,9.991556167602539,-31.178422927856445,-5.032516956329346
2120_2016-09-02_2016-09-16.png,-4.882694244384766,29.993507385253906,-2.0193610191345215,0.48103487491607666,10.708407402038574,11.09390926361084,14.890533447265625,-3.163123369216919,-2.0880322456359863,-5.22557258605957,4.496853828430176,14.888992309570312,2.243882179260254,-3.8631436824798584,43.198158264160156,22.093515396118164,7.635987281799316,-1.8569390773773193,-6.759491443634033,-22.972238540649414,1.4252153635025024,14.02503490447998,-22.472408294677734,-13.624481201171875,6.587038040161133,4.867879867553711,-3.3822543621063232,-21.730304718017578,21.726530075073242,8.97602367401123,30.214584350585938,-2.6969621181488037,19.1547908782959,-29.708133697509766,17.350793838500977,-23.22988510131836,-9.506892204284668,-8.324666023254395,19.162343978881836,14.605978012084961,-31.49344825744629,-17.06028175354004,3.1041812896728516,-10.70063304901123,16.106542587280273,-7.104416847229004,6.694990158081055,18.087909698486328,15.503267288208008,-3.447451591491699,5.939844131469727,24.407630920410156,18.31915283203125,-9.493732452392578,1.0624159574508667,-21.317968368530273,-5.6154608726501465,22.071992874145508,-1.3000208139419556,1.494754672050476,-16.05265235900879,-21.737180709838867,5.766848087310791,11.959325790405273,7.35293436050415,12.589273452758789,-17.308874130249023,-6.951813697814941,-2.482617139816284,-16.238773345947266,-27.08940887451172,-5.949883460998535,-7.53692626953125,-8.973261833190918,-14.573769569396973,-2.4411697387695312,4.979055881500244,-12.907572746276855,-3.2031121253967285,36.616207122802734,-13.489767074584961,-11.614079475402832,9.550566673278809,31.82634735107422,-1.6920051574707031,-6.351235866546631,-13.06447982788086,-2.187455177307129,14.34262466430664,-14.87600326538086,-14.276212692260742,-3.9125425815582275,11.214393615722656,-0.2558838725090027,9.609930038452148,-5.397373199462891,25.115612030029297,-13.974403381347656,-5.218997955322266,-13.681330680847168,7.080952167510986,-18.338369369506836,-1.608553171157837,25.389463424682617,-33.258056640625,19.036067962646484,-2.376192569732666,-2.623295545578003,-7.6676554679870605,11.21704387664795,-6.941217422485352,11.045104026794434,-21.940061569213867,3.828104019165039,17.163795471191406,12.220797538757324,-2.247100353240967,-22.84245491027832,26.17350959777832,15.262554168701172,-9.167314529418945,-13.185452461242676,-13.723164558410645,0.25499236583709717,-0.6776971220970154,-2.894911050796509,-20.06330108642578,15.860750198364258
2120_2018-06-07_2018-06-21.png,-7.087344646453857,40.545677185058594,-4.990886688232422,4.435050964355469,30.491378784179688,5.663449764251709,27.899377822875977,-9.825194358825684,5.4583845138549805,-15.929023742675781,-0.70405113697052,5.733874797821045,0.3567696213722229,-11.814290046691895,44.71552276611328,23.295385360717773,-1.0735658407211304,-5.597862720489502,-5.196333408355713,-26.582380294799805,14.087285041809082,34.5965576171875,-19.5576171875,-22.609094619750977,3.6784982681274414,14.952692985534668,-8.5931978225708,-25.958812713623047,19.545080184936523,-3.6980795860290527,25.04151725769043,-9.297395706176758,24.368383407592773,-29.71004867553711,16.418312072753906,-21.885887145996094,-6.301147937774658,3.5458412170410156,18.277620315551758,18.12386131286621,-24.368803024291992,-18.70082664489746,7.2923078536987305,-20.512662887573242,13.593750953674316,-6.080410957336426,-4.8223981857299805,7.796859264373779,3.9944589138031006,-3.760815143585205,-1.4009127616882324,22.040508270263672,17.978605270385742,-0.646905779838562,6.199613571166992,-24.339834213256836,0.19923093914985657,15.15168285369873,-8.842777252197266,5.7282395362854,-18.030078887939453,-20.27128028869629,-0.9105637669563293,19.379648208618164,13.0826416015625,16.29488754272461,-17.83346176147461,-10.90240478515625,1.3025479316711426,-7.120581150054932,-33.26839828491211,-6.010619163513184,3.844545602798462,-14.263036727905273,-5.510972499847412,12.4378080368042,0.7138521671295166,-13.022978782653809,-3.15842866897583,28.179466247558594,-16.336153030395508,-1.6626747846603394,6.720667362213135,30.64578628540039,-13.44174861907959,-10.33918571472168,4.420422554016113,2.686621904373169,31.402849197387695,-11.040483474731445,2.6777236461639404,-11.969489097595215,8.550829887390137,9.01121711730957,8.495821952819824,-11.206779479980469,17.31435203552246,-20.37442970275879,6.714720249176025,-17.76890754699707,13.476188659667969,-21.382646560668945,-5.276773452758789,28.946870803833008,-30.59419059753418,24.85402488708496,1.1600486040115356,-8.555656433105469,2.0071704387664795,11.843945503234863,6.282696723937988,18.70172691345215,-28.077226638793945,-18.181812286376953,8.73757266998291,14.379891395568848,10.955446243286133,-23.661012649536133,18.1091365814209,30.09278678894043,1.0040456056594849,-21.69982147216797,-19.861778259277344,-3.8102498054504395,1.3987879753112793,2.1812517642974854,-21.718059539794922,23.484607696533203
2120_2017-03-17_2017-03-31.png,1.0575025081634521,31.17985725402832,9.734463691711426,16.00054359436035,6.4118452072143555,10.654051780700684,17.383691787719727,-11.279980659484863,1.2542845010757446,16.487598419189453,7.714966773986816,11.4793119430542,1.4795305728912354,-14.474152565002441,33.25578308105469,5.5560197830200195,-5.131650924682617,-8.774284362792969,-9.350875854492188,-21.955812454223633,-0.2305750697851181,6.100862979888916,3.5137243270874023,-8.662073135375977,-12.514162063598633,-3.4706778526306152,13.187708854675293,-19.711410522460938,12.529203414916992,-6.497357368469238,16.699975967407227,-15.58154296875,6.4322509765625,-29.624025344848633,30.165489196777344,-32.640262603759766,10.258269309997559,-8.912851333618164,3.2853457927703857,12.665714263916016,-35.8355827331543,-22.087549209594727,7.028311729431152,8.804333686828613,11.062394142150879,1.3759758472442627,-12.037542343139648,23.753751754760742,21.481229782104492,-29.95189666748047,4.958759307861328,28.66826629638672,6.461803436279297,-9.914156913757324,7.48143196105957,-38.710289001464844,11.319022178649902,17.479650497436523,-13.137133598327637,19.014686584472656,-2.597674608230591,-22.459501266479492,10.859315872192383,11.436193466186523,-6.565145969390869,21.3040771484375,-1.6863794326782227,10.954158782958984,-0.9549238085746765,-7.762726306915283,-28.188922882080078,7.084049224853516,4.905952453613281,-26.500808715820312,-19.802370071411133,-4.852285861968994,14.902591705322266,-36.38369369506836,-23.011333465576172,51.1708869934082,2.970207452774048,-1.0324965715408325,-7.838560581207275,30.45114517211914,-1.2289395332336426,-13.484493255615234,-17.028947830200195,-3.2749812602996826,1.589737892150879,-21.997295379638672,-4.63701868057251,11.952311515808105,36.078556060791016,8.954570770263672,12.799373626708984,4.44682502746582,26.705995559692383,-6.706655502319336,0.0776306614279747,-16.55901527404785,9.221668243408203,-8.512507438659668,-9.948135375976562,25.187761306762695,-25.85108757019043,-3.8473565578460693,1.0188194513320923,-24.8636417388916,0.10880973935127258,18.477636337280273,-12.164266586303711,8.11597728729248,-20.334333419799805,33.79560470581055,-9.422785758972168,29.941633224487305,23.983943939208984,-26.997331619262695,16.38813018798828,46.48131561279297,-21.49011993408203,-26.123586654663086,-11.78415584564209,20.741220474243164,-11.161970138549805,-0.4555758833885193,1.2720237970352173,12.386190414428711
2120_2018-10-30_2018-11-13.png,8.542890548706055,28.90316390991211,-9.047154426574707,12.041172981262207,19.778440475463867,2.280501127243042,3.742568016052246,-3.6856300830841064,2.2666873931884766,-0.09724713116884232,8.302886009216309,-9.366238594055176,15.097562789916992,-18.52354621887207,25.806854248046875,21.214765548706055,-3.7360432147979736,-13.501993179321289,3.6932878494262695,-12.296304702758789,-3.754946231842041,19.6361141204834,-34.51576614379883,-26.260068893432617,24.370990753173828,4.612525939941406,9.834614753723145,-25.615306854248047,23.395387649536133,4.711119174957275,-0.41294434666633606,-18.93475914001465,19.019922256469727,-23.291044235229492,12.584977149963379,-26.982666015625,-11.107295036315918,-4.71771764755249,19.12102699279785,37.7760009765625,-25.163841247558594,-8.007784843444824,5.110337734222412,-9.873392105102539,17.230911254882812,-6.779508590698242,8.608541488647461,16.741552352905273,25.134218215942383,-1.907833456993103,-3.8657445907592773,32.01833724975586,32.777305603027344,-9.526625633239746,-6.437624931335449,-37.024131774902344,-28.138404846191406,20.87143325805664,4.868565082550049,11.68581771850586,-9.891983985900879,-5.454590797424316,25.2318172454834,9.956077575683594,1.2472574710845947,17.453954696655273,-7.341866970062256,-3.269923210144043,13.960329055786133,-15.72925853729248,-24.448429107666016,12.041345596313477,11.810391426086426,-10.42392349243164,-15.477801322937012,-6.999688625335693,10.586874008178711,-21.58247184753418,-33.6716423034668,45.277183532714844,-26.0830020904541,-18.42186737060547,8.165692329406738,27.507549285888672,-0.5176829099655151,14.059487342834473,-5.503532409667969,7.513020992279053,4.79578971862793,-16.90534210205078,-33.80671691894531,-3.334537982940674,17.229320526123047,-10.173990249633789,30.6136474609375,-17.80474853515625,24.49492835998535,-10.584100723266602,-6.6072187423706055,-21.952314376831055,26.590553283691406,-23.53287696838379,-11.729288101196289,19.919660568237305,-35.61117172241211,2.5564849376678467,5.095731258392334,-23.903310775756836,21.173429489135742,19.808252334594727,-20.907182693481445,-4.866756916046143,7.41511869430542,15.024577140808105,4.020689487457275,11.359009742736816,24.2700252532959,-42.112693786621094,20.680524826049805,18.778345108032227,-3.3940021991729736,-12.648980140686035,-16.179492950439453,-3.1803741455078125,-9.1011323928833,11.886232376098633,-11.980325698852539,-0.8439041972160339
2120_2019-07-16_2019-07-29.png,10.716906547546387,27.88863754272461,4.197269439697266,10.900519371032715,5.381723403930664,13.201449394226074,-7.2755866050720215,8.522435188293457,-1.714982032775879,8.155981063842773,-2.37553071975708,17.625532150268555,2.539466381072998,-5.78656005859375,35.55425262451172,9.180400848388672,7.672547340393066,0.46043694019317627,-2.5644960403442383,-14.620844841003418,6.833705902099609,-2.170607805252075,-22.561702728271484,2.9505534172058105,-10.291484832763672,3.583434581756592,3.793630838394165,-31.802146911621094,24.849271774291992,6.872359275817871,13.54980754852295,-5.052201271057129,13.416276931762695,-31.14036750793457,16.810998916625977,-25.256759643554688,1.7904716730117798,-15.234189987182617,18.223920822143555,9.95999526977539,-29.420860290527344,-13.115233421325684,5.00658655166626,-3.0125043392181396,15.286629676818848,-21.424158096313477,-10.19970703125,40.79048156738281,20.962059020996094,-17.76346206665039,0.9803488850593567,26.43465805053711,24.274394989013672,-1.1416343450546265,9.17066764831543,-21.16200065612793,-8.798820495605469,18.451385498046875,-2.61220383644104,13.32064437866211,-7.376599311828613,-14.758009910583496,25.264291763305664,0.9405597448348999,10.424678802490234,21.167640686035156,-12.098038673400879,-0.9588528871536255,-3.755276918411255,-11.629720687866211,-22.286590576171875,2.0458106994628906,-5.307629585266113,-4.534067153930664,-15.661393165588379,-16.011070251464844,16.534133911132812,-24.762571334838867,-25.542171478271484,47.01972579956055,-13.32313346862793,-13.286364555358887,0.09576920419931412,34.079288482666016,12.094948768615723,-3.9086897373199463,-7.7982306480407715,2.5775482654571533,-7.379015922546387,-11.018821716308594,-13.477764129638672,9.944880485534668,19.786334991455078,2.071143627166748,4.857746124267578,7.07940673828125,26.9671688079834,-11.692682266235352,0.9385404586791992,-19.518247604370117,0.728238046169281,-13.238465309143066,-23.24026107788086,22.040475845336914,-43.18494415283203,-0.16114814579486847,-0.9796850085258484,-22.7417049407959,-0.40569156408309937,26.70456886291504,-12.40594482421875,2.0429086685180664,-11.688643455505371,22.965656280517578,15.27200698852539,13.395506858825684,11.716276168823242,-25.340450286865234,18.374330520629883,26.272733688354492,-8.950623512268066,-21.45607566833496,-16.896278381347656,7.9068803787231445,-11.20681381225586,-7.314341068267822,-7.143033504486084,11.586711883544922
2120_2017-01-12_2017-01-26.png,-2.3365423679351807,22.690547943115234,14.245512008666992,-0.5943355560302734,27.63486099243164,2.2641050815582275,34.79411697387695,-1.076229453086853,20.013565063476562,-13.705949783325195,6.483148574829102,3.2669665813446045,-0.6983775496482849,-26.594083786010742,36.3419189453125,10.550509452819824,-27.28672218322754,-15.262308120727539,-3.694631814956665,-14.818684577941895,7.65300178527832,39.510013580322266,-18.312541961669922,-43.795936584472656,8.170862197875977,5.639634132385254,-24.878725051879883,-35.728546142578125,45.83213806152344,-11.335990905761719,19.15170669555664,-11.931640625,13.22634506225586,-26.70249366760254,-1.3689539432525635,-10.591552734375,-13.720934867858887,7.40446662902832,19.617910385131836,8.419004440307617,-19.72857093811035,-0.5941583514213562,8.280996322631836,-27.54866600036621,7.838744640350342,-2.094212770462036,1.6772626638412476,22.62611961364746,22.73500633239746,-27.294818878173828,1.2600605487823486,27.867990493774414,25.08054542541504,-0.46875274181365967,-16.298141479492188,-41.66789245605469,-8.969738006591797,6.699770450592041,2.595268487930298,15.772385597229004,-17.8846435546875,-11.725920677185059,5.110515594482422,25.680137634277344,6.340621471405029,15.368986129760742,-3.8725314140319824,8.762609481811523,-6.313291549682617,-29.743566513061523,-9.961132049560547,-9.881444931030273,-11.306599617004395,-23.489849090576172,-12.291489601135254,17.865209579467773,16.771507263183594,-13.228487968444824,-18.948795318603516,35.20494079589844,11.649770736694336,15.172332763671875,-3.0955967903137207,38.296138763427734,-0.8196560740470886,-6.55932092666626,4.218428611755371,7.0270562171936035,22.866403579711914,-14.200057983398438,-8.51927375793457,-10.917927742004395,17.70892333984375,-0.9348526000976562,8.226757049560547,3.1963229179382324,8.608783721923828,-10.215255737304688,1.1139039993286133,-7.668828010559082,9.754781723022461,-15.448309898376465,-18.848941802978516,25.329980850219727,-18.919736862182617,19.70995330810547,-1.824119210243225,0.33558353781700134,2.7987349033355713,12.404173851013184,-3.9037997722625732,20.89763832092285,-21.67974281311035,-7.251989841461182,-0.5261202454566956,17.081560134887695,27.621429443359375,-50.72185134887695,17.394033432006836,31.786333084106445,-18.749008178710938,-22.954320907592773,-3.2799642086029053,4.554471969604492,6.999392032623291,7.607707500457764,-9.216607093811035,21.93895721435547
2120_2019-10-15_2019-10-28.png,-3.560838222503662,19.192014694213867,15.442947387695312,12.845416069030762,11.25557804107666,5.535260200500488,36.98649215698242,-5.8415327072143555,0.7518861293792725,3.9877891540527344,-0.11164714395999908,11.029383659362793,-8.153549194335938,-15.060595512390137,22.565811157226562,20.245698928833008,-24.981130599975586,-20.20928192138672,-8.692620277404785,-26.441030502319336,-4.342934608459473,35.54446029663086,-12.192924499511719,-23.941591262817383,18.74884605407715,1.0680854320526123,-8.510527610778809,-18.650615692138672,28.10472297668457,0.27225804328918457,16.402809143066406,-8.78166389465332,10.806079864501953,-23.55313491821289,14.761630058288574,-24.201087951660156,-5.621067523956299,1.6920019388198853,18.54927635192871,13.463762283325195,-15.571449279785156,-7.470348358154297,10.771503448486328,-18.663461685180664,5.857918739318848,9.909296989440918,3.0416016578674316,12.36915397644043,25.112377166748047,-23.825138092041016,21.815584182739258,32.279884338378906,23.145465850830078,-8.768949508666992,-8.91270923614502,-25.12165641784668,-12.831820487976074,22.838376998901367,2.4535562992095947,-7.396753787994385,-12.34798526763916,-5.765374183654785,0.9236833453178406,15.072830200195312,-5.931158542633057,27.197418212890625,2.0454301834106445,12.500452041625977,-3.9105136394500732,-33.99325942993164,-16.505184173583984,-3.553598642349243,-12.577933311462402,-18.01323699951172,-10.072080612182617,18.560909271240234,24.308597564697266,-12.46848201751709,-31.54645347595215,34.0930290222168,8.952929496765137,-13.611716270446777,9.395547866821289,22.359413146972656,-7.076735973358154,-0.08328987658023834,-12.372514724731445,3.6127123832702637,19.895097732543945,-14.759231567382812,-20.856019973754883,11.02507495880127,14.711055755615234,6.296698093414307,16.76863670349121,-7.1082048416137695,17.595199584960938,-0.04360504448413849,-6.748723030090332,-3.3108975887298584,26.471866607666016,-21.55333137512207,0.07608535140752792,22.825319290161133,-13.238648414611816,5.781399726867676,-5.32443380355835,-4.954355716705322,-2.871936082839966,-0.5705038905143738,-6.123578071594238,4.405938625335693,-17.09077262878418,16.04185676574707,4.061302185058594,17.5532169342041,11.405916213989258,-49.053443908691406,5.315319061279297,25.779409408569336,-21.556690216064453,-16.828723907470703,-21.06124496459961,-3.2504796981811523,2.740795373916626,16.76957130432129,5.829873085021973,8.613163948059082
2120_2018-06-12_2018-06-26.png,-8.006608963012695,27.80347442626953,3.6013312339782715,-7.691359519958496,3.5164716243743896,10.80971622467041,11.556661605834961,1.0398353338241577,6.835019111633301,-11.915168762207031,1.1296000480651855,6.312720775604248,0.7459965944290161,-0.19684448838233948,47.452842712402344,10.79629898071289,7.222250938415527,0.9289678931236267,-6.107323169708252,-14.628899574279785,9.573997497558594,10.10721492767334,-11.99897575378418,-13.702384948730469,-14.395201683044434,11.279236793518066,-12.819334983825684,-35.60151672363281,27.92316246032715,-6.8696818351745605,31.389156341552734,-10.360336303710938,4.828912734985352,-24.34233856201172,13.784272193908691,-13.906344413757324,-2.9554920196533203,-8.07868766784668,19.635412216186523,9.621854782104492,-25.36629295349121,-19.47010612487793,5.670744895935059,-16.15506362915039,17.273815155029297,-12.701062202453613,2.392249584197998,23.515480041503906,11.68023681640625,-5.249056339263916,-6.725467205047607,19.034624099731445,8.057526588439941,-1.121925711631775,8.135345458984375,-14.739778518676758,8.07043170928955,5.4178996086120605,-4.854713439941406,4.230099201202393,-11.176163673400879,-23.757509231567383,9.47154426574707,7.635843276977539,14.87751293182373,6.401877403259277,-22.760332107543945,-0.41904914379119873,-8.975015640258789,-6.038458347320557,-24.069561004638672,-14.75744915008545,-15.429230690002441,-17.378644943237305,-9.797309875488281,2.6345229148864746,8.477890014648438,-17.86750602722168,7.479508876800537,40.16266632080078,-8.808844566345215,0.6828093528747559,0.47445470094680786,24.466381072998047,-3.4709153175354004,-18.840110778808594,0.18329907953739166,7.0308308601379395,15.881930351257324,0.5321193933486938,-0.4260410666465759,-1.472017526626587,17.24118423461914,7.351131439208984,-3.9723880290985107,2.84450364112854,11.86795711517334,-18.0693416595459,-4.235137939453125,-9.43395709991455,-5.964898109436035,-13.117199897766113,-9.373258590698242,28.110509872436523,-38.34150695800781,24.787548065185547,1.8544541597366333,-6.581061840057373,1.214736819267273,23.676828384399414,0.6637275218963623,20.04393196105957,-33.81074523925781,-3.132434368133545,6.662306785583496,6.977100372314453,1.4169450998306274,-18.229610443115234,26.765501022338867,23.575651168823242,-13.104677200317383,-8.568999290466309,-10.307028770446777,4.695767402648926,0.5900998711585999,-16.309946060180664,-20.774999618530273,23.626842498779297
2120_2018-03-20_2018-04-03.png,20.166187286376953,23.08614730834961,4.301109313964844,10.197012901306152,15.504117012023926,4.901646137237549,13.676742553710938,9.842293739318848,0.323087602853775,8.056526184082031,8.759279251098633,14.730210304260254,-3.8511180877685547,-12.309721946716309,36.65776062011719,15.353296279907227,-6.217995643615723,-12.841827392578125,-1.7879234552383423,-14.56457233428955,4.610050201416016,12.11362361907959,-27.785423278808594,-6.092729091644287,8.46226692199707,-2.1644678115844727,-1.0984315872192383,-28.186492919921875,32.76424026489258,6.513829708099365,1.6981921195983887,2.28798508644104,13.148321151733398,-39.45341873168945,18.1942195892334,-19.63983726501465,-14.036290168762207,-11.696603775024414,20.900732040405273,20.366962432861328,-25.262413024902344,-5.669726848602295,6.231678009033203,-11.801267623901367,11.206062316894531,-20.029687881469727,-0.32035985589027405,37.380149841308594,29.725154876708984,-17.92220687866211,4.249016761779785,30.840791702270508,38.58773422241211,-8.825361251831055,3.0892462730407715,-25.757707595825195,-24.801448822021484,23.087156295776367,-0.441264808177948,13.571666717529297,-9.460644721984863,-8.631831169128418,21.59929847717285,7.273588180541992,5.741431713104248,23.77570915222168,-4.160100936889648,9.284074783325195,-2.308624029159546,-21.680585861206055,-13.495428085327148,13.903610229492188,-7.630178451538086,-15.24051284790039,-19.006980895996094,-17.32166290283203,29.12375259399414,-21.6761417388916,-45.257938385009766,45.613643646240234,-8.227668762207031,-10.70133113861084,0.9938724637031555,36.68104934692383,16.517757415771484,6.915250301361084,-14.012208938598633,2.715942621231079,-9.590677261352539,-14.855012893676758,-30.174055099487305,3.270139694213867,25.692903518676758,-0.6052132248878479,8.269819259643555,2.259890556335449,23.833885192871094,-11.127723693847656,-7.710691452026367,-9.380337715148926,10.089227676391602,-15.395182609558105,-27.69464111328125,31.447904586791992,-35.81332015991211,4.961777687072754,-2.602876663208008,-7.920542240142822,-5.015885829925537,21.75981330871582,-15.878382682800293,-0.8949365019798279,-3.98862624168396,27.953067779541016,14.00111198425293,7.986977577209473,28.996360778808594,-38.99251174926758,5.960753917694092,26.883371353149414,-19.627826690673828,-32.697265625,-11.804551124572754,7.97115421295166,-6.350383758544922,1.3788094520568848,-2.6681854724884033,10.102954864501953
2120_2018-08-02_2018-08-16.png,4.96460485458374,46.369205474853516,-6.404850959777832,26.971189498901367,30.106094360351562,5.160467147827148,21.337678909301758,1.2748345136642456,4.398687362670898,-10.322797775268555,-4.043084144592285,13.469063758850098,-2.5402820110321045,-23.4593563079834,37.556640625,15.713878631591797,-0.9130939245223999,-31.477357864379883,11.9278564453125,-1.7058085203170776,19.462614059448242,22.181589126586914,-45.49191665649414,-1.7505894899368286,5.066301345825195,14.004847526550293,-0.49065130949020386,-30.681621551513672,31.07722282409668,-8.21329116821289,7.156182765960693,9.33316421508789,25.69251823425293,-30.945100784301758,14.735560417175293,-17.10819435119629,-15.04169750213623,-16.354475021362305,24.588014602661133,42.91566848754883,-27.3255558013916,-12.559212684631348,16.031982421875,-21.224990844726562,14.283963203430176,-23.3038387298584,-1.7388774156570435,14.027692794799805,10.239498138427734,-6.227787494659424,-4.029603958129883,22.60441017150879,31.427448272705078,-5.913338661193848,-6.107926368713379,-29.37592124938965,-12.622069358825684,12.034590721130371,-14.812603950500488,20.351062774658203,-14.478934288024902,-16.581998825073242,22.203100204467773,11.684999465942383,23.29982566833496,22.319162368774414,-9.973511695861816,12.01197624206543,0.45075252652168274,-1.9823298454284668,-23.903615951538086,16.540607452392578,2.0716655254364014,-12.353693008422852,-11.172913551330566,-17.66874885559082,6.607990741729736,-20.67561149597168,-25.996658325195312,29.68172836303711,-22.897932052612305,-8.624600410461426,2.225933790206909,35.20920181274414,3.3720664978027344,0.40839579701423645,-3.647156000137329,10.277398109436035,2.4664306640625,-8.022740364074707,-21.961835861206055,-11.199812889099121,20.829042434692383,7.746153831481934,16.944408416748047,-10.125968933105469,17.23002052307129,-24.529268264770508,-5.337258338928223,-19.805082321166992,9.622997283935547,-13.35703182220459,-34.313846588134766,37.262733459472656,-32.40253829956055,19.324962615966797,5.656059741973877,-18.162065505981445,20.95903205871582,34.18723678588867,-6.291403770446777,18.994098663330078,-2.9018971920013428,9.652417182922363,-1.2572555541992188,4.047942638397217,47.30509948730469,-27.247785568237305,-4.499345302581787,28.334768295288086,-14.573015213012695,-30.939186096191406,-14.607661247253418,11.204529762268066,-0.9133462905883789,1.090975284576416,-28.90247344970703,5.025964736938477
2120_2019-07-03_2019-07-17.png,11.069987297058105,32.08314514160156,-3.5156373977661133,15.423836708068848,12.3095064163208,13.95816707611084,1.4291801452636719,5.150090217590332,-2.321061134338379,-5.733481407165527,-6.193118095397949,13.968171119689941,-4.3951826095581055,-8.362395286560059,37.97035217285156,15.369110107421875,2.996926784515381,-1.2864477634429932,-9.043001174926758,-20.9902286529541,12.384541511535645,8.121968269348145,-16.651391983032227,-2.010727882385254,-19.52772331237793,9.404566764831543,-3.951209783554077,-37.966590881347656,26.567392349243164,-1.557811975479126,14.272848129272461,-11.709066390991211,16.21250343322754,-26.030977249145508,13.236624717712402,-20.883834838867188,4.550944805145264,-3.5391392707824707,23.13673973083496,7.7316718101501465,-22.090547561645508,-14.65475845336914,5.808285713195801,-12.272351264953613,13.706969261169434,-15.238055229187012,-13.203144073486328,39.556087493896484,13.721122741699219,-15.870338439941406,-5.384617805480957,21.00395965576172,21.603506088256836,9.147063255310059,17.02306365966797,-17.803621292114258,-3.0722622871398926,8.114569664001465,-6.3339009284973145,8.007039070129395,-7.380891799926758,-12.324557304382324,17.657007217407227,1.4876290559768677,16.60757827758789,15.21499252319336,-12.008809089660645,-3.34792423248291,-1.4004571437835693,-7.095587253570557,-28.131471633911133,-3.8030269145965576,-2.2822301387786865,-13.29173469543457,-12.535704612731934,-5.1300740242004395,16.895370483398438,-23.674631118774414,-19.981544494628906,38.979698181152344,-12.082347869873047,-14.347838401794434,1.3319188356399536,29.128063201904297,3.338653087615967,-12.363801956176758,4.355615139007568,6.550194263458252,1.6798796653747559,-2.2557272911071777,0.5616734623908997,3.84891939163208,17.557205200195312,16.170063018798828,-3.4483091831207275,7.744019508361816,18.655101776123047,-14.832210540771484,8.165006637573242,-19.742185592651367,2.1034610271453857,-15.57375717163086,-23.792041778564453,26.15889549255371,-40.78135681152344,6.454252243041992,2.5780296325683594,-19.19734001159668,5.130002498626709,23.94435691833496,-2.715693712234497,8.503902435302734,-20.957792282104492,6.16737174987793,7.543666839599609,14.919673919677734,12.118759155273438,-25.41957664489746,15.62274169921875,31.673776626586914,-2.9195454120635986,-22.378232955932617,-26.3272705078125,4.773656845092773,-14.151086807250977,-5.619340419769287,-4.059383869171143,18.395488739013672
2120_2017-09-22_2017-10-06.png,-1.0187839269638062,22.022268295288086,0.9794571399688721,-11.289752006530762,20.039844512939453,-0.48136967420578003,27.906415939331055,-0.7703819870948792,7.92050838470459,-8.236329078674316,14.403826713562012,7.049279689788818,-2.7421376705169678,-11.628085136413574,37.618629455566406,18.850099563598633,-1.9191555976867676,-8.624181747436523,-8.280375480651855,-19.479413986206055,-4.910323143005371,29.730180740356445,-5.889154434204102,-42.9106559753418,7.66580057144165,7.524184226989746,-6.9350056648254395,-28.278446197509766,25.342222213745117,-5.704713344573975,38.35734939575195,-22.901254653930664,19.017656326293945,-29.416324615478516,9.08199405670166,-21.5433349609375,-15.436190605163574,7.698297500610352,33.928916931152344,7.066345691680908,-21.068668365478516,-2.583442211151123,5.333207130432129,-23.578289031982422,17.61583709716797,5.293712615966797,19.08452033996582,12.085145950317383,26.010297775268555,-7.393364429473877,6.757317543029785,21.573368072509766,14.573583602905273,-2.6674070358276367,-4.890829086303711,-32.13193130493164,2.5529513359069824,12.68249225616455,8.097734451293945,-2.4054982662200928,-14.660870552062988,-15.836052894592285,2.0182766914367676,13.018564224243164,4.885504245758057,13.806856155395508,-2.214832305908203,-1.5387977361679077,9.332559585571289,-31.293569564819336,-30.9351863861084,-6.029332160949707,-1.6296511888504028,-23.257347106933594,-17.782068252563477,17.173051834106445,22.03989028930664,-22.521780014038086,-5.827613353729248,35.03910446166992,-6.253453731536865,7.185188293457031,6.489326000213623,25.916053771972656,-18.697704315185547,-2.70147442817688,5.920791149139404,6.016143321990967,25.59068489074707,-7.9026594161987305,-8.673826217651367,-6.801429748535156,13.880155563354492,0.21400533616542816,13.174596786499023,-10.724475860595703,9.49573040008545,-1.7681506872177124,-8.444868087768555,-12.1132173538208,19.212871551513672,-23.38402557373047,-1.7698625326156616,28.723421096801758,-26.467893600463867,25.248394012451172,-13.05381965637207,-6.714047431945801,-4.2593841552734375,24.654115676879883,-2.2368290424346924,12.12741470336914,-31.579370498657227,-4.029362201690674,-0.5495129227638245,10.126551628112793,16.438148498535156,-42.61768341064453,31.33905601501465,23.16438102722168,-23.674758911132812,-2.3727352619171143,-13.6517915725708,2.405674457550049,2.0029611587524414,5.335649013519287,-8.358783721923828,15.954954147338867
2120_2019-10-22_2019-11-05.png,-11.490851402282715,24.28700828552246,16.62190055847168,4.425729751586914,-4.38193941116333,5.539267539978027,21.981721878051758,3.391195058822632,8.936012268066406,3.90517520904541,7.369525909423828,23.86012840270996,5.21424674987793,-12.319645881652832,39.18366241455078,6.574923515319824,-5.237488746643066,-11.385313034057617,6.912953853607178,5.862907409667969,0.49361690878868103,5.072165012359619,-25.520076751708984,-4.899411678314209,12.34503173828125,0.5654698610305786,-7.641833782196045,-30.692150115966797,38.49638366699219,3.7998969554901123,30.319686889648438,2.5284502506256104,0.3184572756290436,-32.60161590576172,13.973492622375488,-14.488814353942871,-18.086286544799805,-23.14906883239746,20.35807991027832,26.022964477539062,-25.787464141845703,-10.124712944030762,18.296619415283203,-8.429276466369629,11.449969291687012,-20.33781623840332,11.340667724609375,21.212255477905273,33.193641662597656,-11.929682731628418,7.890296936035156,19.446123123168945,22.40068244934082,-17.709287643432617,-18.193933486938477,-25.08823585510254,-16.672677993774414,20.703462600708008,-0.40581244230270386,9.04465103149414,-16.8421630859375,-14.363202095031738,22.506643295288086,11.583066940307617,-0.3540429174900055,18.91734504699707,-13.687668800354004,18.32326889038086,-10.993877410888672,-21.94858741760254,-7.089080333709717,-1.1736767292022705,-25.839603424072266,-10.722270965576172,-18.37359619140625,-15.179360389709473,18.48768424987793,-19.187246322631836,-17.273643493652344,48.88404846191406,-5.01676082611084,-7.7890424728393555,3.297126531600952,29.680530548095703,17.817489624023438,-0.4542096257209778,-31.28335189819336,3.8382468223571777,3.8318777084350586,-12.535852432250977,-40.180137634277344,12.123347282409668,24.278810501098633,-8.394378662109375,13.577823638916016,-1.8002783060073853,16.75570297241211,-11.166118621826172,-24.134244918823242,-7.3723649978637695,-2.020899772644043,-6.402577877044678,-6.361710548400879,24.913389205932617,-33.620540618896484,7.744237899780273,1.7565799951553345,-5.9111127853393555,-2.353178024291992,18.79814338684082,-10.596206665039062,9.476089477539062,-8.862948417663574,28.456356048583984,9.714387893676758,7.5067267417907715,16.427553176879883,-37.43732452392578,16.72321319580078,19.107389450073242,-39.486907958984375,-14.604279518127441,5.2253313064575195,18.12961196899414,8.539857864379883,-2.2894694805145264,-15.647180557250977,11.018190383911133
2120_2017-07-25_2017-08-08.png,5.075894832611084,17.346355438232422,11.19811725616455,5.225695610046387,3.8283917903900146,10.919411659240723,29.362363815307617,10.795693397521973,18.38201141357422,-4.551292419433594,1.948132872581482,7.694022178649902,-10.18403434753418,-29.872766494750977,30.891620635986328,7.598337173461914,-25.230222702026367,-11.629413604736328,-2.777526378631592,-14.9725980758667,-2.4426629543304443,24.949777603149414,-10.060593605041504,-31.805126190185547,-8.084696769714355,1.7857191562652588,-18.194211959838867,-36.92157745361328,47.213966369628906,-18.549829483032227,19.92963218688965,-3.7720367908477783,11.690536499023438,-18.240432739257812,8.228093147277832,-14.353432655334473,-11.027115821838379,4.913514137268066,31.235448837280273,8.63058853149414,-9.593114852905273,-4.665363788604736,18.533435821533203,-20.700889587402344,26.756805419921875,6.550296783447266,12.568912506103516,35.45888900756836,34.58930587768555,-23.83959197998047,4.778039932250977,23.01658058166504,16.863813400268555,1.1454144716262817,-8.181009292602539,-43.10002136230469,-7.202671527862549,4.340559005737305,9.262921333312988,6.655354022979736,-3.231464385986328,0.211248517036438,22.442487716674805,6.79351282119751,2.7261509895324707,21.374418258666992,7.824571132659912,8.339151382446289,-0.9770705103874207,-34.275352478027344,-11.380455017089844,-4.652073860168457,-13.808993339538574,-26.604904174804688,-32.4731330871582,9.095992088317871,27.931285858154297,-30.90913963317871,-18.253128051757812,47.58771896362305,10.162357330322266,9.733548164367676,8.127838134765625,32.265262603759766,2.478668212890625,-7.142463684082031,0.794715940952301,14.826178550720215,19.356271743774414,-2.4877188205718994,-6.7445454597473145,1.5577670335769653,29.809480667114258,10.564611434936523,-4.87077522277832,5.019574165344238,7.593340873718262,5.253775119781494,-15.699654579162598,-7.793271064758301,10.773990631103516,-16.80746078491211,-18.573623657226562,28.146089553833008,-16.831146240234375,15.443087577819824,1.08401358127594,-14.658273696899414,0.6372308731079102,21.926984786987305,-9.97203254699707,15.231514930725098,-23.242448806762695,21.953136444091797,-5.85988712310791,17.37791633605957,26.812175750732422,-54.37343215942383,21.324174880981445,13.614285469055176,-21.654521942138672,-11.617079734802246,-3.772144317626953,18.070711135864258,-7.269545555114746,5.276005268096924,3.414935350418091,16.19615936279297
2120_2018-05-31_2018-06-14.png,-16.05312728881836,31.201635360717773,2.508941650390625,-2.228902816772461,0.8353549838066101,9.10620403289795,5.280097484588623,1.4405018091201782,5.227482795715332,-7.448600769042969,6.110774993896484,10.52664852142334,9.272239685058594,-2.0097439289093018,47.778785705566406,8.052713394165039,15.648905754089355,0.8275310397148132,4.927714824676514,-1.344098687171936,7.270822525024414,-0.6953161954879761,-28.53411865234375,-1.3945804834365845,-2.640109062194824,9.022307395935059,-1.2691915035247803,-33.91680908203125,25.649877548217773,2.909790277481079,32.24391174316406,0.9460151195526123,6.392475128173828,-28.76937484741211,19.868370056152344,-15.697906494140625,-8.244580268859863,-21.18253517150879,13.117755889892578,25.173259735107422,-33.518218994140625,-21.842226028442383,7.093774795532227,-4.099289894104004,19.590656280517578,-22.08878517150879,4.111181259155273,18.85852813720703,16.484521865844727,3.5309574604034424,-7.763430118560791,22.526762008666992,9.97118854522705,-14.884591102600098,-5.110077857971191,-20.117151260375977,-3.3241734504699707,12.494717597961426,-6.912490367889404,7.869250774383545,-18.603832244873047,-32.390384674072266,19.117841720581055,9.239988327026367,12.26498031616211,6.133264541625977,-25.92048454284668,1.6637709140777588,-8.648273468017578,-3.3968570232391357,-22.49022674560547,-7.228109359741211,-15.561135292053223,-9.003491401672363,-12.489487648010254,-18.76944923400879,-0.0786684900522232,-17.911771774291992,7.55768346786499,43.199893951416016,-19.426191329956055,-5.002251625061035,1.7360762357711792,29.525516510009766,8.924267768859863,-10.727334022521973,-18.884675979614258,6.102424144744873,6.334292411804199,-10.145166397094727,-21.1096248626709,-1.3621740341186523,21.502992630004883,-6.337639331817627,8.507742881774902,-2.593578338623047,21.137943267822266,-22.177892684936523,-14.326531410217285,-15.15693187713623,-10.912891387939453,-7.591738700866699,-6.849822998046875,24.951318740844727,-44.98807144165039,20.306140899658203,3.3132543563842773,-8.461127281188965,2.5461628437042236,22.0755558013916,-9.301908493041992,15.223969459533691,-18.13585090637207,12.266999244689941,13.43902587890625,5.602380752563477,6.205560207366943,-14.168163299560547,24.038225173950195,20.248823165893555,-20.315345764160156,-11.077088356018066,0.15282969176769257,13.549530982971191,3.715404748916626,-19.883739471435547,-34.108707427978516,17.703887939453125
2120_2018-02-07_2018-02-21.png,-4.294997215270996,31.898223876953125,9.345921516418457,3.2137091159820557,-4.722287178039551,19.47486686706543,15.526684761047363,0.8830749988555908,2.9171996116638184,-4.880634307861328,-10.524483680725098,4.247934341430664,-1.7943525314331055,-17.622882843017578,31.964384078979492,13.35871696472168,12.626734733581543,-7.149224758148193,-4.437516689300537,-13.31607723236084,2.6070380210876465,3.971585988998413,-9.858763694763184,-13.912967681884766,-12.972442626953125,16.93328285217285,-5.097172260284424,-27.269329071044922,27.279096603393555,-18.966829299926758,33.66140365600586,-9.627092361450195,9.889751434326172,-16.204320907592773,23.172840118408203,-13.998955726623535,-6.4941277503967285,-19.459016799926758,17.336050033569336,17.031862258911133,-32.70687484741211,-28.39179801940918,19.202205657958984,-5.121021270751953,28.70854949951172,1.0542538166046143,4.564196586608887,20.342500686645508,15.729843139648438,-14.776076316833496,4.129930019378662,27.25564956665039,-6.202630996704102,4.502671241760254,-1.914762020111084,-21.553735733032227,16.577571868896484,10.762833595275879,-18.988182067871094,5.5733723640441895,5.7095818519592285,-19.934431076049805,13.346809387207031,1.2687870264053345,10.859952926635742,10.720216751098633,-13.547707557678223,14.328490257263184,-13.194299697875977,-5.831753253936768,-28.956098556518555,-4.634188652038574,-15.160998344421387,-7.930107116699219,-18.35650634765625,-3.272606372833252,5.629713535308838,-30.07933235168457,5.126739025115967,35.42757034301758,3.2707126140594482,0.15483157336711884,3.8887624740600586,19.229732513427734,-0.09737285226583481,-27.829843521118164,-12.70306396484375,11.807682991027832,15.626025199890137,0.32062530517578125,-4.208468914031982,6.887702941894531,32.279273986816406,24.305370330810547,-7.716036796569824,3.126708507537842,19.120075225830078,-17.451425552368164,-13.971465110778809,-5.4679765701293945,2.207634210586548,-5.9479498863220215,-10.97491455078125,27.971689224243164,-24.4084415435791,22.392261505126953,7.987549304962158,-23.32411003112793,13.245551109313965,20.151304244995117,-6.9473114013671875,22.2665958404541,-33.974037170410156,13.750713348388672,-10.912551879882812,15.303339958190918,8.06138801574707,-24.89704704284668,25.11161231994629,18.80085563659668,-15.85898494720459,2.0493242740631104,-11.42849063873291,23.874784469604492,-10.326738357543945,-7.340841770172119,-14.302818298339844,11.268993377685547
2120_2017-04-28_2017-05-12.png,-3.647848129272461,22.80915641784668,0.370831161737442,6.690860748291016,20.52429962158203,10.378071784973145,25.8664608001709,-8.072539329528809,13.26968002319336,-6.264693260192871,15.365509033203125,-1.8821322917938232,-3.3592934608459473,-24.824953079223633,28.852752685546875,13.78171157836914,-21.459199905395508,-8.653810501098633,-7.587469100952148,-27.984529495239258,-4.2863054275512695,40.09836959838867,-7.837424278259277,-51.11851501464844,12.552173614501953,10.938149452209473,-0.37613481283187866,-19.60317611694336,23.381437301635742,-10.633310317993164,25.95811653137207,-18.005651473999023,14.223518371582031,-18.927474975585938,8.090245246887207,-24.93885040283203,-3.4117696285247803,15.428361892700195,20.43360710144043,15.10036849975586,-21.52638053894043,-7.922595977783203,5.778070449829102,-21.635404586791992,16.943603515625,17.4040470123291,9.189321517944336,2.7993783950805664,16.343740463256836,-15.384493827819824,7.378595352172852,31.88724708557129,12.383460998535156,-1.2971833944320679,-5.077139854431152,-41.005462646484375,2.9720511436462402,6.4122633934021,10.911959648132324,2.2968900203704834,-12.343430519104004,-9.6087064743042,0.6127126812934875,12.885162353515625,-4.071226596832275,14.554740905761719,5.050637245178223,-4.884678840637207,12.089651107788086,-26.842500686645508,-29.811704635620117,-8.406248092651367,5.619977951049805,-28.11941146850586,-10.288521766662598,24.737154006958008,8.094782829284668,-21.737802505493164,-9.910297393798828,30.209808349609375,-1.8812260627746582,5.397089004516602,10.266995429992676,18.540149688720703,-20.195819854736328,-6.995550155639648,10.820758819580078,11.875092506408691,35.18165969848633,-17.101194381713867,0.8357952833175659,-11.606194496154785,15.30478286743164,4.687689304351807,26.025970458984375,-15.768197059631348,9.778627395629883,-2.004038095474243,-2.249162435531616,-15.13525104522705,30.24877166748047,-25.122461318969727,4.557294845581055,21.734514236450195,-10.868752479553223,19.1760196685791,1.7324625253677368,-10.316303253173828,3.8173940181732178,8.688826560974121,-8.527131080627441,12.482978820800781,-20.98053550720215,-2.483327865600586,-5.938924789428711,20.18607521057129,21.32587432861328,-49.894901275634766,21.73649787902832,29.306028366088867,-12.736431121826172,-6.6218438148498535,-18.577014923095703,-2.2520084381103516,-3.6365063190460205,19.09367561340332,2.336965322494507,15.874353408813477
2120_2019-06-05_2019-06-19.png,-2.803668737411499,23.876079559326172,3.6421093940734863,6.382536888122559,13.076302528381348,0.598038375377655,29.95985984802246,-7.075819969177246,9.492412567138672,-9.605772018432617,-6.122565269470215,11.553364753723145,-5.048587799072266,-1.4429492950439453,40.02275848388672,12.403287887573242,-9.409390449523926,-21.269699096679688,2.637482166290283,-19.020498275756836,13.153101921081543,30.72236442565918,-8.748515129089355,-12.394416809082031,-8.028901100158691,6.806877136230469,-11.898747444152832,-29.076061248779297,23.679765701293945,-8.934335708618164,19.657316207885742,-12.22181510925293,7.075142860412598,-30.117786407470703,9.900214195251465,-20.448638916015625,-9.046553611755371,-8.377348899841309,22.57463264465332,17.580488204956055,-15.307489395141602,-10.279528617858887,7.659542083740234,-28.818830490112305,4.196257591247559,-7.902327060699463,0.4144449532032013,14.808856964111328,10.721506118774414,-1.9467418193817139,-2.3909130096435547,19.63509750366211,16.07047462463379,-2.109088897705078,8.201471328735352,-13.824710845947266,-4.9955830574035645,8.658286094665527,-16.1678524017334,-3.499793291091919,-9.695969581604004,-12.04416561126709,1.2864547967910767,2.176788568496704,16.497282028198242,12.003957748413086,-13.706311225891113,14.233838081359863,-3.5345160961151123,-10.449029922485352,-22.7341365814209,-0.5901548862457275,-13.010048866271973,-18.150054931640625,-8.353439331054688,11.466902732849121,23.518192291259766,-13.672306060791016,-17.55217742919922,25.454601287841797,-1.7925374507904053,-4.132556438446045,-0.011357476003468037,18.689762115478516,-16.992572784423828,-4.120368957519531,1.5290073156356812,3.7396559715270996,16.485578536987305,1.2049400806427002,-12.230209350585938,1.2786064147949219,8.685754776000977,13.063909530639648,7.12257194519043,-3.8650150299072266,1.911077618598938,-13.629558563232422,-1.3687868118286133,-8.994658470153809,14.541549682617188,-13.779480934143066,-16.523807525634766,34.77465057373047,-36.8532829284668,18.29755973815918,-2.9176058769226074,-4.950680255889893,13.812790870666504,11.994437217712402,4.715095520019531,13.93791389465332,-28.461774826049805,-2.0602216720581055,3.3255438804626465,-1.4959027767181396,14.511941909790039,-29.874738693237305,11.700675010681152,27.897111892700195,-19.422557830810547,-14.947674751281738,-27.21090316772461,-7.000017166137695,2.555950403213501,0.08867350965738297,-13.163727760314941,16.578310012817383
2120_2019-01-23_2019-02-06.png,-13.711262702941895,39.208805084228516,16.745759963989258,20.543561935424805,15.153916358947754,12.682515144348145,15.068805694580078,-12.955092430114746,8.37307357788086,0.8087491989135742,-18.34535789489746,16.799020767211914,-5.066384315490723,-13.175646781921387,35.49785614013672,-2.9628663063049316,-10.67067813873291,-28.687946319580078,-4.276740074157715,-2.3414201736450195,15.93503475189209,21.608495712280273,-14.182479858398438,-8.456541061401367,-9.455520629882812,14.67558765411377,-12.60724925994873,-35.14923858642578,25.4471492767334,-23.396799087524414,21.113462448120117,-9.244131088256836,-3.3099288940429688,-18.282251358032227,7.621183395385742,-13.268383979797363,10.582657814025879,-12.126386642456055,18.0955867767334,8.028740882873535,-28.002843856811523,-20.265409469604492,18.737499237060547,-20.653934478759766,-3.8423027992248535,-14.354777336120605,-13.998783111572266,13.783432006835938,1.342172384262085,-29.47380828857422,2.7117161750793457,25.29717254638672,17.195749282836914,-0.9948524236679077,-0.23084300756454468,-16.197710037231445,19.715938568115234,0.6077159643173218,-10.162455558776855,28.497024536132812,-11.664690971374512,-18.871442794799805,5.485087871551514,21.52158546447754,7.28093957901001,15.526178359985352,-14.051573753356934,17.287960052490234,-11.360443115234375,2.613579034805298,-18.821928024291992,-19.998981475830078,-12.061661720275879,-18.797748565673828,10.845440864562988,16.075529098510742,8.384749412536621,-10.675490379333496,-10.383892059326172,56.68765640258789,6.540792942047119,-0.8485441207885742,-7.818558216094971,21.15856170654297,-7.375734329223633,-21.557987213134766,1.654639720916748,6.4632182121276855,16.41102409362793,-6.2802629470825195,-0.3479730486869812,7.683475494384766,18.138729095458984,8.376222610473633,12.172966003417969,5.311695098876953,5.412311553955078,-27.065900802612305,4.607468128204346,-5.710943222045898,-1.6298741102218628,-15.099547386169434,-20.920230865478516,35.720436096191406,-18.051279067993164,13.354670524597168,-2.430086135864258,-17.43437385559082,10.251187324523926,39.28729248046875,5.582707405090332,28.06123924255371,-27.42906379699707,-1.6314681768417358,-10.200695037841797,10.39704418182373,26.227033615112305,-24.5535831451416,13.154513359069824,44.867984771728516,-17.074434280395508,-16.857330322265625,-9.096257209777832,3.024203300476074,8.890565872192383,-5.518064022064209,-18.424102783203125,1.1371080875396729
2120_2019-10-02_2019-10-16.png,3.872988224029541,9.774419784545898,6.2991180419921875,-6.7460784912109375,-3.0967648029327393,8.046124458312988,13.131683349609375,0.7007705569267273,11.995168685913086,-10.087747573852539,8.163139343261719,-3.5188729763031006,3.3629627227783203,-10.471882820129395,30.60076141357422,15.871374130249023,-4.864752769470215,-12.166093826293945,-0.4840872287750244,-16.969816207885742,-4.446209907531738,18.631975173950195,-7.1725006103515625,-37.08759307861328,7.201875686645508,6.340426445007324,-8.603301048278809,-25.490814208984375,33.37834167480469,-11.154685974121094,29.032182693481445,-26.728609085083008,4.245242118835449,-14.343477249145508,6.196435451507568,-13.02991008758545,-14.440661430358887,-6.353693962097168,26.93732261657715,11.925086975097656,-19.93611717224121,-7.456960678100586,4.324963092803955,-26.098297119140625,14.664402961730957,12.180768013000488,25.839635848999023,11.463949203491211,24.606082916259766,-1.5290058851242065,2.7977185249328613,29.48143768310547,10.576623916625977,-2.0514018535614014,-10.071996688842773,-26.034521102905273,-2.0737295150756836,3.80942964553833,7.177577495574951,-3.587087869644165,-2.8449223041534424,-4.483925819396973,9.69186019897461,-1.5107377767562866,1.7185261249542236,5.41860294342041,-7.152251720428467,8.498428344726562,0.10423415899276733,-28.827638626098633,-19.08937644958496,-8.36772346496582,-13.62325382232666,-23.42028045654297,-16.253103256225586,14.343365669250488,20.719303131103516,-23.120622634887695,-6.851175785064697,33.89514923095703,1.5942988395690918,-1.4015377759933472,7.803934574127197,13.287158966064453,-11.866852760314941,-7.994386196136475,2.3220064640045166,12.016011238098145,16.339574813842773,1.2027885913848877,-19.24074935913086,-0.2568444311618805,14.108304977416992,7.821952819824219,12.327516555786133,-7.3425750732421875,4.465480804443359,-2.177443265914917,-12.719269752502441,-6.250885009765625,18.715492248535156,-18.07567024230957,-2.8006839752197266,22.029584884643555,-25.43095588684082,23.542272567749023,-1.2574483156204224,-8.654374122619629,12.211113929748535,19.46077537536621,-13.714183807373047,9.305706977844238,-25.355192184448242,6.628811836242676,-1.3869493007659912,6.549838066101074,4.3266448974609375,-46.86227035522461,28.102262496948242,10.736250877380371,-21.451950073242188,9.976502418518066,-11.740239143371582,-3.5988717079162598,-4.264677047729492,5.04694128036499,-3.0500824451446533,6.366652011871338
2120_2017-05-25_2017-06-08.png,3.4175069332122803,42.303714752197266,-1.462775468826294,15.127900123596191,24.56964874267578,11.639424324035645,-0.7814742922782898,-9.123492240905762,-4.038279056549072,6.051992416381836,-5.6063127517700195,1.3823065757751465,5.691350936889648,-1.895920753479004,40.609413146972656,9.104778289794922,12.488659858703613,-7.813528537750244,5.228780269622803,-17.486520767211914,13.45605754852295,10.962166786193848,-29.111324310302734,-5.555873394012451,1.0064457654953003,10.573596000671387,7.4400153160095215,-24.18865966796875,14.687970161437988,4.375967979431152,7.3909125328063965,-2.6960666179656982,21.71202278137207,-34.25897979736328,17.68769073486328,-30.59943389892578,-0.08045177906751633,-19.761455535888672,7.077963352203369,21.751869201660156,-40.418617248535156,-17.207433700561523,2.388838291168213,-0.8393070697784424,9.558265686035156,-19.79450798034668,-14.888172149658203,21.879798889160156,5.974757194519043,-12.638150215148926,-4.596138954162598,30.425498962402344,22.791719436645508,-8.203459739685059,9.220233917236328,-24.511503219604492,-0.5026123523712158,21.668363571166992,-10.478262901306152,21.759334564208984,-14.718035697937012,-29.117921829223633,14.861333847045898,15.291746139526367,12.351137161254883,24.062164306640625,-18.164731979370117,-2.7061548233032227,-1.8644928932189941,7.85055685043335,-30.360200881958008,4.684271812438965,4.65623664855957,-7.180310249328613,-2.9616827964782715,-11.774674415588379,-0.43844878673553467,-17.004667282104492,-20.477569580078125,43.82331848144531,-16.900314331054688,-13.5630464553833,-5.702995777130127,37.64149856567383,4.256736755371094,-4.51365852355957,-6.920560359954834,1.1570035219192505,1.0175609588623047,-20.710927963256836,-12.444372177124023,-4.923220634460449,21.60770034790039,-5.3803935050964355,17.839017868041992,-3.6980249881744385,33.25206756591797,-29.08711051940918,8.48189640045166,-25.60313606262207,3.0529301166534424,-17.45310401916504,-18.806869506835938,29.664045333862305,-38.127098083496094,14.223881721496582,-0.27641838788986206,-20.600435256958008,6.748223781585693,29.362871170043945,-4.90098762512207,11.286748886108398,-9.304079055786133,8.925867080688477,11.970273971557617,15.131248474121094,24.781017303466797,-12.194657325744629,18.23634147644043,34.042598724365234,1.2395631074905396,-26.28311538696289,-17.320453643798828,7.1937031745910645,-0.48552271723747253,-9.639595031738281,-28.79932403564453,14.317220687866211
2120_2018-11-13_2018-11-27.png,-21.32183074951172,38.929508209228516,8.555789947509766,5.525299072265625,22.938106536865234,5.451874732971191,42.15249252319336,-8.215126991271973,10.495573043823242,-17.93610954284668,-8.246954917907715,-0.12858647108078003,-1.9830976724624634,-30.00575828552246,35.57978820800781,16.756484985351562,11.198197364807129,-11.038766860961914,8.413455963134766,-5.7942705154418945,7.80022668838501,30.38331413269043,-24.822566986083984,-27.263818740844727,9.197652816772461,25.688982009887695,-0.44530028104782104,-23.730003356933594,19.145418167114258,-12.90620231628418,47.30754470825195,-7.618648529052734,20.3904972076416,-28.920217514038086,21.53777503967285,-20.0282039642334,-14.855341911315918,-10.69985580444336,25.54457664489746,31.38897705078125,-27.219730377197266,-20.782255172729492,24.432228088378906,-20.301239013671875,25.854930877685547,-0.6946475505828857,12.041690826416016,-5.53191614151001,15.98005485534668,3.0748987197875977,5.7536211013793945,21.756250381469727,-5.155391693115234,0.4058719277381897,-17.57425308227539,-28.97759437561035,6.09855318069458,13.743433952331543,-25.013076782226562,-6.105194568634033,-16.658695220947266,-32.58834457397461,3.19164776802063,14.40899658203125,20.050779342651367,16.61646842956543,-12.567938804626465,17.180953979492188,-0.7917335033416748,-6.979172229766846,-36.20401382446289,3.795020341873169,-6.735589981079102,0.32320013642311096,-10.616372108459473,-0.056533604860305786,-3.1008248329162598,-23.84480094909668,10.693233489990234,16.949678421020508,-12.569473266601562,12.081032752990723,8.549454689025879,21.061538696289062,-14.658937454223633,-18.581968307495117,-11.622756958007812,13.76436710357666,41.21816635131836,-3.2596654891967773,-9.895530700683594,-12.762911796569824,21.942073822021484,15.613842010498047,10.797910690307617,-18.518024444580078,11.78633975982666,-20.037351608276367,-15.694588661193848,-16.78279685974121,13.878555297851562,-7.398743152618408,1.2410696744918823,32.17250061035156,-28.129274368286133,37.72353744506836,0.40783876180648804,-18.420530319213867,16.776514053344727,12.259028434753418,6.150114059448242,22.882919311523438,-32.319786071777344,-7.63228178024292,-1.5525734424591064,8.640782356262207,25.463668823242188,-30.6801700592041,11.549276351928711,23.88094139099121,-24.186416625976562,-0.4752446115016937,-12.658598899841309,23.757768630981445,3.797996759414673,1.1072421073913574,-29.887928009033203,15.447868347167969
2120_2016-10-25_2016-11-08.png,-3.529168128967285,18.64589500427246,4.549195289611816,14.988678932189941,-11.587800025939941,9.90257740020752,17.61948585510254,0.26857537031173706,11.66983413696289,4.649792671203613,7.509305953979492,13.681439399719238,-6.104863166809082,-7.8443756103515625,36.743995666503906,6.920989990234375,-3.3242368698120117,-18.450288772583008,7.128924369812012,-0.3277111053466797,6.413094520568848,8.074898719787598,-25.861717224121094,-1.709285855293274,-1.256218671798706,0.8389367461204529,-7.571229457855225,-28.286441802978516,37.895118713378906,2.5130198001861572,16.350574493408203,7.051412582397461,-10.398975372314453,-22.455249786376953,11.056487083435059,-14.134440422058105,-12.868706703186035,-27.935617446899414,6.810421943664551,26.118392944335938,-24.122251510620117,-13.632102012634277,14.630010604858398,-11.020030975341797,11.828324317932129,-13.992833137512207,5.000702857971191,23.67218589782715,24.74494743347168,-5.045118808746338,-0.16037939488887787,19.51213836669922,18.88654327392578,-14.558333396911621,-6.845736503601074,-11.653032302856445,-20.06247329711914,11.26352596282959,-5.608356952667236,0.4614733159542084,-12.706377983093262,-13.488495826721191,23.435789108276367,-7.029220104217529,4.489051342010498,10.543214797973633,-11.677441596984863,27.429126739501953,-18.256624221801758,-13.520606994628906,-7.1501078605651855,-3.4693825244903564,-31.096027374267578,-8.734167098999023,-11.457928657531738,-14.126306533813477,17.274829864501953,-15.596360206604004,-19.887935638427734,35.14302062988281,0.8361635804176331,-16.915279388427734,-1.129746437072754,17.601829528808594,14.59192943572998,-2.712907075881958,-26.143388748168945,3.5697684288024902,-7.614099502563477,-6.410326957702637,-33.15385437011719,4.137646675109863,19.44783592224121,-0.8128583431243896,6.541606903076172,7.216176986694336,10.278353691101074,-18.023447036743164,-20.98753547668457,-0.8587779998779297,-1.7509360313415527,-1.831148386001587,-15.247843742370605,25.365232467651367,-35.79052734375,14.088902473449707,12.372749328613281,-3.6717464923858643,8.01950740814209,12.475861549377441,-17.14120101928711,11.75927448272705,-12.904263496398926,26.350421905517578,11.01960563659668,-0.6407037973403931,7.94862699508667,-29.964248657226562,7.424398899078369,20.437246322631836,-30.16278076171875,-13.829436302185059,-9.05897045135498,7.739155292510986,-2.5014092922210693,-7.6542134284973145,-9.989537239074707,9.062747955322266
2120_2019-09-11_2019-09-25.png,-4.10655403137207,29.66836166381836,4.058093547821045,-1.7544782161712646,20.877470016479492,0.45548373460769653,36.17351531982422,-1.2687727212905884,5.080672264099121,-9.221294403076172,9.889700889587402,8.142630577087402,-10.93212890625,-18.888839721679688,39.77069854736328,12.768777847290039,-3.651785135269165,-10.81761360168457,-11.570009231567383,-16.18685531616211,-4.593375205993652,25.874601364135742,-3.112086534500122,-34.25890350341797,-5.89579963684082,8.990915298461914,-3.3071811199188232,-32.667198181152344,20.424623489379883,-10.932336807250977,35.822452545166016,-16.533418655395508,17.800371170043945,-32.025638580322266,13.977662086486816,-23.68783187866211,-9.564553260803223,7.6245012283325195,31.533384323120117,7.850461483001709,-18.11159324645996,-9.261908531188965,9.04146957397461,-16.31987190246582,18.410511016845703,-1.6331734657287598,10.252788543701172,17.36170768737793,22.77617645263672,-12.950711250305176,5.05836296081543,21.485675811767578,8.04896354675293,0.2919326424598694,5.882630348205566,-31.91239356994629,10.470025062561035,9.823525428771973,-4.006601810455322,1.042028546333313,-14.644667625427246,-23.792020797729492,2.2628302574157715,16.00182342529297,10.318841934204102,14.970596313476562,-1.2322211265563965,-0.3113614320755005,11.376092910766602,-21.312591552734375,-35.94687271118164,-2.9405643939971924,1.198632001876831,-25.185386657714844,-20.058256149291992,12.34875202178955,21.765472412109375,-27.45301628112793,-2.5301060676574707,39.442752838134766,-2.5546629428863525,13.061829566955566,2.17820143699646,29.464862823486328,-17.674755096435547,-12.080265045166016,4.937007904052734,8.660239219665527,28.920804977416992,-8.246994972229004,0.6443589329719543,-5.3142547607421875,26.37904930114746,9.854389190673828,3.6572000980377197,-3.4277923107147217,9.948211669921875,-4.780105113983154,-8.586296081542969,-15.73801040649414,10.453092575073242,-19.6595516204834,-5.647200584411621,36.36878204345703,-26.44623374938965,23.064298629760742,-7.6020827293396,-10.968009948730469,-3.4446613788604736,25.32514762878418,4.881708145141602,13.806825637817383,-36.83440017700195,-0.5428129434585571,-9.178595542907715,15.103202819824219,24.90341567993164,-36.670623779296875,28.50437355041504,31.68219566345215,-26.46978759765625,-8.830649375915527,-13.315962791442871,15.144792556762695,2.9517064094543457,2.549945592880249,-8.991681098937988,16.14895248413086
2120_2017-12-05_2017-12-19.png,-18.620033264160156,26.039661407470703,7.23289155960083,-1.6626214981079102,12.019991874694824,6.139706134796143,29.96697425842285,-1.9531821012496948,5.36220645904541,-9.647176742553711,4.473239898681641,15.589353561401367,-7.8613386154174805,-15.329815864562988,39.28643798828125,10.044354438781738,2.5723092555999756,-1.4294531345367432,-11.63979721069336,-8.91172981262207,-2.652437925338745,16.52800941467285,-5.242317199707031,-24.943933486938477,-8.505739212036133,9.668595314025879,-3.324939012527466,-31.67401123046875,17.321924209594727,-7.703064441680908,42.64823532104492,-13.623926162719727,11.815120697021484,-27.222942352294922,18.9213924407959,-24.797679901123047,-4.740088939666748,1.5034762620925903,25.954587936401367,9.711942672729492,-20.04990005493164,-11.391304969787598,12.419927597045898,-11.474565505981445,22.24066162109375,-2.265005350112915,10.56570053100586,15.760025024414062,19.67936134338379,-12.147065162658691,4.3392252922058105,18.64012908935547,2.46869158744812,-2.592899799346924,0.5081331729888916,-30.538732528686523,13.642386436462402,8.882641792297363,-5.375428199768066,-1.4879294633865356,-14.609864234924316,-29.01585578918457,9.355733871459961,11.349889755249023,6.652530193328857,12.965456008911133,-6.891858100891113,-0.039805423468351364,3.4436421394348145,-16.255064010620117,-33.65061569213867,-7.833981513977051,-4.303088188171387,-18.908790588378906,-17.848791122436523,8.027368545532227,12.101995468139648,-24.456411361694336,12.242172241210938,34.56071090698242,-2.671921491622925,13.586148262023926,4.779265880584717,24.253528594970703,-16.46253204345703,-14.43277359008789,-2.0884249210357666,7.107011318206787,27.625669479370117,-7.274129867553711,1.1683417558670044,3.1470813751220703,25.7885799407959,2.771665573120117,3.9971232414245605,-6.446444511413574,11.239941596984863,-1.955746054649353,-12.923678398132324,-11.526162147521973,2.821927547454834,-14.68051815032959,0.574519157409668,30.156320571899414,-27.25575828552246,22.410337448120117,-6.653354167938232,-11.682199478149414,-6.79700231552124,23.671369552612305,2.896238088607788,19.0131778717041,-37.57345962524414,2.259319305419922,-3.368166923522949,13.694458961486816,11.640897750854492,-24.659278869628906,26.183984756469727,27.486940383911133,-30.248233795166016,-1.1897190809249878,-6.765718460083008,15.669336318969727,2.0193357467651367,-6.026656627655029,-17.776826858520508,12.534769058227539
2120_2018-04-17_2018-05-01.png,-4.33022403717041,27.894153594970703,-3.425741195678711,15.995226860046387,20.69765281677246,7.270473957061768,23.439485549926758,-5.8446807861328125,-7.876721382141113,6.763718605041504,5.787601470947266,20.690298080444336,-6.056066513061523,-17.4423828125,29.578815460205078,15.907934188842773,-7.955131530761719,-9.117765426635742,-11.857746124267578,-24.65827751159668,-8.821206092834473,24.090002059936523,-12.103887557983398,-17.945039749145508,2.8072805404663086,4.176397800445557,9.73767375946045,-20.792316436767578,10.147719383239746,0.5923100709915161,27.34182357788086,-6.314401626586914,28.080270767211914,-27.847524642944336,20.981779098510742,-33.13512420654297,-6.240197658538818,4.729414463043213,29.0624942779541,15.872633934020996,-21.44151496887207,-7.529228210449219,6.717856407165527,-7.7747802734375,19.67074203491211,5.232460021972656,2.589077949523926,17.38086700439453,24.09618377685547,-18.994731903076172,16.045578002929688,24.51420783996582,13.979909896850586,-7.12364387512207,1.2846602201461792,-33.34696960449219,1.2429083585739136,20.773929595947266,2.4946696758270264,-3.3408453464508057,-9.001246452331543,-13.26086711883545,9.071464538574219,6.784806728363037,-1.3923616409301758,27.459291458129883,5.821346282958984,-5.338386535644531,12.205301284790039,-27.47905921936035,-37.59786605834961,1.8689050674438477,9.904017448425293,-19.78851318359375,-19.804710388183594,4.889398097991943,17.111360549926758,-26.87993812561035,-15.929468154907227,34.57170486450195,-11.12122917175293,-11.760382652282715,15.29959774017334,25.718189239501953,-14.029364585876465,-0.03146054223179817,-9.263471603393555,0.9280072450637817,16.875341415405273,-19.10498809814453,-8.633176803588867,5.821183204650879,17.03157615661621,7.72299337387085,18.371559143066406,-13.768461227416992,22.805234909057617,2.762568712234497,-3.102210760116577,-20.20328712463379,21.596050262451172,-19.41695785522461,-3.4569430351257324,26.564123153686523,-21.694047927856445,1.866269826889038,-6.656459331512451,-18.967634201049805,-6.376271724700928,13.441071510314941,-3.624239683151245,2.323026657104492,-16.579538345336914,17.312358856201172,-0.307159423828125,19.93959617614746,18.304594039916992,-36.48170471191406,16.718015670776367,29.07135581970215,-17.448863983154297,-17.27334976196289,-24.53150177001953,5.3939313888549805,-7.329252243041992,11.79928207397461,-0.18460847437381744,11.49943733215332
2120_2019-04-25_2019-05-09.png,0.5294351577758789,36.69428634643555,-2.26054048538208,11.903233528137207,37.84906768798828,8.68982219696045,20.15777015686035,-1.6631442308425903,12.922855377197266,-15.093854904174805,-0.9729344844818115,2.6857430934906006,3.834463119506836,-17.2769718170166,47.831268310546875,19.24456214904785,-8.82701587677002,2.705094814300537,-1.7054253816604614,-27.737661361694336,19.335464477539062,34.55241394042969,-27.483806610107422,-24.854616165161133,-1.5073935985565186,10.253684043884277,-9.36382007598877,-32.48649597167969,28.710908889770508,-1.7927072048187256,12.422216415405273,-4.934663772583008,31.042409896850586,-33.24272537231445,12.310872077941895,-24.781505584716797,-5.046627521514893,7.851816177368164,13.566829681396484,17.496261596679688,-26.689611434936523,-12.17613697052002,1.6744797229766846,-18.131473541259766,16.63999366760254,-11.107319831848145,-11.646598815917969,21.629621505737305,8.140192031860352,-14.323452949523926,-7.010581970214844,27.296207427978516,27.160171508789062,0.9914733171463013,2.8454394340515137,-41.719451904296875,-11.084321975708008,14.320878028869629,-5.532693386077881,20.473846435546875,-20.69397735595703,-17.07319450378418,13.188285827636719,22.292139053344727,12.793994903564453,20.59538459777832,-15.27541446685791,-16.612346649169922,5.430456161499023,-8.660123825073242,-25.71025848388672,0.17038758099079132,10.259564399719238,-18.040924072265625,-15.200419425964355,4.560147285461426,-0.02348698303103447,-21.934534072875977,-11.489578247070312,32.88901901245117,-19.405988693237305,9.72122859954834,5.013491153717041,42.93538284301758,-2.073875665664673,-5.514023303985596,5.935891628265381,2.8686773777008057,24.398866653442383,-18.994966506958008,4.539688587188721,-15.075690269470215,14.062774658203125,3.0437352657318115,9.102348327636719,-7.210877418518066,21.14084243774414,-14.478059768676758,15.036393165588379,-28.712392807006836,11.383583068847656,-20.325660705566406,-17.56970977783203,24.621545791625977,-33.809120178222656,21.575143814086914,4.198243618011475,-10.383441925048828,6.109638690948486,13.997179985046387,-1.5277118682861328,18.5222110748291,-18.805204391479492,-13.621761322021484,14.391709327697754,21.819875717163086,21.606252670288086,-29.385765075683594,17.34327507019043,31.639562606811523,8.969993591308594,-32.62222671508789,-13.227789878845215,2.5753531455993652,-2.348012924194336,0.3654835522174835,-19.438722610473633,28.93634033203125
2120_2017-08-16_2017-08-30.png,-3.6480984687805176,30.786148071289062,12.09003734588623,10.858635902404785,6.216032028198242,13.689452171325684,29.6633358001709,-10.461430549621582,17.241546630859375,-5.032499313354492,-8.754631996154785,-15.974608421325684,-3.1055164337158203,-26.093599319458008,30.989242553710938,11.503561973571777,-6.360523223876953,-12.371183395385742,3.7973899841308594,-21.32145118713379,8.906896591186523,22.899503707885742,-12.109025955200195,-31.422399520874023,-3.401392936706543,11.820427894592285,-4.312750339508057,-20.926437377929688,29.28004264831543,-22.084497451782227,26.279497146606445,-7.778738021850586,9.632692337036133,-14.300209045410156,19.792247772216797,-14.884176254272461,-11.12630558013916,-12.929145812988281,6.8115034103393555,23.812877655029297,-30.977092742919922,-23.929441452026367,20.164012908935547,-9.96445369720459,18.43740463256836,14.850190162658691,-1.1899471282958984,7.277522563934326,15.57994270324707,-13.055859565734863,5.244916915893555,27.592098236083984,-2.3101305961608887,-1.6307166814804077,-8.409126281738281,-35.71311950683594,10.07605266571045,9.93598461151123,-16.2103328704834,7.1072516441345215,-4.949910640716553,-17.725027084350586,5.832584857940674,10.984838485717773,5.169455051422119,11.254131317138672,-6.173552513122559,12.046180725097656,-9.049076080322266,-6.715056896209717,-25.583696365356445,-5.662858009338379,-7.676679611206055,-17.044761657714844,-15.68912410736084,15.74947452545166,3.0807292461395264,-27.162397384643555,-2.656177043914795,35.59413146972656,7.502420902252197,6.2226362228393555,5.564791202545166,23.193771362304688,-3.163015842437744,-28.06428337097168,-3.969229221343994,12.127772331237793,27.179853439331055,-8.227531433105469,-0.4389576315879822,-1.8649322986602783,33.80312728881836,17.223705291748047,4.896553039550781,-1.2979432344436646,16.76386070251465,-16.51102638244629,-10.99196720123291,-10.199885368347168,10.290950775146484,-6.158374309539795,-6.0524139404296875,28.904821395874023,-12.839737892150879,28.047853469848633,8.747493743896484,-18.566648483276367,14.453818321228027,8.516036987304688,-7.701747417449951,24.60090446472168,-32.17850875854492,6.651969909667969,-13.654666900634766,22.213132858276367,22.035484313964844,-34.512855529785156,24.585939407348633,23.75034523010254,-13.280614852905273,-5.69806432723999,-3.853858232498169,16.639440536499023,-3.7698352336883545,5.803093433380127,-10.057960510253906,15.784774780273438
2120_2016-12-16_2016-12-30.png,12.612229347229004,27.210357666015625,-2.2850284576416016,-3.3184831142425537,8.03393840789795,5.236111640930176,18.865259170532227,8.439704895019531,1.5322281122207642,-2.986816644668579,25.619831085205078,3.4293901920318604,-2.8235461711883545,-9.861227989196777,49.158348083496094,16.46540069580078,1.840177297592163,2.784736156463623,-8.970699310302734,-20.83158302307129,-0.16643284261226654,5.007382869720459,-7.068543434143066,-23.448225021362305,-11.89860725402832,2.324850082397461,1.4192214012145996,-36.311370849609375,33.49455261230469,5.2697062492370605,30.006088256835938,-10.527536392211914,11.741592407226562,-31.77554702758789,20.50830841064453,-22.218093872070312,-7.685899257659912,-1.836141586303711,16.770994186401367,9.307859420776367,-32.08768081665039,-10.38643741607666,7.96207332611084,-3.276601552963257,21.685291290283203,-10.76090145111084,0.08986242860555649,38.58704376220703,35.23283386230469,-16.306591033935547,-10.38085651397705,22.988862991333008,11.926968574523926,-5.790706634521484,5.367796897888184,-33.62080001831055,-4.914236545562744,16.98925018310547,6.477370738983154,4.422203540802002,-14.333914756774902,-26.631738662719727,13.06556510925293,10.622810363769531,8.492816925048828,20.68672752380371,-5.3148627281188965,-0.6767421364784241,-0.7028917074203491,-24.6398868560791,-24.01662254333496,5.575395584106445,-14.512093544006348,-22.58932113647461,-24.867687225341797,-11.569367408752441,24.123706817626953,-30.329967498779297,-16.672407150268555,41.835384368896484,-3.748546838760376,3.2114834785461426,-8.234389305114746,39.34721755981445,14.458300590515137,-11.142885208129883,-9.954854965209961,5.283529758453369,3.2590746879577637,-16.09378433227539,-12.963247299194336,-6.208322525024414,34.79829788208008,4.959837436676025,-12.488115310668945,9.215204238891602,23.514272689819336,-6.174671173095703,-9.460043907165527,-22.361143112182617,-0.20911096036434174,-8.392010688781738,-11.55147933959961,25.69172477722168,-40.77652359008789,14.40299129486084,0.30027836561203003,-5.963558673858643,-10.012078285217285,18.14409065246582,-6.0945329666137695,7.650989055633545,-30.27638053894043,15.213030815124512,7.752144813537598,21.685705184936523,17.91236114501953,-38.68190002441406,26.9893856048584,32.774749755859375,-26.28058624267578,-26.14068603515625,-5.977924346923828,29.18401527404785,-4.65040922164917,-7.3972954750061035,0.21722695231437683,30.278629302978516
2120_2017-04-03_2017-04-17.png,-4.5141472816467285,29.023563385009766,10.380173683166504,-1.6644716262817383,13.318509101867676,8.39389705657959,13.389961242675781,-0.7751036286354065,9.853023529052734,-4.223394393920898,1.4643182754516602,25.948041915893555,4.0000319480896,6.627640724182129,40.099220275878906,10.451786041259766,-2.9697611331939697,-10.224916458129883,-1.3914984464645386,-9.21208667755127,14.454142570495605,17.571073532104492,-17.064916610717773,-8.851423263549805,1.998687744140625,-2.321633815765381,-21.053922653198242,-32.47506332397461,37.11016082763672,2.4946701526641846,20.66263198852539,-7.586076736450195,5.013157844543457,-32.409061431884766,10.305872917175293,-17.897605895996094,-1.5805915594100952,-12.736560821533203,18.855058670043945,5.621142864227295,-22.209672927856445,-7.811433792114258,6.452818870544434,-16.302026748657227,6.00593376159668,-22.319604873657227,-2.166149616241455,29.750652313232422,16.883085250854492,-20.648826599121094,0.07650347054004669,22.241422653198242,32.7447624206543,-8.260137557983398,-1.8232207298278809,-15.891284942626953,-8.888907432556152,17.79944610595703,2.72491192817688,21.195568084716797,-16.66048812866211,-10.950304985046387,16.928247451782227,16.413801193237305,6.601977825164795,17.84326934814453,-22.99378776550293,6.434088230133057,-12.795541763305664,-13.159189224243164,-7.345592498779297,-10.67784309387207,-17.800683975219727,-10.799564361572266,-8.015189170837402,-3.6159281730651855,15.492591857910156,-5.837068557739258,-15.487629890441895,51.79814529418945,-4.75803804397583,-5.531886100769043,-6.402388095855713,35.1002082824707,6.259226322174072,0.746310293674469,-9.772403717041016,-3.586238384246826,4.353043556213379,-8.599878311157227,-13.866025924682617,7.716672897338867,2.220167398452759,-8.127766609191895,6.027399063110352,2.4636330604553223,13.95954704284668,-15.257186889648438,4.759273052215576,-1.9836301803588867,-1.8854975700378418,-17.72825813293457,-16.449573516845703,23.3330020904541,-34.10551834106445,13.861824989318848,-3.4588489532470703,-3.3179805278778076,-7.701404094696045,30.224550247192383,0.12531179189682007,16.718170166015625,-18.678884506225586,5.890286445617676,17.653308868408203,5.65911340713501,3.842033863067627,-23.271785736083984,18.4985408782959,26.276716232299805,-13.38198471069336,-23.351306915283203,-11.796956062316895,-5.060400485992432,8.266565322875977,-8.844463348388672,-21.02938461303711,14.438047409057617
