filepath,CCAE_0,CCAE_1,CCAE_2,CCAE_3,CCAE_4,CCAE_5,CCAE_6,CCAE_7,CCAE_8,CCAE_9,CCAE_10,CCAE_11,CCAE_12,CCAE_13,CCAE_14,CCAE_15,CCAE_16,CCAE_17,CCAE_18,CCAE_19,CCAE_20,CCAE_21,CCAE_22,CCAE_23,CCAE_24,CCAE_25,CCAE_26,CCAE_27,CCAE_28,CCAE_29,CCAE_30,CCAE_31,CCAE_32,CCAE_33,CCAE_34,CCAE_35,CCAE_36,CCAE_37,CCAE_38,CCAE_39,CCAE_40,CCAE_41,CCAE_42,CCAE_43,CCAE_44,CCAE_45,CCAE_46,CCAE_47,CCAE_48,CCAE_49,CCAE_50,CCAE_51,CCAE_52,CCAE_53,CCAE_54,CCAE_55,CCAE_56,CCAE_57,CCAE_58,CCAE_59,CCAE_60,CCAE_61,CCAE_62,CCAE_63,CCAE_64,CCAE_65,CCAE_66,CCAE_67,CCAE_68,CCAE_69,CCAE_70,CCAE_71,CCAE_72,CCAE_73,CCAE_74,CCAE_75,CCAE_76,CCAE_77,CCAE_78,CCAE_79,CCAE_80,CCAE_81,CCAE_82,CCAE_83,CCAE_84,CCAE_85,CCAE_86,CCAE_87,CCAE_88,CCAE_89,CCAE_90,CCAE_91,CCAE_92,CCAE_93,CCAE_94,CCAE_95,CCAE_96,CCAE_97,CCAE_98,CCAE_99,CCAE_100,CCAE_101,CCAE_102,CCAE_103,CCAE_104,CCAE_105,CCAE_106,CCAE_107,CCAE_108,CCAE_109,CCAE_110,CCAE_111,CCAE_112,CCAE_113,CCAE_114,CCAE_115,CCAE_116,CCAE_117,CCAE_118,CCAE_119,CCAE_120,CCAE_121,CCAE_122,CCAE_123,CCAE_124,CCAE_125,CCAE_126,CCAE_127
2120_2017-07-26_2018-01-22.png,0.1682671159505844,-15.451475143432617,-10.445709228515625,-2.860347270965576,-0.1314588338136673,-5.414183616638184,10.90482234954834,15.21377944946289,-4.506898880004883,-0.4659447968006134,18.618579864501953,-5.3441901206970215,1.0619474649429321,11.638623237609863,7.549258232116699,-8.270147323608398,10.031355857849121,-4.061741352081299,-18.050050735473633,10.656270027160645,6.935854434967041,9.847186088562012,-5.051769733428955,-9.002431869506836,4.4160075187683105,-15.937862396240234,-2.9892940521240234,12.356678009033203,-8.222549438476562,4.814504623413086,4.905803680419922,14.86144733428955,-2.6109962463378906,-1.8339110612869263,-20.496841430664062,-1.4999831914901733,-20.110977172851562,2.3388283252716064,-5.7933878898620605,19.16524887084961,-9.231966018676758,6.102112770080566,-13.83356761932373,-1.5535026788711548,16.07826042175293,3.6273179054260254,1.761178731918335,12.255995750427246,-15.7286958694458,1.8173346519470215,2.549307107925415,18.129976272583008,10.180627822875977,14.100127220153809,12.657783508300781,12.232510566711426,7.021267890930176,-4.962202548980713,-10.625123977661133,-10.147445678710938,-9.671581268310547,3.245438575744629,-19.196369171142578,-11.439380645751953,6.504305362701416,14.155778884887695,-7.348820209503174,13.511398315429688,-12.634318351745605,5.479430675506592,-2.476224899291992,-8.267998695373535,1.2273154258728027,-3.9904682636260986,10.396446228027344,15.175048828125,-12.435776710510254,13.879636764526367,-4.878495216369629,-12.674369812011719,8.697793006896973,-7.6199870109558105,-14.296831130981445,-5.064537048339844,-10.47390365600586,7.301416397094727,17.64171600341797,22.082204818725586,8.53559684753418,14.95823860168457,7.286495685577393,15.674308776855469,0.7102714776992798,12.061098098754883,12.147151947021484,13.380793571472168,12.227420806884766,-5.10556697845459,3.625498056411743,-2.072205066680908,15.179644584655762,-7.552334308624268,3.4462358951568604,-3.6711084842681885,-6.833935737609863,0.36384525895118713,4.619052886962891,6.235954761505127,-8.90956974029541,-2.599202871322632,16.137130737304688,-7.788223743438721,3.7756826877593994,-4.556793212890625,-2.9240312576293945,-0.8173173666000366,-4.661229610443115,-6.205896377563477,-6.888720989227295,-18.045560836791992,4.163974761962891,3.2489013671875,-3.4561498165130615,1.1418228149414062,4.128524303436279,-17.42854881286621,-2.686978816986084,7.747264385223389
2120_2018-08-30_2019-02-26.png,-0.9585205316543579,-17.448123931884766,-10.843306541442871,-3.6249098777770996,0.023769954219460487,-7.296777725219727,12.50661563873291,17.80673599243164,-5.637660980224609,0.423631876707077,21.97469139099121,-4.728291988372803,1.5059348344802856,13.116170883178711,9.253252983093262,-7.574898719787598,10.171239852905273,-5.216073989868164,-19.01335334777832,13.757672309875488,8.560636520385742,12.991530418395996,-5.611786365509033,-10.794445991516113,5.383717060089111,-20.498550415039062,-4.236629962921143,13.197966575622559,-10.403045654296875,4.06278133392334,5.754904747009277,18.74387550354004,-3.5673978328704834,-1.5650856494903564,-22.335872650146484,0.797956109046936,-23.767620086669922,2.5670249462127686,-2.4221246242523193,22.371322631835938,-10.034521102905273,8.628034591674805,-15.709481239318848,-1.5920816659927368,19.33364486694336,4.54703950881958,2.2908835411071777,14.325531005859375,-17.504281997680664,2.004563570022583,2.6214869022369385,22.597732543945312,12.150279998779297,15.650646209716797,15.364062309265137,11.653275489807129,7.1594109535217285,-5.660891532897949,-11.398590087890625,-13.495394706726074,-11.046141624450684,4.260217189788818,-21.720909118652344,-11.723891258239746,6.312544822692871,16.173337936401367,-9.377337455749512,14.481579780578613,-14.223588943481445,7.004307746887207,-2.1922121047973633,-6.358920574188232,2.5333051681518555,-6.766139507293701,12.500703811645508,17.675437927246094,-16.10565948486328,15.506314277648926,-7.021125316619873,-14.49335765838623,10.304144859313965,-8.777009963989258,-17.18022346496582,-8.39459228515625,-10.723068237304688,6.384706974029541,20.16571617126465,26.082151412963867,10.79177188873291,20.43958854675293,7.79983377456665,18.551631927490234,1.8254859447479248,12.525307655334473,15.533485412597656,15.717894554138184,15.83298397064209,-6.923315525054932,2.3342957496643066,-2.956279754638672,15.390816688537598,-8.22988510131836,5.876523971557617,-5.661131381988525,-6.003744125366211,0.1450568437576294,4.878798007965088,8.628159523010254,-10.879171371459961,-2.7476649284362793,19.091779708862305,-6.808628559112549,5.569479465484619,-6.196993350982666,-4.589003562927246,-0.4790268540382385,-4.958855628967285,-8.630409240722656,-8.04563045501709,-20.463768005371094,6.824011325836182,3.0067696571350098,-3.6533310413360596,-0.38807904720306396,5.474889278411865,-18.74273109436035,-2.029806137084961,9.677212715148926
2120_2016-11-21_2017-05-19.png,-0.5176858901977539,-14.240100860595703,-10.185212135314941,-2.207148551940918,-0.2514367997646332,-4.771298408508301,9.822332382202148,14.109565734863281,-3.5728535652160645,-1.410351276397705,19.80940818786621,-4.422430515289307,1.9394080638885498,11.678425788879395,6.532594680786133,-5.88281774520874,8.583924293518066,-3.662151336669922,-18.690561294555664,10.455283164978027,7.277400016784668,11.023179054260254,-5.895125865936279,-11.287110328674316,6.201777458190918,-16.571544647216797,-3.140347480773926,11.38863754272461,-8.684952735900879,4.409080982208252,5.2440032958984375,16.062273025512695,-3.8667421340942383,-1.445553183555603,-19.11775779724121,-0.42995086312294006,-20.829805374145508,2.722379446029663,-2.8390908241271973,19.29584312438965,-7.721773147583008,6.863542079925537,-12.88460636138916,-2.2297067642211914,16.28388786315918,5.843830108642578,3.6329281330108643,12.445260047912598,-15.929390907287598,0.07621875405311584,4.413180828094482,20.315248489379883,8.429339408874512,13.128203392028809,14.656013488769531,10.4511137008667,5.385293483734131,-5.470571994781494,-10.724628448486328,-11.6769437789917,-9.969747543334961,4.965795516967773,-18.991743087768555,-11.386164665222168,6.097900867462158,14.03324031829834,-6.766664028167725,15.087242126464844,-10.767578125,4.2526535987854,-1.6967686414718628,-5.513309955596924,2.062450647354126,-3.5153441429138184,10.030521392822266,14.368982315063477,-13.832661628723145,14.259564399719238,-5.64452600479126,-12.794706344604492,7.944534778594971,-6.405942916870117,-15.154457092285156,-7.713017463684082,-9.445977210998535,7.020295143127441,18.27011489868164,23.392499923706055,7.896470546722412,17.38067054748535,6.031172275543213,16.073877334594727,1.219855546951294,10.651371002197266,12.432669639587402,12.95684814453125,12.994789123535156,-6.872153282165527,1.7998679876327515,-2.392104148864746,13.525402069091797,-6.8786725997924805,4.502699851989746,-4.927529335021973,-6.325756072998047,-0.9783929586410522,2.5392637252807617,6.62943696975708,-9.604591369628906,-3.1872360706329346,15.30965805053711,-6.021906852722168,4.784732341766357,-4.4161248207092285,-4.105284214019775,-2.125288963317871,-5.754369258880615,-6.4966630935668945,-5.734785556793213,-19.871976852416992,5.304177284240723,1.5468478202819824,-4.381982326507568,0.7668216228485107,4.105330467224121,-16.680715560913086,-2.556570529937744,7.566417217254639
2120_2018-07-25_2019-01-21.png,-0.7344226241111755,-16.672395706176758,-10.373295783996582,-3.60325288772583,-0.8548036217689514,-7.096981525421143,11.912463188171387,16.892126083374023,-6.156155109405518,0.21839213371276855,21.06963348388672,-4.775285720825195,1.6522932052612305,12.53586483001709,8.589776039123535,-7.656857490539551,10.73513412475586,-5.274769306182861,-19.772336959838867,13.253517150878906,8.693124771118164,10.981057167053223,-5.88198709487915,-11.110116958618164,5.312382698059082,-18.05294418334961,-3.2087666988372803,12.716312408447266,-9.397439956665039,5.1955718994140625,4.938472270965576,16.69236946105957,-2.2430479526519775,-1.265503168106079,-22.241939544677734,-0.28940755128860474,-22.039628982543945,3.493335485458374,-4.914771556854248,21.469974517822266,-10.349968910217285,8.261496543884277,-14.363615036010742,-0.865382730960846,18.532941818237305,4.916319370269775,2.2368500232696533,14.031449317932129,-16.874088287353516,1.498932123184204,2.9900476932525635,19.84798240661621,12.222670555114746,16.015424728393555,14.636860847473145,11.465256690979004,7.548617362976074,-6.520320415496826,-10.72945499420166,-11.764970779418945,-10.396105766296387,4.387940406799316,-20.71651268005371,-11.896661758422852,7.219358921051025,15.608728408813477,-8.463179588317871,14.268519401550293,-14.237446784973145,6.1075263023376465,-3.4996447563171387,-7.413003921508789,2.398768901824951,-6.077464580535889,12.347217559814453,16.10240936279297,-14.901053428649902,14.60092544555664,-5.246074676513672,-13.595969200134277,9.14245891571045,-9.061685562133789,-15.319448471069336,-7.7340474128723145,-11.670299530029297,6.262456893920898,19.0730037689209,25.529264450073242,10.468509674072266,18.809951782226562,8.322813034057617,16.886693954467773,0.390706866979599,12.164715766906738,13.853300094604492,15.116204261779785,14.06690502166748,-6.249692440032959,1.6276113986968994,-3.721449851989746,15.776748657226562,-8.182820320129395,4.2172675132751465,-4.9108567237854,-5.664447784423828,1.2631890773773193,4.7344489097595215,6.858541011810303,-10.39361572265625,-3.0224673748016357,18.044450759887695,-7.252040386199951,4.251810073852539,-5.787532806396484,-3.9743995666503906,0.14648887515068054,-5.865170478820801,-8.18769645690918,-7.621851921081543,-19.799657821655273,5.618378162384033,3.6875107288360596,-3.5554540157318115,0.5861412286758423,4.847904205322266,-18.486101150512695,-2.9223482608795166,8.221843719482422
2120_2016-11-21_2017-05-18.png,-0.5576376914978027,-14.100528717041016,-10.093583106994629,-2.209531307220459,-0.18386007845401764,-4.685074329376221,9.726375579833984,14.103127479553223,-3.5756993293762207,-1.4919240474700928,19.729412078857422,-4.429516315460205,1.8198564052581787,11.681625366210938,6.455826759338379,-5.888791561126709,8.549261093139648,-3.6744532585144043,-18.635210037231445,10.472447395324707,7.29017448425293,11.021430015563965,-5.957902431488037,-11.30420970916748,6.226719856262207,-16.57476234436035,-3.220905303955078,11.347997665405273,-8.4986572265625,4.485834121704102,5.2273406982421875,15.977642059326172,-3.8727073669433594,-1.4936429262161255,-18.998762130737305,-0.34654501080513,-20.73897361755371,2.7438976764678955,-2.7168917655944824,19.20720100402832,-7.581634998321533,6.88431453704834,-12.872666358947754,-2.2314271926879883,16.26177978515625,5.806883811950684,3.6363823413848877,12.359572410583496,-15.748764991760254,0.03664683178067207,4.382046699523926,20.19659423828125,8.348599433898926,13.208697319030762,14.638040542602539,10.160038948059082,5.359084606170654,-5.4041666984558105,-10.582149505615234,-11.633515357971191,-9.864688873291016,4.977665424346924,-18.84701156616211,-11.277322769165039,6.0992937088012695,13.875990867614746,-6.689930438995361,14.9664945602417,-10.6221284866333,4.143612384796143,-1.661481499671936,-5.443747043609619,2.000126838684082,-3.558588981628418,9.931069374084473,14.200462341308594,-13.771867752075195,14.201800346374512,-5.661612033843994,-12.611495018005371,7.8794355392456055,-6.4393510818481445,-15.009862899780273,-7.804792404174805,-9.542229652404785,6.888657569885254,18.136409759521484,23.248796463012695,7.888240337371826,17.446495056152344,5.910834789276123,15.93543815612793,1.1667982339859009,10.591964721679688,12.381987571716309,12.91590404510498,12.922151565551758,-6.802701950073242,1.6834911108016968,-2.431399345397949,13.431190490722656,-6.781120777130127,4.409505367279053,-5.0797529220581055,-6.270725250244141,-0.9856299161911011,2.466472625732422,6.611461162567139,-9.464886665344238,-3.2475922107696533,15.203300476074219,-5.8184614181518555,4.788671016693115,-4.454134464263916,-4.000446319580078,-2.181443214416504,-5.792164325714111,-6.471005916595459,-5.732424259185791,-19.738372802734375,5.371260643005371,1.4490392208099365,-4.466784477233887,0.9226747155189514,4.090183734893799,-16.69988250732422,-2.467334747314453,7.488954544067383
2120_2017-08-28_2018-02-22.png,0.6622768640518188,-14.82693862915039,-9.025840759277344,-2.97656512260437,0.17292021214962006,-6.530045032501221,9.822686195373535,14.102052688598633,-4.250917434692383,-0.8182451725006104,18.4929141998291,-4.1739325523376465,1.899330735206604,10.92833423614502,6.7882080078125,-6.726293087005615,9.38072681427002,-3.7670483589172363,-16.984468460083008,11.299507141113281,7.071855068206787,10.101649284362793,-5.031274318695068,-8.726275444030762,5.274919509887695,-15.843555450439453,-3.0848708152770996,11.016775131225586,-9.067554473876953,3.982758045196533,5.119574069976807,15.637434959411621,-2.9440011978149414,-0.9509266018867493,-19.314929962158203,0.7724680304527283,-19.323448181152344,3.093327760696411,-3.5868732929229736,19.277681350708008,-9.281779289245605,6.47107458114624,-12.681748390197754,-1.5438529253005981,15.846304893493652,3.589597225189209,1.8771600723266602,11.992612838745117,-14.916234016418457,0.9549463987350464,2.148977518081665,18.320945739746094,9.04655933380127,13.68183422088623,12.678903579711914,9.805155754089355,5.837402820587158,-4.950872898101807,-10.092498779296875,-11.442814826965332,-10.389106750488281,4.086852073669434,-18.353534698486328,-9.45287799835205,5.813089847564697,13.731575965881348,-7.091751575469971,12.62660026550293,-11.221288681030273,5.539955139160156,-1.8750897645950317,-5.978088855743408,2.310049533843994,-4.438037872314453,10.317734718322754,14.86754322052002,-13.016395568847656,13.105988502502441,-4.807427883148193,-12.52348804473877,8.687641143798828,-7.18961763381958,-14.406808853149414,-5.937255859375,-8.81804370880127,6.21486759185791,17.192466735839844,22.636119842529297,9.52912712097168,17.515127182006836,7.0542378425598145,15.321739196777344,0.40658584237098694,10.1688232421875,12.341766357421875,13.272915840148926,12.378193855285645,-6.371192932128906,2.811866044998169,-2.721081256866455,13.497486114501953,-6.495273113250732,3.7764084339141846,-4.861927509307861,-5.785927772521973,0.4162352979183197,3.6609859466552734,7.443105220794678,-10.003426551818848,-2.8385980129241943,15.838546752929688,-6.570375442504883,4.958714962005615,-4.3213210105896,-2.904600143432617,-1.0961105823516846,-4.732321262359619,-6.777338981628418,-7.149020671844482,-17.536319732666016,6.083342552185059,2.5921871662139893,-3.3330349922180176,-0.35406550765037537,4.229984760284424,-16.053510665893555,-2.739595890045166,8.341635704040527
2120_2018-03-23_2018-09-19.png,0.2785845398902893,-16.875247955322266,-11.378030776977539,-3.6226894855499268,0.051851533353328705,-6.345706462860107,11.251707077026367,17.21974754333496,-4.2220282554626465,-0.6177777647972107,21.33919906616211,-4.8791890144348145,0.06764502823352814,12.744035720825195,8.678916931152344,-7.473639011383057,9.182909965515137,-4.295622825622559,-19.45393180847168,11.926637649536133,6.890265464782715,11.93030071258545,-4.910319805145264,-10.448081016540527,5.641444206237793,-18.90492820739746,-3.360384941101074,13.057910919189453,-9.654510498046875,3.043564796447754,6.449591636657715,18.151559829711914,-4.601608753204346,-1.9343172311782837,-21.80719757080078,-0.925494909286499,-23.03003692626953,1.8622082471847534,-4.088745594024658,21.360620498657227,-9.077823638916016,7.032951831817627,-13.494664192199707,-2.129678726196289,18.983736038208008,4.580613136291504,1.3926043510437012,13.785613059997559,-18.208984375,2.0509440898895264,4.022404670715332,20.403947830200195,9.800149917602539,14.25632381439209,14.983736038208008,11.91232967376709,7.294182777404785,-5.872541904449463,-11.497934341430664,-12.781490325927734,-11.382413864135742,3.911926746368408,-21.34222412109375,-12.582772254943848,6.097084999084473,16.110225677490234,-8.325121879577637,16.571157455444336,-12.00816535949707,4.169952869415283,-1.0587573051452637,-7.702590465545654,3.0175297260284424,-4.447042465209961,11.879875183105469,17.60253143310547,-14.337889671325684,15.468053817749023,-6.1621623039245605,-14.7586088180542,10.087685585021973,-6.681105136871338,-17.349939346313477,-8.071609497070312,-8.641002655029297,6.706869125366211,20.580974578857422,25.173044204711914,8.591796875,18.095396041870117,6.578975200653076,18.416234970092773,1.758371353149414,11.995813369750977,15.481072425842285,14.910704612731934,15.466511726379395,-7.198520660400391,2.9634573459625244,-2.0983829498291016,15.826401710510254,-7.879276752471924,5.053371429443359,-3.7912585735321045,-7.0901994705200195,0.11710402369499207,4.081795692443848,8.474947929382324,-10.819783210754395,-2.1485159397125244,18.057113647460938,-8.610044479370117,3.7584493160247803,-4.282186031341553,-4.510287761688232,-1.2988202571868896,-4.991064548492432,-7.240475654602051,-7.1329665184021,-21.358741760253906,6.131587028503418,2.3548099994659424,-3.468055486679077,0.4295763075351715,4.89756441116333,-18.08812141418457,-2.4897360801696777,8.496419906616211
2120_2018-12-19_2019-06-17.png,0.14007599651813507,-14.820085525512695,-10.703134536743164,-3.028912305831909,0.3837813436985016,-6.252401828765869,9.455305099487305,14.804823875427246,-3.2039384841918945,-1.56443190574646,19.5676326751709,-3.925539255142212,0.9712377786636353,12.178533554077148,7.871207237243652,-7.070692539215088,8.137900352478027,-3.828798770904541,-18.166940689086914,10.90406322479248,5.853109836578369,10.596108436584473,-4.781205654144287,-9.47130298614502,5.8174333572387695,-16.951955795288086,-3.5497336387634277,11.914371490478516,-9.410523414611816,2.7417078018188477,5.1040215492248535,17.06894874572754,-4.267005443572998,-0.9013188481330872,-19.618938446044922,-0.4738300144672394,-21.68026351928711,1.654948115348816,-3.377263069152832,20.079275131225586,-8.456336975097656,6.035618305206299,-12.421332359313965,-2.5520687103271484,17.222232818603516,4.006827354431152,1.6965103149414062,12.776871681213379,-16.528335571289062,1.5434575080871582,3.2289206981658936,19.43438720703125,8.85228157043457,13.743435859680176,14.347461700439453,10.638262748718262,6.497596263885498,-5.341292858123779,-11.136991500854492,-12.670062065124512,-11.110225677490234,4.585822582244873,-19.62887191772461,-11.394643783569336,5.911137104034424,15.12428092956543,-8.004228591918945,15.034608840942383,-10.720610618591309,3.5419321060180664,-0.5539276003837585,-6.482171535491943,3.0727765560150146,-3.912074089050293,10.234668731689453,16.110950469970703,-12.614217758178711,14.834311485290527,-5.249792575836182,-13.270585060119629,9.214842796325684,-5.694374084472656,-16.232196807861328,-7.149504661560059,-7.512001991271973,7.2511749267578125,18.974857330322266,23.464025497436523,8.727214813232422,17.669513702392578,5.957878589630127,16.347864151000977,0.9020692706108093,10.991376876831055,13.784774780273438,13.135088920593262,14.201557159423828,-6.53892707824707,2.3780386447906494,-2.73653507232666,14.015880584716797,-6.251072883605957,4.366130828857422,-3.764064073562622,-6.816993713378906,0.04002094641327858,3.5814268589019775,8.330828666687012,-11.034400939941406,-2.116332769393921,16.764686584472656,-7.778604984283447,4.71837854385376,-3.902092695236206,-4.350405216217041,-2.004209280014038,-4.5692667961120605,-6.075432300567627,-6.4336419105529785,-19.25204086303711,6.464456558227539,1.1024363040924072,-3.339151382446289,-0.16135336458683014,4.633862018585205,-17.117177963256836,-2.163188934326172,8.349830627441406
2120_2016-12-12_2017-06-08.png,-0.2082809954881668,-15.394893646240234,-9.611825942993164,-3.073460578918457,0.11550457775592804,-5.861409664154053,10.813823699951172,14.790888786315918,-3.776071548461914,-0.593819797039032,19.838483810424805,-4.525928020477295,2.1020376682281494,11.169548988342285,6.315919876098633,-6.167334079742432,8.7389554977417,-4.192525386810303,-18.08881187438965,10.844789505004883,7.09651517868042,10.511651039123535,-5.75181245803833,-10.761725425720215,5.941449165344238,-16.85958480834961,-3.2104272842407227,11.76966667175293,-9.28569507598877,3.9145259857177734,5.742997646331787,16.099027633666992,-3.5093894004821777,-0.932548463344574,-19.490217208862305,0.5535809993743896,-20.24782943725586,2.9388296604156494,-2.7897047996520996,19.47985076904297,-8.419756889343262,7.558847427368164,-12.805159568786621,-2.1645636558532715,17.042003631591797,5.52320671081543,3.0760085582733154,12.67523193359375,-16.035547256469727,0.5579672455787659,3.924701690673828,19.915719985961914,8.958428382873535,13.6223783493042,15.05579948425293,10.871630668640137,6.294077396392822,-6.342370510101318,-10.447122573852539,-11.959510803222656,-11.192548751831055,3.9269137382507324,-19.255064010620117,-11.101142883300781,6.618449687957764,14.274885177612305,-6.669723033905029,14.523420333862305,-11.581570625305176,4.644893169403076,-2.3465027809143066,-5.62312650680542,1.8915314674377441,-3.46317720413208,10.758321762084961,15.233160018920898,-14.788804054260254,14.010690689086914,-5.79445219039917,-13.40677547454834,8.430715560913086,-6.769333839416504,-16.031776428222656,-7.357385635375977,-9.07139778137207,6.161995887756348,18.695518493652344,24.124027252197266,8.14651870727539,17.84126853942871,6.641988277435303,16.421476364135742,0.19355811178684235,10.505424499511719,12.834081649780273,13.586491584777832,13.29898738861084,-7.03873348236084,2.179638147354126,-2.2363548278808594,13.689115524291992,-7.621198654174805,4.255283355712891,-5.166204929351807,-5.990687370300293,-0.13260291516780853,2.697615623474121,7.159477233886719,-9.648636817932129,-2.7322347164154053,16.00210189819336,-6.1524505615234375,4.261759281158447,-4.2927727699279785,-3.6080803871154785,-1.434018850326538,-5.376966953277588,-6.879552841186523,-6.806844234466553,-20.051769256591797,5.9035797119140625,2.380446672439575,-3.1279728412628174,0.03837438300251961,4.113968849182129,-16.611879348754883,-3.3955588340759277,7.977577209472656
2120_2018-01-29_2018-07-27.png,-1.4559684991836548,-15.662851333618164,-11.37100887298584,-3.6256020069122314,0.10258513689041138,-6.112730026245117,11.244260787963867,16.06730079650879,-3.7496399879455566,-1.0911431312561035,20.572490692138672,-4.2538886070251465,1.841734528541565,13.534422874450684,7.848135948181152,-7.027989864349365,8.884568214416504,-5.064927577972412,-19.639528274536133,11.338312149047852,7.153095245361328,11.902762413024902,-6.204090595245361,-11.822839736938477,6.505312442779541,-17.96388816833496,-3.0893020629882812,13.908103942871094,-9.686208724975586,3.6082353591918945,5.0413289070129395,17.877744674682617,-4.6292219161987305,-1.367357850074768,-20.705806732177734,-1.4740747213363647,-22.487314224243164,3.0958659648895264,-4.462306499481201,20.851606369018555,-8.298774719238281,7.499038219451904,-13.768122673034668,-2.3308982849121094,18.36325454711914,5.044727325439453,2.4114601612091064,13.840784072875977,-17.259233474731445,0.9054886102676392,4.118477821350098,20.715757369995117,9.887479782104492,14.950757026672363,15.973750114440918,11.723999977111816,7.10432243347168,-6.456486225128174,-11.451057434082031,-12.276827812194824,-10.939786911010742,4.262699604034424,-20.83435821533203,-12.277521133422852,7.220265865325928,16.05417251586914,-7.624658107757568,15.502633094787598,-12.39726448059082,4.0187668800354,-1.4980148077011108,-7.0076727867126465,3.0921971797943115,-4.169394016265869,10.58165168762207,16.458789825439453,-13.78833293914795,15.490676879882812,-5.115016460418701,-14.207566261291504,8.675638198852539,-6.590511798858643,-16.611177444458008,-7.0303239822387695,-9.887763977050781,7.142447471618652,20.85600471496582,25.31021499633789,8.711555480957031,17.723318099975586,6.9995341300964355,17.64562225341797,0.5838568210601807,12.515989303588867,13.627360343933105,14.047767639160156,15.071602821350098,-7.404354095458984,2.1652421951293945,-2.9812231063842773,15.67409610748291,-7.44062614440918,4.715842247009277,-4.672441005706787,-6.838780403137207,0.15055857598781586,3.675532817840576,7.522276401519775,-11.643254280090332,-3.0077831745147705,17.60472297668457,-8.176654815673828,4.673408031463623,-4.767006874084473,-4.738112449645996,-1.7392808198928833,-6.173727512359619,-7.120101451873779,-6.1060099601745605,-21.228334426879883,5.853215217590332,1.5639173984527588,-3.465728759765625,0.10242891311645508,4.794626235961914,-18.6103572845459,-2.7275776863098145,8.295917510986328
2120_2019-01-21_2019-07-19.png,-0.40277308225631714,-14.495790481567383,-11.112832069396973,-1.6198334693908691,-0.5789854526519775,-4.533911228179932,9.165327072143555,15.271897315979004,-3.7084765434265137,-1.2904894351959229,19.285654067993164,-4.59346342086792,1.6078382730484009,11.824508666992188,7.495473861694336,-6.695626735687256,8.325918197631836,-2.719611644744873,-17.563234329223633,10.324163436889648,7.574053764343262,11.625645637512207,-5.104699611663818,-11.254267692565918,6.512940406799316,-17.827356338500977,-4.509625434875488,11.717668533325195,-8.278271675109863,3.2640066146850586,6.570618629455566,16.810232162475586,-3.765042304992676,-1.385189175605774,-19.008150100708008,-1.0831605195999146,-21.854598999023438,1.3353301286697388,-2.947770118713379,19.525863647460938,-7.137640953063965,7.43369722366333,-13.545912742614746,-1.0225881338119507,16.879262924194336,5.204968452453613,3.7135279178619385,11.468454360961914,-17.044830322265625,0.24190670251846313,3.284802198410034,20.31527328491211,8.708770751953125,13.317585945129395,13.771656036376953,10.570879936218262,4.8069539070129395,-4.10964822769165,-10.367179870605469,-12.867164611816406,-10.903518676757812,3.8435418605804443,-19.361038208007812,-11.261093139648438,4.591741561889648,13.820836067199707,-6.80317497253418,15.489957809448242,-10.328169822692871,4.644418716430664,0.1032482162117958,-4.921881198883057,2.3174479007720947,-4.365769863128662,9.438216209411621,15.838186264038086,-13.491853713989258,14.41826057434082,-6.446007251739502,-12.993053436279297,8.573423385620117,-5.932844161987305,-15.575658798217773,-7.165485382080078,-8.193453788757324,6.512505531311035,18.69983673095703,22.85624122619629,7.736722946166992,17.5224609375,4.632715225219727,17.208194732666016,2.6343953609466553,10.425092697143555,13.621533393859863,12.38114070892334,14.049798965454102,-7.155527114868164,2.199967861175537,-1.262585997581482,13.234918594360352,-7.484830856323242,5.704191207885742,-4.921120643615723,-7.112255096435547,-1.713850736618042,2.2335853576660156,7.287970066070557,-10.130351066589355,-3.663132905960083,15.961380958557129,-7.161988735198975,5.538398265838623,-4.017393589019775,-4.9120402336120605,-2.124098777770996,-4.646459102630615,-5.93487024307251,-5.445327281951904,-19.914541244506836,4.889145851135254,1.581125259399414,-3.748783588409424,0.7422879934310913,4.234269618988037,-15.882546424865723,-1.667762041091919,7.701583385467529
2120_2018-08-24_2019-02-20.png,-0.8735194206237793,-17.250354766845703,-10.552905082702637,-3.752523183822632,-0.15639813244342804,-7.574747562408447,12.373565673828125,17.313697814941406,-5.323625087738037,0.4988761246204376,21.54621696472168,-4.538878917694092,1.655636191368103,12.776205062866211,8.734464645385742,-7.407474040985107,10.075043678283691,-5.249838829040527,-18.741662979125977,13.727426528930664,8.51069164276123,12.599501609802246,-5.7699055671691895,-10.596434593200684,5.4781270027160645,-20.027555465698242,-4.206118106842041,12.810135841369629,-10.306482315063477,4.426801681518555,5.272575378417969,18.281719207763672,-3.3380661010742188,-1.5763391256332397,-21.99056625366211,1.151057243347168,-22.937429428100586,2.96174955368042,-2.2695748805999756,22.078786849975586,-10.197134017944336,8.680008888244629,-15.529027938842773,-1.4560600519180298,19.24197006225586,4.649930477142334,2.229004144668579,14.1238431930542,-16.958581924438477,1.8423141241073608,2.4199764728546143,21.911191940307617,12.159996032714844,15.878336906433105,15.302274703979492,11.199597358703613,6.988101482391357,-5.894527435302734,-11.09229850769043,-13.419844627380371,-11.002320289611816,4.553510665893555,-21.385387420654297,-11.130523681640625,6.455019474029541,15.748617172241211,-9.100234985351562,14.04409408569336,-14.053074836730957,7.078023910522461,-2.5545811653137207,-6.006187915802002,2.3918416500091553,-6.871456146240234,12.35784912109375,17.31035614013672,-16.076913833618164,15.283114433288574,-6.748205184936523,-13.996268272399902,10.025778770446777,-9.110655784606934,-16.67449378967285,-8.224996566772461,-10.650004386901855,6.098471164703369,19.679439544677734,25.82060432434082,10.779109001159668,20.155593872070312,8.027497291564941,18.07143211364746,1.2465906143188477,12.056917190551758,15.241044044494629,15.529708862304688,15.402714729309082,-6.770257949829102,2.08477783203125,-3.2241179943084717,15.071512222290039,-7.9745774269104,5.543171405792236,-5.955216407775879,-5.6026458740234375,0.33054319024086,4.893337726593018,8.282923698425293,-10.972746849060059,-2.6699771881103516,18.606887817382812,-6.402129173278809,5.625420093536377,-6.072373390197754,-4.151857852935791,-0.43089887499809265,-5.065324306488037,-8.708951950073242,-8.118486404418945,-19.962421417236328,7.039899826049805,3.0046305656433105,-3.662445068359375,-0.5656188130378723,5.397024631500244,-18.568193435668945,-1.9466090202331543,9.747414588928223
2120_2017-11-20_2018-05-17.png,-1.0594722032546997,-15.637029647827148,-10.231823921203613,-3.7426254749298096,0.3503343164920807,-6.696841239929199,11.619882583618164,16.103134155273438,-4.351115703582764,-0.7937839031219482,20.683120727539062,-4.443734645843506,2.6233794689178467,12.86009407043457,8.05004596710205,-7.007909297943115,8.959633827209473,-4.936684608459473,-18.966739654541016,12.311626434326172,7.586820125579834,12.164088249206543,-6.74772310256958,-11.748006820678711,5.919511318206787,-18.666271209716797,-3.529092311859131,12.923494338989258,-9.747632026672363,4.310926914215088,5.144594192504883,17.910558700561523,-3.530017375946045,-1.0859946012496948,-20.80990219116211,0.671478271484375,-22.11518096923828,2.94783616065979,-2.0301578044891357,21.2319278717041,-8.686421394348145,7.335561752319336,-14.934815406799316,-1.5576616525650024,18.297754287719727,4.632204055786133,3.1540262699127197,13.87820053100586,-16.41179847717285,0.6528245806694031,2.4695985317230225,21.643287658691406,11.01758861541748,15.375340461730957,15.958320617675781,11.002121925354004,6.53757905960083,-5.6349406242370605,-10.629703521728516,-13.027920722961426,-11.08828353881836,5.195632457733154,-20.365097045898438,-11.595141410827637,7.052955627441406,15.920619010925293,-8.536815643310547,13.826591491699219,-12.930039405822754,6.019374370574951,-1.9314404726028442,-5.679051876068115,2.446263313293457,-5.525230407714844,11.223578453063965,16.001163482666016,-14.732637405395508,15.389334678649902,-5.87322998046875,-13.578361511230469,8.991264343261719,-7.99505615234375,-16.240331649780273,-7.587704658508301,-10.046396255493164,6.436103820800781,19.538793563842773,25.446369171142578,10.252432823181152,19.548513412475586,6.754371166229248,17.308069229125977,0.8767597675323486,11.897224426269531,13.660497665405273,14.396393775939941,14.99889087677002,-7.057196617126465,1.929315209388733,-3.3255081176757812,14.264341354370117,-7.398184776306152,4.893558025360107,-6.563605308532715,-5.936685562133789,0.03280247375369072,3.894230604171753,7.289924621582031,-11.042612075805664,-3.203748941421509,17.364858627319336,-6.140341758728027,6.1485819816589355,-5.347649097442627,-4.037777423858643,-1.4522068500518799,-5.7125468254089355,-7.9586567878723145,-7.059998512268066,-19.917552947998047,7.144597053527832,1.9482827186584473,-3.776945114135742,-0.6780281066894531,4.924441337585449,-18.116212844848633,-2.1080338954925537,9.501220703125
2120_2018-05-07_2018-10-31.png,-1.0593998432159424,-15.984938621520996,-10.524579048156738,-2.6146388053894043,0.09044422209262848,-5.530862331390381,11.170852661132812,15.72400951385498,-5.1925458908081055,-0.37861168384552,20.449485778808594,-4.277267932891846,3.2330336570739746,11.278105735778809,5.843287944793701,-5.813114643096924,8.854275703430176,-4.619241237640381,-18.911222457885742,11.461484909057617,8.030016899108887,11.052475929260254,-6.426649570465088,-12.077059745788574,5.263406753540039,-17.318096160888672,-3.0397870540618896,12.396681785583496,-8.687134742736816,4.306120872497559,6.854917526245117,17.266141891479492,-3.2988626956939697,-0.3025829493999481,-20.066368103027344,0.36223384737968445,-22.006502151489258,3.739894151687622,-3.1086039543151855,21.064895629882812,-7.7433881759643555,8.175309181213379,-12.916873931884766,-1.7101179361343384,17.586294174194336,6.076770305633545,3.5807368755340576,13.233480453491211,-16.809310913085938,0.6515587568283081,4.8910231590271,21.761995315551758,9.7487211227417,14.131898880004883,15.461502075195312,11.687334060668945,5.458710193634033,-6.355998516082764,-10.691987991333008,-12.781500816345215,-10.718324661254883,3.6854867935180664,-20.214773178100586,-12.399161338806152,6.140799522399902,14.816039085388184,-7.544439792633057,15.281173706054688,-12.743579864501953,5.117556571960449,-2.4232122898101807,-5.281280994415283,2.7109758853912354,-4.3819260597229,11.855818748474121,15.13567066192627,-15.92532730102539,14.937041282653809,-6.288319110870361,-14.264992713928223,7.678524494171143,-7.050628662109375,-16.380184173583984,-8.305073738098145,-10.653206825256348,6.046704292297363,19.5957088470459,25.20575714111328,7.943821907043457,19.219188690185547,6.596861362457275,17.184017181396484,1.4281225204467773,11.364169120788574,12.910379409790039,14.188139915466309,14.240848541259766,-8.217623710632324,1.054133653640747,-2.8246872425079346,13.888747215270996,-8.420344352722168,6.040134429931641,-5.593980312347412,-6.087945461273193,-1.1077775955200195,2.500948905944824,7.408271312713623,-9.82957935333252,-3.5717179775238037,17.00752830505371,-6.701787948608398,4.975369930267334,-5.543533802032471,-4.414970397949219,-1.1600759029388428,-5.9553351402282715,-7.090950965881348,-7.068039417266846,-21.080488204956055,5.439709663391113,2.639005184173584,-3.692887783050537,0.478602796792984,3.8793132305145264,-17.084535598754883,-3.4267587661743164,8.330503463745117
2120_2016-07-21_2017-01-06.png,0.4220917820930481,-14.494800567626953,-10.90251636505127,-1.9893994331359863,0.2871491014957428,-4.617105960845947,8.881816864013672,15.11224365234375,-3.583193778991699,-1.0939655303955078,17.954557418823242,-4.367563724517822,0.4361307621002197,10.920047760009766,7.14060115814209,-7.4570794105529785,8.35481071472168,-2.283874988555908,-16.046724319458008,10.047622680664062,5.594645023345947,9.781683921813965,-3.8438353538513184,-8.488654136657715,5.789634704589844,-16.594215393066406,-4.587343692779541,11.68649673461914,-8.060345649719238,2.493673324584961,6.035587310791016,15.544333457946777,-3.6673941612243652,-1.5186904668807983,-18.67218780517578,-0.9950318932533264,-20.333534240722656,0.303467333316803,-3.7567882537841797,18.354209899902344,-7.495520114898682,6.126202583312988,-12.484938621520996,-1.6904267072677612,15.685708045959473,3.4790892601013184,2.3181848526000977,11.4082612991333,-16.224504470825195,1.755176305770874,2.5693857669830322,17.568222045898438,7.9359660148620605,12.148133277893066,11.804616928100586,11.28681468963623,6.0186448097229,-4.151827335357666,-9.922748565673828,-12.135716438293457,-10.993062973022461,2.623046875,-18.677772521972656,-10.338167190551758,4.5253586769104,13.461097717285156,-7.134840488433838,14.541184425354004,-10.38106632232666,3.6132373809814453,-0.12389891594648361,-5.93528413772583,2.240623950958252,-3.34226655960083,9.451763153076172,15.755592346191406,-11.958550453186035,13.736222267150879,-5.91105318069458,-12.497401237487793,9.47812557220459,-6.027013301849365,-15.202877044677734,-5.825369834899902,-6.918673515319824,6.815469741821289,17.468605041503906,21.01646614074707,7.476772785186768,15.784624099731445,5.288722515106201,15.917068481445312,1.8372929096221924,10.14773941040039,12.977444648742676,12.269558906555176,13.300415992736816,-6.288473129272461,3.4330217838287354,-1.0595215559005737,13.557554244995117,-7.4164533615112305,4.486485958099365,-3.440809965133667,-7.193328857421875,-0.5701824426651001,3.1508448123931885,7.696113586425781,-9.658514976501465,-2.836045503616333,15.561978340148926,-7.992435932159424,4.168491840362549,-3.572787046432495,-3.343693733215332,-1.8650729656219482,-2.9961512088775635,-5.049834728240967,-6.216397762298584,-18.266637802124023,4.48690128326416,2.3720531463623047,-3.2161178588867188,1.0029048919677734,3.4980409145355225,-15.6464204788208,-1.8873828649520874,7.406144618988037
2120_2019-01-28_2019-07-25.png,-0.3676421046257019,-14.734018325805664,-11.609341621398926,-1.631795883178711,-0.373572438955307,-4.4213409423828125,9.354674339294434,15.722597122192383,-3.6587185859680176,-1.3103809356689453,19.810688018798828,-4.821038722991943,1.4129024744033813,12.252094268798828,7.81287956237793,-6.960652828216553,8.306028366088867,-2.6558985710144043,-18.18560218811035,10.206036567687988,7.330019950866699,11.794798851013184,-5.23206090927124,-11.383824348449707,6.635074615478516,-18.383159637451172,-4.285677909851074,12.309003829956055,-8.485798835754395,3.012605667114258,6.709866523742676,17.24644660949707,-4.126517295837402,-1.4932504892349243,-19.51506805419922,-1.5385810136795044,-22.517616271972656,1.0085933208465576,-3.0373010635375977,19.935672760009766,-7.291386604309082,7.217115879058838,-13.556059837341309,-1.3146077394485474,17.250244140625,5.370765686035156,3.676903009414673,11.885653495788574,-17.723180770874023,0.23827528953552246,3.4088966846466064,20.62278938293457,8.80260944366455,13.175847053527832,13.953226089477539,11.364863395690918,5.110334396362305,-4.152468204498291,-10.86874008178711,-12.990301132202148,-11.087581634521484,3.7372868061065674,-19.979595184326172,-11.701568603515625,4.514004230499268,14.333067893981934,-6.943199634552002,16.13189125061035,-10.558883666992188,4.521360874176025,0.3305208384990692,-5.3311638832092285,2.308903932571411,-4.175645351409912,9.72977066040039,16.283248901367188,-13.688485145568848,14.666062355041504,-6.566396236419678,-13.43017292022705,8.901114463806152,-5.598365306854248,-15.956892013549805,-7.071709632873535,-8.05894660949707,6.90993595123291,19.2073974609375,23.263219833374023,7.683135509490967,17.349695205688477,4.697994709014893,17.69174575805664,2.793684720993042,10.860641479492188,14.053071975708008,12.652551651000977,14.553350448608398,-7.407930374145508,2.3749096393585205,-1.218427062034607,13.701090812683105,-7.768257141113281,6.01444149017334,-4.540634632110596,-7.610722541809082,-1.640798568725586,2.524019718170166,7.361446380615234,-10.3482084274292,-3.6767351627349854,16.288278579711914,-7.8052802085876465,5.17117166519165,-3.830408811569214,-5.323715686798096,-2.259097099304199,-4.5858683586120605,-5.8456573486328125,-5.5233683586120605,-20.592397689819336,4.872295379638672,1.4999058246612549,-3.6356070041656494,1.0670244693756104,4.345622539520264,-16.2445125579834,-1.8397510051727295,7.850783348083496
2120_2016-07-21_2017-01-10.png,0.4147874116897583,-14.536985397338867,-10.91071891784668,-2.0090065002441406,0.2797170579433441,-4.628961563110352,8.95729923248291,15.152200698852539,-3.619504451751709,-1.0390698909759521,18.10268783569336,-4.355404376983643,0.5070561170578003,10.959261894226074,7.174001693725586,-7.410614490509033,8.335166931152344,-2.3649630546569824,-16.14145851135254,10.117249488830566,5.626190662384033,9.893935203552246,-3.8991687297821045,-8.612369537353516,5.8467607498168945,-16.71576499938965,-4.547430992126465,11.669429779052734,-8.04008960723877,2.5715548992156982,6.055036544799805,15.610174179077148,-3.6172966957092285,-1.4405144453048706,-18.754487991333008,-0.9342988729476929,-20.401329040527344,0.2857500910758972,-3.6445977687835693,18.410017013549805,-7.482203006744385,6.221597194671631,-12.577622413635254,-1.648666262626648,15.798434257507324,3.552678108215332,2.4256632328033447,11.511961936950684,-16.261743545532227,1.744774580001831,2.622875928878784,17.785829544067383,7.979090213775635,12.17432689666748,11.910062789916992,11.315293312072754,6.009930610656738,-4.179311275482178,-9.94784927368164,-12.230538368225098,-11.026626586914062,2.6975412368774414,-18.727651596069336,-10.448505401611328,4.644324779510498,13.481952667236328,-7.175136566162109,14.631307601928711,-10.450872421264648,3.6752967834472656,-0.14644892513751984,-5.914025783538818,2.3285770416259766,-3.403501033782959,9.54700756072998,15.795950889587402,-12.100306510925293,13.740324974060059,-5.996427059173584,-12.566686630249023,9.478199005126953,-6.0022759437561035,-15.24632453918457,-5.937899589538574,-7.003907203674316,6.866223335266113,17.509933471679688,21.176450729370117,7.472382545471191,15.882467269897461,5.26160192489624,16.05726432800293,1.8779410123825073,10.147581100463867,13.040142059326172,12.42451000213623,13.353290557861328,-6.346142768859863,3.417285203933716,-1.0381613969802856,13.551773071289062,-7.467587471008301,4.5909905433654785,-3.553816556930542,-7.157381057739258,-0.53618323802948,3.140434741973877,7.665525913238525,-9.633072853088379,-2.8417861461639404,15.625886917114258,-7.92148494720459,4.175471782684326,-3.593912363052368,-3.3889694213867188,-1.842890977859497,-3.0701687335968018,-5.153353691101074,-6.281735897064209,-18.401325225830078,4.560527801513672,2.428778886795044,-3.1434123516082764,0.9891341924667358,3.480529546737671,-15.65872573852539,-1.884560227394104,7.479229927062988
2120_2017-07-14_2018-01-10.png,-0.7328307628631592,-15.155685424804688,-10.168707847595215,-2.6671266555786133,-0.6052594184875488,-4.2530364990234375,10.348163604736328,15.740823745727539,-4.53419303894043,0.10106733441352844,18.113435745239258,-5.362884044647217,0.26032042503356934,11.586673736572266,7.059686660766602,-8.074451446533203,9.071410179138184,-3.5109329223632812,-17.729318618774414,10.000168800354004,6.49130392074585,9.753876686096191,-5.032968997955322,-9.2625150680542,4.921858310699463,-16.04437828063965,-3.837265968322754,12.38392448425293,-7.686202049255371,4.318341255187988,5.2925028800964355,14.43883991241455,-2.157627582550049,-1.9677077531814575,-20.09611701965332,-1.217724084854126,-19.627609252929688,1.3648171424865723,-5.603009223937988,17.961048126220703,-8.633811950683594,7.000203609466553,-13.343600273132324,-0.7458534240722656,15.809167861938477,3.78981876373291,1.8217198848724365,12.217391967773438,-16.195053100585938,1.4746873378753662,3.121778726577759,17.949649810791016,9.646425247192383,14.453377723693848,12.628311157226562,11.926817893981934,6.603827476501465,-4.599968433380127,-10.033332824707031,-9.557158470153809,-9.586832046508789,2.294487953186035,-18.624202728271484,-11.505783081054688,5.670064449310303,13.391969680786133,-6.511983871459961,13.851890563964844,-12.211531639099121,4.859224796295166,-1.9353331327438354,-7.929643154144287,1.828342318534851,-3.9183387756347656,9.86931324005127,15.791871070861816,-12.875380516052246,13.083559036254883,-5.71598482131958,-12.737785339355469,8.97769832611084,-6.948567867279053,-14.371129989624023,-6.1030426025390625,-9.764608383178711,6.338711738586426,17.314254760742188,21.6699161529541,7.493807315826416,14.742610931396484,6.693715572357178,16.159921646118164,1.5185003280639648,11.54581069946289,12.37501335144043,12.993632316589355,12.210874557495117,-5.415960311889648,3.790687084197998,-1.0857077836990356,14.863983154296875,-7.850379943847656,4.0322041511535645,-3.439462900161743,-6.365487098693848,-0.09928546845912933,4.18181848526001,6.159592628479004,-8.202031135559082,-2.805007219314575,16.055665969848633,-7.768087863922119,3.2627875804901123,-4.587064266204834,-3.391664505004883,-1.1521852016448975,-4.694929599761963,-5.802279472351074,-6.353785991668701,-18.451416015625,3.741684675216675,3.594892978668213,-2.760183334350586,1.4827101230621338,4.000214099884033,-16.58868408203125,-2.4096970558166504,6.548401355743408
2120_2019-01-15_2019-07-12.png,-0.20719535648822784,-14.435111999511719,-10.892193794250488,-1.7522562742233276,-0.47000613808631897,-4.900002956390381,9.12871265411377,14.84081745147705,-3.66758394241333,-1.5475990772247314,19.125202178955078,-4.487962245941162,1.4123727083206177,11.706148147583008,7.564640045166016,-6.767924785614014,8.369935989379883,-2.5382823944091797,-17.261213302612305,10.409890174865723,7.221680164337158,11.51640796661377,-4.793238162994385,-10.581572532653809,6.41451358795166,-17.63912582397461,-4.6281304359436035,11.278593063354492,-8.318148612976074,2.9654617309570312,6.365719795227051,16.74188804626465,-3.762162208557129,-1.1082836389541626,-18.80956268310547,-0.7998065948486328,-21.646265029907227,1.0852150917053223,-2.8650102615356445,19.370832443237305,-7.397368907928467,7.14370059967041,-13.366528511047363,-1.1973804235458374,16.665695190429688,4.8933210372924805,3.605327844619751,11.331037521362305,-16.644569396972656,0.44728145003318787,2.9291155338287354,19.997386932373047,8.462264060974121,13.14366626739502,13.562507629394531,10.302689552307129,4.975791931152344,-4.114633083343506,-10.099786758422852,-13.141924858093262,-10.88838005065918,3.982389450073242,-19.186695098876953,-10.845298767089844,4.631365776062012,13.722683906555176,-7.0389814376831055,15.527267456054688,-10.096049308776855,4.523003578186035,0.13918860256671906,-5.019052028656006,2.303422689437866,-4.308912754058838,9.358196258544922,15.823163032531738,-13.2237548828125,14.331429481506348,-6.328099727630615,-12.99313735961914,8.792236328125,-5.909908771514893,-15.60481071472168,-7.017975807189941,-7.714324951171875,6.606568336486816,18.46774673461914,22.53005027770996,7.8401103019714355,17.339040756225586,4.773582458496094,16.935117721557617,2.3702638149261475,10.14809799194336,13.625120162963867,12.37186050415039,13.937952041625977,-6.916407585144043,2.4921257495880127,-1.3782886266708374,13.058988571166992,-7.123900890350342,5.1514410972595215,-4.746000289916992,-7.044076919555664,-1.4054348468780518,2.502129077911377,7.374929904937744,-10.269840240478516,-3.45124888420105,15.918292999267578,-7.130684852600098,5.5643134117126465,-3.9772284030914307,-4.5262274742126465,-2.3257570266723633,-4.3167500495910645,-5.861753940582275,-5.709754467010498,-19.467456817626953,5.127174377441406,1.4565894603729248,-3.8013458251953125,0.5306446552276611,4.340508937835693,-15.780997276306152,-1.4269144535064697,7.90769624710083
2120_2018-03-22_2018-09-18.png,0.2690578103065491,-16.876131057739258,-11.371004104614258,-3.6815102100372314,0.06450136005878448,-6.323038578033447,11.22473430633545,17.168169021606445,-4.188559055328369,-0.6311375498771667,21.490278244018555,-4.8963236808776855,0.2564443349838257,12.762144088745117,8.51745319366455,-7.270942211151123,9.021220207214355,-4.31704044342041,-19.4996280670166,11.978581428527832,6.9259185791015625,12.088103294372559,-4.973511219024658,-10.65754222869873,5.732489585876465,-18.98413848876953,-3.3838376998901367,13.091529846191406,-9.719016075134277,3.060506820678711,6.488565444946289,18.316213607788086,-4.668952465057373,-1.8499866724014282,-21.726016998291016,-0.7278074026107788,-23.043804168701172,1.9479925632476807,-3.734755516052246,21.461284637451172,-8.94157886505127,7.195981979370117,-13.458710670471191,-2.0943098068237305,19.040475845336914,4.859652519226074,1.5978367328643799,13.850720405578613,-18.144777297973633,1.927739143371582,4.165294647216797,20.667951583862305,9.743061065673828,14.273638725280762,15.30169677734375,11.864209175109863,7.190325736999512,-5.905182361602783,-11.581737518310547,-12.980460166931152,-11.482261657714844,4.018803596496582,-21.399639129638672,-12.713216781616211,6.2579345703125,16.155614852905273,-8.226401329040527,16.56583595275879,-11.997164726257324,4.170099258422852,-0.975680410861969,-7.439582347869873,3.0693681240081787,-4.420376300811768,11.873451232910156,17.57081413269043,-14.487526893615723,15.548544883728027,-6.314864635467529,-14.766621589660645,10.016327857971191,-6.5189528465271,-17.46169090270996,-8.14510440826416,-8.682719230651855,6.724327087402344,20.70852279663086,25.43288230895996,8.584562301635742,18.469261169433594,6.463509559631348,18.519309997558594,1.7300212383270264,11.980039596557617,15.536087036132812,14.851934432983398,15.408618927001953,-7.369065284729004,2.8073270320892334,-2.0631556510925293,15.644715309143066,-7.852893829345703,5.204098224639893,-4.104464530944824,-7.017033576965332,-0.06536541879177094,3.891465187072754,8.539536476135254,-10.89542293548584,-2.2711594104766846,18.033451080322266,-8.426506042480469,3.8671882152557373,-4.314542293548584,-4.514882564544678,-1.3335750102996826,-5.116443157196045,-7.306744575500488,-7.169126987457275,-21.45489501953125,6.329716682434082,2.1668219566345215,-3.454162359237671,0.3977440893650055,4.959788799285889,-18.007795333862305,-2.5619802474975586,8.50519847869873
2120_2018-01-24_2018-07-23.png,-1.5701614618301392,-15.561675071716309,-11.417044639587402,-3.509786367416382,-0.22652724385261536,-5.8039231300354,11.317414283752441,16.407657623291016,-3.744065761566162,-0.9618469476699829,20.7384033203125,-4.868852138519287,1.9599014520645142,13.563015937805176,8.009153366088867,-7.104356288909912,9.132561683654785,-4.946461200714111,-20.245452880859375,11.273548126220703,7.590385437011719,12.270913124084473,-6.251543998718262,-12.636098861694336,6.770135879516602,-18.29775047302246,-3.0722644329071045,14.052621841430664,-9.679383277893066,3.6389853954315186,5.315579891204834,17.57671356201172,-4.363038063049316,-1.6251850128173828,-20.85960578918457,-1.9469939470291138,-22.582691192626953,2.844060182571411,-4.753184795379639,20.75410270690918,-8.319643020629883,7.806027412414551,-14.141077995300293,-1.8446685075759888,18.614835739135742,5.55311393737793,2.77679181098938,13.864635467529297,-17.520936965942383,0.6219953894615173,4.420128345489502,20.956192016601562,9.817818641662598,14.779871940612793,16.474321365356445,11.832847595214844,6.715494155883789,-6.330625534057617,-11.617677688598633,-12.030373573303223,-11.00854778289795,4.244969844818115,-20.985572814941406,-12.830892562866211,7.098812103271484,16.07257652282715,-7.308969020843506,16.079875946044922,-12.442859649658203,4.1288228034973145,-1.5744144916534424,-7.221105575561523,2.901738405227661,-3.887584924697876,10.632455825805664,16.409055709838867,-14.386334419250488,15.614032745361328,-5.2978315353393555,-14.25371265411377,8.818756103515625,-6.167773723602295,-16.837421417236328,-7.056507110595703,-9.853864669799805,7.253451824188232,20.976688385009766,25.52461051940918,8.355504989624023,17.265119552612305,6.531922817230225,18.14719009399414,0.8753318190574646,12.544548034667969,13.932336807250977,14.088948249816895,14.905982971191406,-7.625696182250977,2.1623520851135254,-2.4398550987243652,15.763537406921387,-7.722805500030518,4.859862327575684,-4.632591247558594,-6.957126140594482,-0.07381709665060043,3.5110433101654053,7.099987506866455,-11.414969444274902,-3.176055431365967,17.34601593017578,-8.278203010559082,4.413199424743652,-4.526040554046631,-4.998552322387695,-2.037992000579834,-6.641199111938477,-7.322646141052246,-5.981638431549072,-21.862157821655273,5.278010845184326,1.8687995672225952,-3.6660656929016113,0.4682926535606384,4.687411785125732,-18.43384552001953,-2.639617681503296,8.158162117004395
2120_2018-10-18_2019-04-16.png,-2.16867733001709,-16.09357261657715,-11.516855239868164,-3.108320713043213,-0.6569361686706543,-5.450941562652588,12.215483665466309,16.89617156982422,-5.677460670471191,0.37008246779441833,21.53486442565918,-4.83875036239624,2.4442856311798096,13.054919242858887,7.980998516082764,-6.42421293258667,9.213133811950684,-4.727390766143799,-20.571205139160156,11.729024887084961,8.475713729858398,12.407126426696777,-6.857876777648926,-13.738088607788086,6.0122857093811035,-19.249767303466797,-3.5052971839904785,13.363822937011719,-9.322991371154785,4.610373497009277,6.301340579986572,17.49500274658203,-2.7705414295196533,-1.1944128274917603,-21.342226028442383,-1.3863919973373413,-23.337228775024414,3.0347211360931396,-3.245378017425537,21.451093673706055,-8.184300422668457,8.99862289428711,-14.870168685913086,-0.7516857385635376,19.01915168762207,6.6451735496521,4.091338634490967,13.344207763671875,-18.030139923095703,0.4632599949836731,4.140367031097412,22.460172653198242,11.467570304870605,15.352744102478027,16.225038528442383,12.002339363098145,6.162121295928955,-6.12910270690918,-11.213833808898926,-12.231369972229004,-11.138128280639648,3.7625842094421387,-21.17746925354004,-13.82811450958252,6.492164134979248,15.290840148925781,-7.432356357574463,15.941316604614258,-13.334946632385254,5.952183723449707,-1.7777348756790161,-5.813969612121582,2.3444478511810303,-5.196054935455322,11.611087799072266,16.433826446533203,-16.229286193847656,14.917356491088867,-6.588739395141602,-14.443836212158203,8.697565078735352,-7.248847961425781,-16.80987548828125,-8.645489692687988,-10.834120750427246,6.173172473907471,20.376068115234375,26.183637619018555,8.40639591217041,18.774951934814453,6.310708999633789,19.15056037902832,2.0910143852233887,12.170982360839844,14.305893898010254,14.586722373962402,15.01034164428711,-7.667585849761963,1.3003109693527222,-1.9520560503005981,14.89423942565918,-8.757987022399902,6.4138946533203125,-5.909249305725098,-6.1081318855285645,-1.137242317199707,3.6621761322021484,6.354124069213867,-10.317996978759766,-3.979217529296875,17.555177688598633,-6.797102451324463,4.6822733879089355,-5.660390377044678,-5.601276397705078,-0.8516871333122253,-6.846828460693359,-7.936244964599609,-6.40407657623291,-22.202749252319336,5.215505599975586,2.990527629852295,-3.1904332637786865,0.5938930511474609,4.781113147735596,-17.99326515197754,-2.4070160388946533,7.9981770515441895
2120_2017-10-12_2018-04-10.png,-0.8069820404052734,-13.570877075195312,-10.387776374816895,-2.790095329284668,-0.39165833592414856,-5.355836868286133,9.597569465637207,14.621204376220703,-3.5475454330444336,-1.1337900161743164,17.837295532226562,-4.965785503387451,2.392794370651245,11.50058364868164,7.818586349487305,-8.05331039428711,9.033974647521973,-3.3589820861816406,-17.212129592895508,10.183748245239258,6.9731903076171875,10.394326210021973,-5.32266092300415,-9.860777854919434,4.854340553283691,-16.28849220275879,-3.72147798538208,11.752401351928711,-8.338245391845703,4.100366592407227,4.862652778625488,14.089471817016602,-2.242501735687256,-1.2835923433303833,-18.832191467285156,-1.42514169216156,-20.082996368408203,1.0522645711898804,-4.289429187774658,18.825668334960938,-7.941042423248291,6.277630805969238,-13.824017524719238,-1.3750592470169067,15.888280868530273,3.882467746734619,2.4486143589019775,11.301776885986328,-15.148699760437012,1.1555736064910889,1.5876646041870117,18.426898956298828,10.091109275817871,14.150959968566895,13.08875846862793,9.972790718078613,5.859659671783447,-4.148587703704834,-10.071174621582031,-10.955674171447754,-9.888696670532227,3.8684816360473633,-18.50826072692871,-10.576871871948242,5.428359031677246,13.360648155212402,-7.178516387939453,12.807284355163574,-11.470305442810059,5.072724342346191,-1.10056734085083,-6.280754566192627,0.5119159817695618,-4.580704689025879,9.325508117675781,13.952672958374023,-12.222012519836426,14.107075691223145,-5.101495265960693,-10.681072235107422,8.22237491607666,-6.0406646728515625,-14.124584197998047,-5.585788726806641,-9.341195106506348,7.4823102951049805,17.029220581054688,21.505218505859375,8.584217071533203,15.890275955200195,5.748888969421387,15.135042190551758,1.1276663541793823,11.209285736083984,12.025179862976074,12.118208885192871,11.782696723937988,-5.164362907409668,2.5039942264556885,-2.475706100463867,13.765902519226074,-6.579460144042969,3.3311269283294678,-4.507957935333252,-7.017424583435059,-0.018282005563378334,4.121580600738525,5.637495040893555,-9.245388984680176,-3.98708438873291,15.0592622756958,-6.901443004608154,5.075761318206787,-3.754080057144165,-3.8194313049316406,-1.4653496742248535,-4.852412700653076,-6.206790447235107,-5.426817417144775,-17.425872802734375,4.465895652770996,1.734525442123413,-3.114670753479004,1.0958623886108398,4.310510158538818,-16.657302856445312,-1.5417158603668213,7.013363361358643
2120_2017-03-01_2017-08-28.png,-0.2134273201227188,-16.277128219604492,-9.965163230895996,-3.4422450065612793,-0.747366726398468,-7.474032402038574,10.938545227050781,15.711248397827148,-5.340165615081787,-0.20628032088279724,19.4893856048584,-5.067162990570068,1.4701262712478638,12.182762145996094,8.337785720825195,-7.725369453430176,10.609877586364746,-4.877370834350586,-18.597261428833008,12.250839233398438,7.942180156707764,10.49959659576416,-5.364245891571045,-9.75147819519043,4.855100154876709,-16.663166046142578,-3.335041046142578,12.121752738952637,-8.950061798095703,5.04373836517334,4.539011478424072,15.971495628356934,-1.8876944780349731,-0.8608894944190979,-21.13866424560547,-0.40320155024528503,-20.826494216918945,3.3521976470947266,-5.476774215698242,20.419912338256836,-10.041159629821777,7.4088358879089355,-14.403419494628906,-1.2486542463302612,17.77470588684082,3.8641412258148193,1.6404204368591309,12.996979713439941,-15.674299240112305,1.8065458536148071,1.985467553138733,18.644872665405273,11.075404167175293,15.486903190612793,13.643683433532715,10.522902488708496,7.153714179992676,-5.888667106628418,-10.663300514221191,-11.110777854919434,-10.426025390625,4.232249736785889,-20.082130432128906,-11.159743309020996,6.82935905456543,15.03270149230957,-7.986624240875244,13.703262329101562,-13.007457733154297,5.903811931610107,-2.9922797679901123,-7.4415283203125,2.3516030311584473,-5.444281578063965,11.372492790222168,15.40434455871582,-13.709589004516602,14.074494361877441,-4.735541820526123,-13.122539520263672,8.824817657470703,-8.744996070861816,-14.736509323120117,-6.189874649047852,-10.814764022827148,6.445230007171631,18.137413024902344,24.216289520263672,10.565208435058594,17.826946258544922,7.984955310821533,15.915151596069336,0.0019388198852539062,11.62118911743164,13.153351783752441,14.14555835723877,12.710173606872559,-5.619266986846924,1.8572486639022827,-3.289505958557129,15.20743465423584,-7.25847053527832,3.2280163764953613,-4.440798282623291,-5.868002891540527,1.4107375144958496,4.511765480041504,6.647214889526367,-10.17244815826416,-2.8586928844451904,17.227975845336914,-7.378190517425537,4.851593494415283,-5.030947208404541,-3.1627674102783203,-0.5099276900291443,-5.71789026260376,-7.138346195220947,-7.3079400062561035,-18.44420051574707,5.666411399841309,3.0091147422790527,-3.79913067817688,0.10974366962909698,4.50659704208374,-17.829578399658203,-2.802150011062622,8.012388229370117
2120_2018-08-03_2019-01-30.png,-0.3104397654533386,-17.297260284423828,-10.525022506713867,-3.776529550552368,-0.42585882544517517,-7.468592643737793,12.29117488861084,17.343595504760742,-5.994271278381348,0.31219151616096497,21.466567993164062,-4.755361080169678,1.5553921461105347,12.445270538330078,8.663808822631836,-7.4751296043396,10.719106674194336,-5.280403137207031,-19.566150665283203,13.58330249786377,8.682875633239746,11.397086143493652,-5.681647777557373,-10.922319412231445,5.347097873687744,-18.906490325927734,-3.414996385574341,12.867134094238281,-9.717195510864258,4.827027320861816,5.2437825202941895,17.555034637451172,-2.7564268112182617,-1.305837631225586,-22.525590896606445,0.2590055763721466,-22.595304489135742,3.40264630317688,-3.8576831817626953,21.99648094177246,-10.335541725158691,8.090737342834473,-14.92935848236084,-1.0358976125717163,18.935049057006836,4.710971832275391,2.4672999382019043,14.189967155456543,-16.995521545410156,1.758426308631897,2.775061845779419,20.665538787841797,12.167862892150879,15.869864463806152,14.682991027832031,11.672059059143066,7.500643730163574,-6.3715105056762695,-10.867103576660156,-12.763031005859375,-10.71326732635498,4.349049091339111,-21.183635711669922,-11.751739501953125,7.13422155380249,15.938516616821289,-8.974833488464355,14.41741943359375,-14.41071891784668,6.527472496032715,-3.1581990718841553,-7.13355827331543,2.538222551345825,-6.331116199493408,12.8154296875,16.739919662475586,-15.280379295349121,14.961533546447754,-5.807894229888916,-14.005887985229492,9.557229995727539,-9.316795349121094,-15.871113777160645,-7.853858947753906,-11.34199047088623,6.334866523742676,19.30790138244629,25.9200496673584,10.8009672164917,19.363168716430664,8.330545425415039,17.436368942260742,0.7313634157180786,12.294102668762207,14.461442947387695,15.699238777160645,14.767170906066895,-6.527241230010986,1.9615315198898315,-3.7018227577209473,15.641292572021484,-8.231465339660645,4.861781597137451,-5.368730545043945,-5.835095405578613,0.963832676410675,4.892640113830566,7.557949066162109,-10.769661903381348,-2.768265962600708,18.460519790649414,-6.911377429962158,4.851229190826416,-5.960245132446289,-3.7275822162628174,-0.049220144748687744,-5.500941753387451,-8.313738822937012,-8.066390991210938,-20.010225296020508,6.229034423828125,3.7018444538116455,-3.6789112091064453,0.21189911663532257,4.981764793395996,-18.749889373779297,-2.6311147212982178,9.100353240966797
2120_2018-05-07_2018-11-02.png,-1.0162076950073242,-16.047842025756836,-10.50365161895752,-2.758460283279419,0.10816648602485657,-5.6393585205078125,11.345081329345703,15.758435249328613,-5.292385578155518,-0.2727523446083069,20.63804817199707,-4.46029806137085,3.180532455444336,11.365361213684082,5.930769443511963,-5.920429229736328,8.99818229675293,-4.6976318359375,-19.08496856689453,11.56135082244873,8.193198204040527,11.182539939880371,-6.281559467315674,-12.160232543945312,5.404833793640137,-17.42005157470703,-3.0105817317962646,12.424066543579102,-8.76865291595459,4.4897541999816895,6.8356475830078125,17.165918350219727,-3.212693452835083,-0.441424697637558,-20.271862030029297,0.3775210976600647,-22.074987411499023,3.7612268924713135,-3.286550760269165,21.147109985351562,-7.796835422515869,8.35377025604248,-12.951695442199707,-1.7444514036178589,17.745471954345703,6.114887714385986,3.6547048091888428,13.303741455078125,-16.985088348388672,0.6627383828163147,4.924704074859619,21.90438461303711,9.709894180297852,14.256715774536133,15.610398292541504,11.644221305847168,5.505468845367432,-6.454975605010986,-10.751349449157715,-12.640297889709473,-10.779851913452148,3.681224822998047,-20.36723518371582,-12.582425117492676,6.22871208190918,14.858452796936035,-7.49030876159668,15.468692779541016,-12.835104942321777,5.071906566619873,-2.594317674636841,-5.365488529205322,2.645552158355713,-4.2995405197143555,11.870156288146973,15.216397285461426,-16.135433197021484,14.869964599609375,-6.436944007873535,-14.395560264587402,7.659503936767578,-7.22899866104126,-16.44277000427246,-8.313279151916504,-10.635636329650879,5.988729000091553,19.69526481628418,25.34623146057129,8.028559684753418,19.258840560913086,6.693528175354004,17.3115177154541,1.3709067106246948,11.469353675842285,13.038665771484375,14.34681224822998,14.168116569519043,-8.34039306640625,1.1890531778335571,-2.7214372158050537,14.00125789642334,-8.486265182495117,6.096583366394043,-5.592868328094482,-6.096545696258545,-1.0728811025619507,2.4848952293395996,7.447788238525391,-9.871925354003906,-3.51528000831604,17.16603660583496,-6.625037670135498,4.817973613739014,-5.5847368240356445,-4.3913187980651855,-1.0657132863998413,-5.959173202514648,-7.297807216644287,-7.1821794509887695,-21.224924087524414,5.365251541137695,2.7356326580047607,-3.5700249671936035,0.43134477734565735,3.979877233505249,-17.16678237915039,-3.512103796005249,8.217198371887207
2120_2016-11-25_2017-05-24.png,-0.3830353617668152,-14.740503311157227,-9.795402526855469,-2.6935291290283203,0.02828642725944519,-5.415282249450684,10.465679168701172,14.53142261505127,-3.752073287963867,-1.1568164825439453,19.849956512451172,-4.3366379737854,1.896461844444275,11.530475616455078,6.550366401672363,-5.9033427238464355,8.5342435836792,-4.248614311218262,-18.60551643371582,10.88823413848877,7.026978969573975,10.800477027893066,-6.159550189971924,-10.900288581848145,5.84846305847168,-16.57358169555664,-2.935324192047119,11.543970108032227,-8.825138092041016,4.5081963539123535,5.264553070068359,16.207653045654297,-3.6556100845336914,-1.137837529182434,-19.389202117919922,0.15587201714515686,-20.677696228027344,3.080024480819702,-2.4587550163269043,19.41890525817871,-8.07127857208252,6.743459224700928,-12.916666984558105,-2.3285632133483887,16.52011489868164,5.401043891906738,3.1284940242767334,12.527158737182617,-15.796664237976074,0.3377388119697571,4.090141296386719,20.079252243041992,8.887238502502441,13.5484037399292,14.743106842041016,10.47080135345459,6.0529046058654785,-5.996847629547119,-10.473627090454102,-11.71473503112793,-10.194438934326172,4.787842273712158,-19.114490509033203,-11.394165992736816,6.626856327056885,14.107224464416504,-6.970388412475586,14.740537643432617,-11.266260147094727,4.473323345184326,-2.0967018604278564,-5.666384220123291,1.9720051288604736,-3.591689109802246,10.535128593444824,14.46959114074707,-13.976053237915039,14.344785690307617,-5.3698410987854,-12.855104446411133,8.007872581481934,-6.961297035217285,-15.295951843261719,-7.800503730773926,-9.588847160339355,6.661029815673828,18.188640594482422,23.81185531616211,8.254617691040039,17.870975494384766,6.425366401672363,15.827569961547852,0.6928822994232178,10.946483612060547,12.270654678344727,13.327418327331543,13.085322380065918,-6.735634803771973,1.7179936170578003,-2.6579976081848145,13.852035522460938,-6.924461841583252,4.235036849975586,-5.308526039123535,-6.14747428894043,-0.6603783369064331,2.9462149143218994,6.627445220947266,-9.627856254577637,-3.1422011852264404,15.670437812805176,-5.7749738693237305,4.7027201652526855,-4.770144462585449,-3.8326196670532227,-1.7614927291870117,-5.738711833953857,-6.831557750701904,-6.391235828399658,-19.666643142700195,5.861162185668945,1.9128397703170776,-3.968601942062378,0.5465821027755737,4.070957660675049,-17.043367385864258,-2.845493793487549,8.103079795837402
2120_2019-03-08_2019-09-04.png,-0.41117551922798157,-17.21005630493164,-10.28010368347168,-3.488858461380005,-0.23360832035541534,-5.745151042938232,12.47619342803955,16.599021911621094,-5.32600736618042,0.38018256425857544,21.360868453979492,-5.057234764099121,2.3709943294525146,11.895418167114258,6.211996555328369,-5.925627708435059,9.49821662902832,-4.844584941864014,-19.44585609436035,11.406534194946289,8.141630172729492,11.120590209960938,-5.882771015167236,-11.946676254272461,5.863475322723389,-18.089183807373047,-2.880136013031006,12.7093505859375,-9.117684364318848,4.147549629211426,6.5672125816345215,17.145538330078125,-3.2919178009033203,-0.6828523874282837,-21.19190788269043,0.3545286953449249,-21.645578384399414,3.3983631134033203,-3.585808038711548,21.136795043945312,-9.110339164733887,8.528829574584961,-13.39134693145752,-1.5908504724502563,18.279142379760742,6.24446964263916,3.9880175590515137,13.993485450744629,-17.603551864624023,0.9935473799705505,4.690044403076172,21.706199645996094,9.601811408996582,14.485557556152344,15.571486473083496,12.062895774841309,6.498498916625977,-6.964698791503906,-11.041154861450195,-12.604732513427734,-11.203669548034668,3.7600247859954834,-20.70497703552246,-12.73360538482666,7.201436996459961,15.520925521850586,-7.08568000793457,15.722504615783691,-13.35617446899414,5.492982387542725,-3.3171966075897217,-6.239695072174072,2.3211517333984375,-3.5693328380584717,12.252739906311035,16.332618713378906,-16.188020706176758,14.381175994873047,-7.004093170166016,-15.272970199584961,9.003055572509766,-7.493525505065918,-16.646198272705078,-8.021943092346191,-10.565898895263672,6.291970729827881,20.025611877441406,26.079179763793945,8.018248558044434,18.37757682800293,7.540022850036621,18.281856536865234,1.3460474014282227,11.670306205749512,13.79073715209961,15.210521697998047,14.434011459350586,-8.39216423034668,2.307330369949341,-1.7857235670089722,15.015183448791504,-9.1176118850708,5.616992950439453,-5.397367000579834,-5.740335941314697,-0.0902356430888176,3.038248062133789,7.102703094482422,-10.065816879272461,-2.8705601692199707,17.40570640563965,-6.620901107788086,3.8334009647369385,-5.3610382080078125,-3.57175350189209,-1.0087968111038208,-6.4388322830200195,-7.9566240310668945,-7.65665864944458,-21.791162490844727,5.522869110107422,3.606417417526245,-2.891667604446411,0.06695482134819031,3.9026615619659424,-17.10835075378418,-4.1628737449646,8.373781204223633
2120_2018-09-19_2019-03-18.png,-0.7288020253181458,-16.826610565185547,-12.044878005981445,-2.965970993041992,-0.361065536737442,-6.187160968780518,11.927774429321289,17.678041458129883,-5.077275276184082,-0.6625716090202332,22.225282669067383,-4.637844562530518,1.3508838415145874,13.557777404785156,9.358729362487793,-7.8219075202941895,9.59391975402832,-4.133824348449707,-19.383636474609375,13.09467601776123,8.388806343078613,13.329319953918457,-5.624359607696533,-12.155200958251953,5.808711528778076,-21.176433563232422,-4.565431118011475,13.194263458251953,-9.85893726348877,3.445167064666748,6.579178810119629,18.835866928100586,-4.089473724365234,-1.7433295249938965,-21.95266342163086,-0.43847498297691345,-24.588844299316406,0.902423083782196,-1.7716351747512817,22.188657760620117,-9.323291778564453,8.02651596069336,-15.872142791748047,-1.367130160331726,19.27781105041504,5.328803062438965,3.461411714553833,13.760758399963379,-18.08917999267578,1.8577518463134766,2.704914093017578,22.903257369995117,11.06058120727539,15.113222122192383,15.058759689331055,11.935004234313965,6.752284049987793,-4.947410583496094,-11.287226676940918,-14.877927780151367,-11.630502700805664,4.207505702972412,-21.92367935180664,-12.473451614379883,5.652073860168457,16.084449768066406,-9.348043441772461,15.782530784606934,-13.463375091552734,6.5256452560424805,-0.28200533986091614,-5.949575901031494,2.029041290283203,-5.991241931915283,11.646918296813965,17.678041458129883,-15.54992961883545,16.122209548950195,-7.2342071533203125,-14.44751262664795,10.250271797180176,-7.898653984069824,-17.552404403686523,-7.725941181182861,-9.661652565002441,7.43600606918335,20.721101760864258,25.691219329833984,9.921802520751953,19.67337417602539,6.173460960388184,19.186655044555664,3.1184778213500977,12.136414527893066,15.445103645324707,14.942094802856445,16.077821731567383,-6.899165630340576,2.290541172027588,-2.3794946670532227,14.668655395507812,-8.206072807312012,6.176441669464111,-5.9762444496154785,-6.755494594573975,-1.1306709051132202,4.313925743103027,8.010115623474121,-10.915579795837402,-3.5379278659820557,18.347469329833984,-6.949756622314453,5.914461612701416,-5.666134834289551,-4.650383949279785,-1.3080573081970215,-4.83816385269165,-7.843348979949951,-6.705618858337402,-20.88823890686035,6.334428787231445,2.4433388710021973,-3.583730459213257,0.6057272553443909,5.440955638885498,-18.57209587097168,-1.3426024913787842,9.510513305664062
2120_2017-07-24_2018-01-19.png,-0.10828255861997604,-15.374361038208008,-10.402573585510254,-2.7524685859680176,-0.3428778350353241,-5.250458717346191,10.725181579589844,15.33571720123291,-4.3659987449646,-0.3794455826282501,18.512039184570312,-5.441121578216553,0.8476172685623169,11.635507583618164,7.47758674621582,-8.264551162719727,9.797133445739746,-3.8965694904327393,-18.104482650756836,10.553756713867188,6.8271002769470215,10.01772403717041,-5.1029229164123535,-9.166099548339844,4.712075710296631,-16.03883934020996,-3.249136447906494,12.402626037597656,-8.152896881103516,4.633512496948242,4.923285484313965,14.799713134765625,-2.5128173828125,-1.9790040254592896,-20.379051208496094,-1.4423261880874634,-20.096704483032227,2.139585256576538,-5.769545078277588,18.865501403808594,-9.1043119430542,6.295475482940674,-13.69725513458252,-1.3508440256118774,16.102033615112305,3.677931785583496,1.7776448726654053,12.30210018157959,-15.887005805969238,1.626861333847046,2.7204978466033936,18.0809268951416,9.972363471984863,14.063138008117676,12.780963897705078,11.99401569366455,6.861873626708984,-4.88468599319458,-10.48978042602539,-10.099977493286133,-9.67680549621582,3.027798652648926,-19.019142150878906,-11.510292053222656,6.238245487213135,13.915017127990723,-7.1069817543029785,13.684675216674805,-12.406411170959473,5.130762577056885,-2.2315609455108643,-8.202435493469238,1.4138550758361816,-3.916895866394043,10.175139427185059,15.327710151672363,-12.471356391906738,13.75041675567627,-4.978526592254639,-12.729726791381836,8.82525634765625,-7.361746311187744,-14.438762664794922,-5.296757698059082,-10.203391075134277,7.040472030639648,17.64105224609375,21.990070343017578,8.20948314666748,14.899002075195312,7.0310378074646,15.91429328918457,0.9246793985366821,11.964334487915039,12.254627227783203,13.322229385375977,12.297088623046875,-5.229830741882324,3.711530923843384,-1.8611847162246704,15.14123821258545,-7.563746452331543,3.6048171520233154,-3.6303322315216064,-6.8908843994140625,0.23639990389347076,4.560498237609863,6.2595319747924805,-8.858329772949219,-2.6405508518218994,16.136600494384766,-7.883545875549316,3.6798255443573,-4.522624492645264,-3.1185359954833984,-1.114682912826538,-4.777856349945068,-6.117092132568359,-6.736255168914795,-18.11825180053711,4.03787088394165,3.2379746437072754,-3.3601579666137695,1.2705202102661133,4.119961738586426,-17.331262588500977,-2.5735344886779785,7.377020835876465
2120_2017-06-23_2017-12-20.png,-1.3322590589523315,-15.666040420532227,-9.679420471191406,-2.6991629600524902,-0.6100250482559204,-4.851292133331299,10.68826675415039,16.557283401489258,-5.798076629638672,0.7287930250167847,19.49285125732422,-5.041593074798584,1.6277579069137573,11.891036987304688,7.409876823425293,-6.918534755706787,9.695849418640137,-4.0205888748168945,-18.524534225463867,11.204229354858398,8.245240211486816,10.620955467224121,-5.839541912078857,-11.610077857971191,5.58895206451416,-17.403491973876953,-3.8177032470703125,12.111715316772461,-8.769947052001953,4.811659812927246,5.873850345611572,15.545293807983398,-1.8775787353515625,-0.8355184197425842,-20.422563552856445,-0.11755859851837158,-20.79914093017578,2.536364793777466,-3.436998128890991,19.209564208984375,-8.596360206604004,8.755544662475586,-14.38803768157959,-0.15801136195659637,16.695777893066406,5.220026969909668,3.2411444187164307,12.644078254699707,-16.92017936706543,0.2682298719882965,3.1896846294403076,20.311952590942383,10.1677827835083,14.657673835754395,13.883468627929688,11.18420124053955,5.720870018005371,-5.381408214569092,-9.992733001708984,-10.659029960632324,-10.213640213012695,3.024442195892334,-19.115190505981445,-11.846512794494629,5.848710536956787,13.838232040405273,-6.163986682891846,14.342881202697754,-12.776369094848633,5.8876566886901855,-2.3384482860565186,-6.251559734344482,2.241560220718384,-4.645376205444336,10.829879760742188,16.099031448364258,-15.244893074035645,13.210003852844238,-6.6556830406188965,-13.060281753540039,8.897379875183105,-7.302411079406738,-15.006584167480469,-8.042228698730469,-10.19786548614502,5.7858076095581055,18.041545867919922,23.93720054626465,8.117749214172363,17.776533126831055,6.5816497802734375,17.344009399414062,2.173398017883301,10.898923873901367,13.005264282226562,13.682204246520996,13.092072486877441,-6.787450790405273,2.5223166942596436,-0.9056263566017151,13.838113784790039,-8.25778865814209,5.414944171905518,-4.679172039031982,-5.4709978103637695,-0.9760903120040894,3.280740261077881,6.206045627593994,-8.326040267944336,-3.3760488033294678,16.669885635375977,-6.367325782775879,4.604560375213623,-5.783370494842529,-4.415222644805908,-0.8789366483688354,-5.2812628746032715,-7.3059186935424805,-6.508656978607178,-20.168312072753906,4.516321182250977,3.7424440383911133,-2.4977877140045166,0.09780657291412354,4.441137790679932,-16.44173240661621,-2.685969352722168,7.149289608001709
2120_2017-08-10_2018-02-06.png,-0.042995743453502655,-14.697715759277344,-9.427925109863281,-3.010237455368042,-0.416220098733902,-6.4868597984313965,10.113971710205078,13.872056007385254,-4.252598285675049,-0.6984050869941711,18.022268295288086,-4.765309810638428,2.5712168216705322,11.30189323425293,6.872148513793945,-7.001183032989502,9.699427604675293,-4.043996334075928,-17.656972885131836,10.855223655700684,7.522745609283447,9.92309856414795,-5.703977108001709,-9.279627799987793,4.800627708435059,-14.910239219665527,-2.9218573570251465,11.338970184326172,-8.557888984680176,4.803894996643066,3.942598819732666,14.635086059570312,-2.204038143157959,-0.6850981116294861,-19.2584228515625,-0.5663674473762512,-19.355697631835938,3.539047956466675,-5.187551975250244,19.019912719726562,-9.242066383361816,6.281941890716553,-13.169386863708496,-1.570517659187317,15.867454528808594,4.0050787925720215,1.942047357559204,11.846264839172363,-14.535969734191895,0.8588272929191589,2.2520229816436768,18.1488094329834,9.94097900390625,14.46435832977295,13.36666488647461,10.005587577819824,5.9354095458984375,-5.236840724945068,-10.474037170410156,-10.543803215026855,-9.718385696411133,4.31712007522583,-18.466571807861328,-10.062729835510254,6.3874897956848145,13.633209228515625,-6.93391227722168,12.591297149658203,-11.950275421142578,5.382414817810059,-2.606449842453003,-6.65856409072876,1.7082439661026,-4.468952178955078,10.012380599975586,13.997992515563965,-12.561371803283691,13.52081298828125,-4.059442043304443,-12.05789852142334,7.584208965301514,-7.21992826461792,-13.865018844604492,-5.54682731628418,-10.257332801818848,7.078545570373535,17.27719497680664,22.240184783935547,9.205689430236816,16.488550186157227,7.240116119384766,14.921218872070312,-0.25000178813934326,11.01910400390625,11.74328327178955,12.863924980163574,11.618725776672363,-5.620748519897461,2.30757212638855,-2.9812850952148438,14.128031730651855,-6.693955421447754,2.9226644039154053,-4.328061103820801,-5.907990455627441,0.88712477684021,4.0540266036987305,6.29049015045166,-9.864151954650879,-3.2293317317962646,15.650739669799805,-6.9769206047058105,4.83760404586792,-4.277277946472168,-3.202962875366211,-1.3020846843719482,-5.676939487457275,-6.15620756149292,-6.780731678009033,-17.554075241088867,5.3543243408203125,2.366239547729492,-3.4569149017333984,0.13721401989459991,4.205422878265381,-16.68055534362793,-2.8031296730041504,7.5608811378479
2120_2017-04-21_2017-10-18.png,-1.1788579225540161,-15.904603958129883,-11.024243354797363,-3.1545867919921875,-1.1363846063613892,-6.08364725112915,10.978055953979492,17.462167739868164,-5.241581916809082,-0.27867162227630615,20.892045974731445,-5.024838924407959,0.6467390060424805,13.231199264526367,9.893712997436523,-8.370952606201172,9.786837577819824,-4.2220354080200195,-18.585947036743164,12.832084655761719,7.976381778717041,12.767712593078613,-5.1595845222473145,-11.042628288269043,5.572410583496094,-19.875925064086914,-5.539545059204102,12.215385437011719,-9.057891845703125,3.5913963317871094,6.050796031951904,17.5236759185791,-2.681461811065674,-1.1137944459915161,-21.483898162841797,-0.024934839457273483,-22.937559127807617,0.4236752390861511,-2.2291345596313477,20.47548484802246,-9.388764381408691,7.929930210113525,-15.704628944396973,-0.6937369108200073,18.22335433959961,4.489020824432373,2.6250593662261963,13.012443542480469,-16.95215606689453,1.9856007099151611,2.1134860515594482,20.498220443725586,11.384060859680176,15.411747932434082,14.227149963378906,10.922301292419434,6.985560417175293,-4.305846691131592,-9.99312973022461,-13.32229995727539,-10.690248489379883,4.113998889923096,-20.668222427368164,-11.593437194824219,5.62871789932251,15.48709487915039,-8.637008666992188,14.63545036315918,-12.266469955444336,6.138767719268799,-0.7904452681541443,-6.589704990386963,2.318599224090576,-6.270537376403809,10.89472484588623,17.18536949157715,-14.532212257385254,14.955461502075195,-6.906006336212158,-13.210075378417969,10.188170433044434,-8.152886390686035,-15.477689743041992,-8.371648788452148,-10.296095848083496,6.256482124328613,18.933059692382812,24.326784133911133,9.903043746948242,19.062732696533203,5.950058937072754,17.831249237060547,2.3050005435943604,11.573698043823242,15.552679061889648,14.253326416015625,14.79399299621582,-5.360596656799316,2.36149525642395,-2.0583086013793945,14.287836074829102,-7.53151798248291,4.844971179962158,-5.227550506591797,-6.525933265686035,-0.0844334214925766,4.540877342224121,7.350449085235596,-9.64445972442627,-2.9015581607818604,17.611135482788086,-6.758448600769043,5.65207052230835,-5.417552471160889,-4.127455234527588,-0.9483152031898499,-4.398362636566162,-7.534058570861816,-6.872725009918213,-19.23805046081543,6.109882354736328,2.3405520915985107,-3.2945497035980225,0.731258749961853,6.0150370597839355,-17.926733016967773,-0.43156492710113525,7.982902526855469
2120_2018-10-24_2019-04-22.png,-2.032214879989624,-16.363994598388672,-11.317514419555664,-3.232185125350952,-0.5405796766281128,-5.4876933097839355,12.14395523071289,16.891733169555664,-5.459035873413086,0.32216116786003113,21.408540725708008,-4.995361328125,2.5018818378448486,12.955769538879395,7.875833988189697,-6.388942241668701,9.074969291687012,-4.914413928985596,-20.41260528564453,11.720736503601074,8.279548645019531,11.961014747619629,-6.695408344268799,-13.502086639404297,5.87945556640625,-18.655651092529297,-3.252565383911133,13.328627586364746,-9.279424667358398,4.659337520599365,6.058004856109619,17.16326904296875,-2.756054162979126,-1.085801124572754,-21.315942764282227,-1.3003976345062256,-22.969181060791016,3.169083833694458,-3.5956435203552246,21.34410285949707,-8.212602615356445,8.771178245544434,-14.339936256408691,-1.020678997039795,18.881736755371094,6.422022819519043,3.8562397956848145,13.43244743347168,-17.862977981567383,0.45201003551483154,4.366907119750977,22.173776626586914,11.276151657104492,15.27069091796875,16.232412338256836,12.020339965820312,6.329054832458496,-6.276167869567871,-11.319289207458496,-11.88885498046875,-10.938170433044434,3.820605993270874,-21.061031341552734,-13.67554759979248,6.762025833129883,15.422952651977539,-7.268771171569824,15.783929824829102,-13.280782699584961,5.678831100463867,-2.199820041656494,-6.094230651855469,2.360698699951172,-4.929571151733398,11.704079627990723,16.360618591308594,-16.12765884399414,14.7509183883667,-6.432396411895752,-14.400386810302734,8.513692855834961,-7.109835147857666,-16.760534286499023,-8.570331573486328,-10.864286422729492,6.269814491271973,20.16852378845215,26.12356185913086,8.521007537841797,18.5405330657959,6.651054382324219,18.76237678527832,1.6729203462600708,12.147974014282227,14.113297462463379,14.55562973022461,14.714314460754395,-7.700718879699707,1.4854352474212646,-2.0017504692077637,15.071297645568848,-8.701391220092773,6.092464923858643,-5.456942081451416,-6.118428707122803,-0.7900114059448242,3.54463529586792,6.470851898193359,-10.237399101257324,-3.608060121536255,17.353439331054688,-7.009057998657227,4.4339399337768555,-5.475595474243164,-5.466629981994629,-0.6890310049057007,-6.840147495269775,-7.836900234222412,-6.388192653656006,-22.179357528686523,5.094476222991943,2.9299395084381104,-3.216946601867676,0.49835267663002014,4.639855861663818,-17.827112197875977,-2.7842485904693604,8.021180152893066
2120_2018-10-03_2019-04-01.png,-1.3686119318008423,-16.355745315551758,-11.939024925231934,-3.0168776512145996,-0.41453275084495544,-5.4548845291137695,11.933598518371582,17.632692337036133,-5.241201877593994,-0.2705819010734558,22.130645751953125,-5.32334566116333,1.602655053138733,13.748241424560547,9.285569190979004,-7.4094929695129395,9.367388725280762,-4.166624546051025,-20.17890167236328,12.65715503692627,8.742669105529785,13.480237007141113,-6.176670551300049,-13.4947509765625,6.169846057891846,-20.997478485107422,-4.495428085327148,13.398250579833984,-9.515235900878906,4.219659328460693,6.601555347442627,18.256916046142578,-3.8210647106170654,-1.9822031259536743,-21.877464294433594,-1.1926332712173462,-24.43592071533203,1.340253233909607,-1.795977234840393,21.55080223083496,-8.573427200317383,8.273507118225098,-16.17401695251465,-0.7120097279548645,19.41767692565918,6.183765411376953,4.257462978363037,13.471785545349121,-18.20366668701172,0.9955008625984192,2.851289987564087,22.666790008544922,11.140666961669922,14.924814224243164,15.587244987487793,12.18018627166748,6.539635181427002,-4.834664344787598,-11.277695655822754,-14.018556594848633,-11.59916877746582,4.381220817565918,-21.768070220947266,-13.516993522644043,6.227473258972168,15.951683044433594,-8.49673843383789,16.102144241333008,-13.41804027557373,6.589090347290039,-0.26225414872169495,-5.806368350982666,1.5847347974777222,-5.786252498626709,11.186385154724121,17.22755241394043,-15.701074600219727,15.967645645141602,-7.286219596862793,-14.48526382446289,9.931392669677734,-7.670943260192871,-17.22618865966797,-7.865753650665283,-10.136558532714844,7.085944175720215,20.642234802246094,25.700786590576172,9.199190139770508,19.224288940429688,5.835963249206543,19.494346618652344,3.235368013381958,12.48440170288086,15.071769714355469,14.761148452758789,15.81534194946289,-6.804024696350098,2.192093849182129,-2.040527105331421,14.71066665649414,-8.078306198120117,6.303391456604004,-6.2835869789123535,-7.1203155517578125,-1.7023355960845947,4.053567409515381,6.8992018699646,-10.47838306427002,-3.917929172515869,17.802820205688477,-6.444797039031982,5.62827205657959,-5.621387958526611,-5.1922760009765625,-1.5709701776504517,-5.8105573654174805,-8.158498764038086,-6.131229877471924,-21.709421157836914,5.904167175292969,2.501152992248535,-3.342475652694702,1.199914574623108,5.515160083770752,-18.467342376708984,-1.3122704029083252,8.774042129516602
2120_2017-04-14_2017-10-11.png,-0.5733375549316406,-16.51671600341797,-10.589071273803711,-3.4608089923858643,-1.1019176244735718,-6.6514458656311035,11.081939697265625,17.530912399291992,-5.592414855957031,0.06972845643758774,21.163427352905273,-4.9884209632873535,0.3937196731567383,12.929322242736816,9.827250480651855,-8.142061233520508,10.049653053283691,-4.332768440246582,-18.604585647583008,13.391411781311035,8.018972396850586,12.205086708068848,-5.071406841278076,-10.475054740905762,5.634589195251465,-19.627586364746094,-5.296004295349121,11.99388313293457,-9.443708419799805,3.881648063659668,5.6063008308410645,17.753183364868164,-2.493157386779785,-1.1103876829147339,-21.77521514892578,0.5034096837043762,-22.759544372558594,0.8022201657295227,-2.4144725799560547,20.559053421020508,-10.234176635742188,7.900964260101318,-15.532608985900879,-0.3818494379520416,18.436275482177734,4.353405475616455,2.3609790802001953,13.29659366607666,-16.952646255493164,2.213716506958008,1.919947862625122,19.968053817749023,11.558734893798828,15.668747901916504,13.822410583496094,11.108967781066895,7.432483196258545,-5.126495838165283,-10.075952529907227,-13.26520824432373,-10.844802856445312,4.194812774658203,-20.939952850341797,-11.527122497558594,5.991545677185059,15.56999683380127,-8.889886856079102,14.737399101257324,-12.684599876403809,6.3666253089904785,-1.4701825380325317,-6.603430271148682,2.63382887840271,-6.471497535705566,11.404090881347656,17.451889038085938,-14.92000675201416,14.678625106811523,-6.857138156890869,-13.427624702453613,10.447175979614258,-8.772383689880371,-15.51773452758789,-8.190670013427734,-10.141440391540527,6.052274703979492,18.590862274169922,24.739559173583984,10.40507698059082,19.13457489013672,6.827180862426758,17.593360900878906,1.8729432821273804,11.43907356262207,15.649454116821289,14.683944702148438,14.900436401367188,-5.31595516204834,2.3893845081329346,-2.2806921005249023,14.593117713928223,-7.781749248504639,4.600955963134766,-4.931282043457031,-5.920884132385254,0.44416698813438416,4.880290985107422,7.747751235961914,-9.798807144165039,-2.629981279373169,18.12762451171875,-6.63132381439209,5.463439464569092,-6.059420585632324,-3.7972512245178223,-0.5375404357910156,-4.368612766265869,-7.5794148445129395,-7.763201713562012,-19.032390594482422,6.454401969909668,3.0459346771240234,-3.3774709701538086,0.34213170409202576,5.978879451751709,-18.172607421875,-0.8116720914840698,8.608771324157715
2120_2017-02-27_2017-08-25.png,-0.04839157313108444,-16.183935165405273,-9.985188484191895,-3.4874861240386963,-0.753462553024292,-7.519318103790283,10.921858787536621,15.626218795776367,-5.344452857971191,-0.2939305603504181,19.271087646484375,-5.182158946990967,1.4138575792312622,12.111865043640137,8.253210067749023,-7.786949634552002,10.655035972595215,-4.94980525970459,-18.488882064819336,12.219832420349121,7.791153430938721,10.292855262756348,-5.342514514923096,-9.574101448059082,4.697801113128662,-16.429365158081055,-3.2755136489868164,12.05609130859375,-8.785951614379883,5.162613868713379,4.266931056976318,15.705150604248047,-1.6992759704589844,-0.8397713303565979,-21.02436065673828,-0.5391219258308411,-20.609952926635742,3.3101890087127686,-5.621841907501221,20.379011154174805,-9.961135864257812,7.26908540725708,-14.245684623718262,-1.1442662477493286,17.712081909179688,3.7447195053100586,1.3897645473480225,12.95361042022705,-15.47208309173584,1.922281265258789,1.883732557296753,18.16554832458496,11.167098045349121,15.620244026184082,13.651544570922852,10.479935646057129,7.354979991912842,-5.852549076080322,-10.601539611816406,-10.971368789672852,-10.408958435058594,4.206483840942383,-20.047142028808594,-11.185405731201172,6.995623588562012,15.09315013885498,-8.058253288269043,13.626604080200195,-13.020598411560059,5.7227396965026855,-3.01991868019104,-7.695946216583252,2.240260601043701,-5.4104413986206055,11.330312728881836,15.256357192993164,-13.458954811096191,14.071983337402344,-4.411452293395996,-12.92220687866211,8.61526870727539,-8.721404075622559,-14.696231842041016,-6.039920806884766,-10.63871955871582,6.402046203613281,17.95166015625,24.002649307250977,10.598565101623535,17.765342712402344,7.955657958984375,15.618972778320312,-0.17734013497829437,11.724140167236328,13.0211820602417,14.077911376953125,12.50854206085205,-5.302156448364258,1.837715744972229,-3.334437370300293,15.203728675842285,-7.063698768615723,3.0492236614227295,-4.3687286376953125,-5.813050270080566,1.4886219501495361,4.720820426940918,6.514527797698975,-10.026494979858398,-2.7690069675445557,17.05313491821289,-7.3995890617370605,4.784011363983154,-5.052131175994873,-3.0437397956848145,-0.5203979015350342,-5.7092156410217285,-7.073921203613281,-7.39635705947876,-18.252628326416016,5.71148681640625,2.930851936340332,-3.801316738128662,0.21293337643146515,4.4539923667907715,-17.92702865600586,-2.7188143730163574,7.964145660400391
2120_2017-06-16_2017-12-13.png,-1.2621370553970337,-15.009754180908203,-9.71127986907959,-2.5792713165283203,-0.5910818576812744,-4.893084526062012,10.49269962310791,15.83420181274414,-5.612727165222168,0.19576460123062134,18.969728469848633,-4.962266445159912,2.5327670574188232,11.875068664550781,7.0032854080200195,-6.59729528427124,9.292832374572754,-3.713326930999756,-18.071168899536133,10.76118278503418,8.172463417053223,10.643752098083496,-6.196465015411377,-11.766610145568848,5.591675758361816,-17.021596908569336,-3.878934860229492,11.74300765991211,-8.33133602142334,4.714682579040527,5.70547342300415,15.354674339294434,-1.6685237884521484,-0.5040491223335266,-19.6474666595459,-0.12264500558376312,-20.501615524291992,2.6491634845733643,-3.1877827644348145,19.18829917907715,-8.280652046203613,8.340109825134277,-14.273955345153809,-0.1423831433057785,16.40895652770996,5.0701189041137695,3.746196985244751,12.119339942932129,-16.27509307861328,0.048802781850099564,2.4357750415802,20.302785873413086,10.41658878326416,14.308737754821777,13.828445434570312,10.75774097442627,5.186722755432129,-4.8752875328063965,-9.879295349121094,-11.147518157958984,-10.42641830444336,3.3685877323150635,-18.7596378326416,-11.532201766967773,5.758058547973633,13.70194149017334,-6.34529447555542,13.65540599822998,-12.363173484802246,6.335622310638428,-2.053953170776367,-5.515537738800049,1.8135722875595093,-4.729689598083496,10.308982849121094,15.157724380493164,-14.767369270324707,13.549017906188965,-6.293025493621826,-12.580605506896973,8.2305908203125,-7.3890886306762695,-14.646366119384766,-7.3455705642700195,-10.019265174865723,5.919192314147949,17.55599594116211,23.528005599975586,8.37354564666748,17.997873306274414,6.320849895477295,16.832948684692383,2.098857879638672,10.803766250610352,12.353200912475586,13.129535675048828,12.835762023925781,-6.664119720458984,2.003126382827759,-1.3027955293655396,13.18266773223877,-8.067204475402832,5.1557297706604,-5.393594264984131,-5.596827507019043,-1.076186180114746,3.1779978275299072,5.650132179260254,-8.516803741455078,-3.7996127605438232,16.20748519897461,-5.999608993530273,5.376533031463623,-5.680004596710205,-4.325527667999268,-1.1660311222076416,-5.523224353790283,-6.97584867477417,-6.293440341949463,-19.42757225036621,4.79917049407959,3.2084898948669434,-2.661414384841919,-0.008247237652540207,4.006328105926514,-16.212806701660156,-2.663142681121826,7.5980377197265625
2120_2018-03-05_2018-08-30.png,0.4366190433502197,-17.366432189941406,-10.596002578735352,-3.5830249786376953,0.30090442299842834,-6.864221572875977,11.423787117004395,16.462919235229492,-4.295351028442383,-0.3924216330051422,21.36031150817871,-4.886312961578369,1.1053160429000854,12.008695602416992,7.5364990234375,-6.351379871368408,9.409502983093262,-4.425406455993652,-18.90165138244629,12.072977066040039,7.255280494689941,11.59398365020752,-4.6584038734436035,-10.29660701751709,6.591660499572754,-18.380001068115234,-3.5054683685302734,12.370973587036133,-9.820260047912598,2.9213905334472656,6.4653096199035645,18.572080612182617,-4.561202049255371,-0.8042100071907043,-21.181127548217773,0.16348186135292053,-22.287128448486328,2.756730794906616,-3.202719211578369,21.20022964477539,-9.721094131469727,7.456447601318359,-13.349034309387207,-2.062399387359619,18.547014236450195,5.143392562866211,2.8334720134735107,13.62228775024414,-17.876720428466797,1.6209957599639893,4.108422756195068,21.00933265686035,8.957783699035645,13.85466480255127,14.885414123535156,12.038422584533691,6.842615604400635,-6.426571369171143,-11.35464096069336,-14.041730880737305,-11.533838272094727,4.161620140075684,-21.236167907714844,-12.100613594055176,6.683004856109619,15.912691116333008,-7.861122131347656,16.68451499938965,-11.928720474243164,4.477344989776611,-1.749395489692688,-6.316422939300537,3.3872973918914795,-3.958218812942505,12.103769302368164,17.621198654174805,-15.042200088500977,14.860896110534668,-6.659936428070068,-15.596752166748047,9.955233573913574,-7.103394031524658,-17.150217056274414,-7.913552284240723,-8.505581855773926,6.804191589355469,20.34429168701172,25.64979362487793,8.57655143737793,18.113407135009766,6.935876846313477,18.58966064453125,1.1872395277023315,11.126302719116211,15.460033416748047,14.968461036682129,15.395970344543457,-8.056625366210938,3.219825029373169,-1.8251653909683228,15.063972473144531,-8.53581428527832,5.252419948577881,-4.479955673217773,-6.395839691162109,0.26954546570777893,3.300325632095337,9.020293235778809,-11.4474515914917,-1.764412522315979,18.134511947631836,-7.659817218780518,3.9640743732452393,-4.768952369689941,-3.90273380279541,-1.7266675233840942,-5.1346917152404785,-7.235647201538086,-8.30006217956543,-21.112783432006836,6.803396224975586,2.626225709915161,-3.3783648014068604,-0.3103119432926178,5.119784832000732,-17.4267578125,-3.205306053161621,9.329333305358887
2120_2017-12-22_2018-06-20.png,-0.5561286211013794,-16.207054138183594,-11.260485649108887,-3.4583988189697266,0.06893140822649002,-5.68065881729126,11.521084785461426,17.64363670349121,-4.114375591278076,-0.7724249362945557,21.145248413085938,-5.257720470428467,0.7064896821975708,13.28878402709961,8.760217666625977,-7.586113452911377,9.3107328414917,-4.044394016265869,-19.592458724975586,11.732418060302734,7.4011993408203125,12.466509819030762,-5.433713436126709,-12.079339981079102,6.772096157073975,-19.815902709960938,-3.9359679222106934,13.522682189941406,-9.680655479431152,3.453378677368164,6.312279224395752,18.022314071655273,-4.353250980377197,-1.8275564908981323,-21.546037673950195,-0.9251208305358887,-23.103818893432617,1.2005642652511597,-2.440304756164551,20.958271026611328,-8.875266075134277,7.25390625,-14.879277229309082,-0.9377456903457642,18.615947723388672,4.9111223220825195,3.456392526626587,13.916382789611816,-18.41572380065918,1.085249900817871,3.0174973011016846,21.244848251342773,9.859461784362793,14.406926155090332,15.269979476928711,12.345379829406738,6.998703956604004,-5.356445789337158,-10.973377227783203,-13.681340217590332,-11.325227737426758,4.402534008026123,-20.952852249145508,-12.769356727600098,6.672155857086182,16.18628692626953,-8.12359619140625,16.14422035217285,-12.661073684692383,4.76541805267334,-0.5685492157936096,-6.593730449676514,2.1733734607696533,-4.224244594573975,11.168874740600586,17.61418914794922,-14.582321166992188,15.559354782104492,-6.653183460235596,-14.605480194091797,10.320099830627441,-6.889686584472656,-17.196218490600586,-7.460898399353027,-8.683104515075684,7.075677871704102,20.547666549682617,25.550199508666992,8.42043685913086,17.721084594726562,5.8740949630737305,18.951358795166016,2.5304250717163086,12.002399444580078,14.94656753540039,14.418888092041016,15.462250709533691,-7.279144287109375,3.491321086883545,-1.6924177408218384,14.930058479309082,-8.011770248413086,5.385715007781982,-5.206109046936035,-7.152616500854492,-0.7455335855484009,3.933894157409668,7.419785022735596,-10.49804973602295,-2.5003511905670166,17.51538848876953,-7.556728363037109,4.493123531341553,-4.9337263107299805,-4.393126487731934,-2.0854108333587646,-5.158046245574951,-7.686648368835449,-6.838070869445801,-21.255413055419922,6.0028228759765625,2.562605619430542,-2.948448657989502,0.33115842938423157,4.97632360458374,-17.927988052368164,-1.9671999216079712,8.788745880126953
