filepath,CCAE_0,CCAE_1,CCAE_2,CCAE_3,CCAE_4,CCAE_5,CCAE_6,CCAE_7,CCAE_8,CCAE_9,CCAE_10,CCAE_11,CCAE_12,CCAE_13,CCAE_14,CCAE_15,CCAE_16,CCAE_17,CCAE_18,CCAE_19,CCAE_20,CCAE_21,CCAE_22,CCAE_23,CCAE_24,CCAE_25,CCAE_26,CCAE_27,CCAE_28,CCAE_29,CCAE_30,CCAE_31
2120_2018-05-01_2018-10-25.png,-1.0848846435546875,-3.8810906410217285,-0.514503002166748,3.577637195587158,0.29761412739753723,-0.12111503630876541,-4.939213275909424,0.08512315899133682,-2.9325225353240967,-2.5983152389526367,-3.2789130210876465,1.4436880350112915,2.845700979232788,0.7988439798355103,4.4233174324035645,-1.155776858329773,3.282249927520752,-1.4818110466003418,2.650571823120117,-5.647707939147949,-0.489152729511261,-3.406205177307129,5.993498802185059,-2.5943024158477783,-5.562838554382324,-0.3781547248363495,1.184233546257019,-3.7925832271575928,1.430878758430481,-1.783543586730957,0.8295681476593018,-3.326719045639038
2120_2017-07-26_2018-01-22.png,0.5097754597663879,-2.2959635257720947,-4.946016311645508,2.409409523010254,-2.0927414894104004,-2.104759454727173,5.139629364013672,0.21931569278240204,-4.431830883026123,0.5779836773872375,1.3040189743041992,-4.215364933013916,2.341245651245117,-3.842597246170044,-8.21667194366455,-2.506448268890381,-8.169779777526855,-1.7100805044174194,2.493540048599243,1.9506924152374268,2.1261441707611084,-1.3783575296401978,-5.449130058288574,3.0781025886535645,2.4765677452087402,2.54577898979187,-0.10252349823713303,-0.05015791580080986,1.3223166465759277,5.302336692810059,3.610971450805664,7.081349849700928
2120_2019-02-12_2019-08-08.png,-2.069101333618164,0.5005926489830017,-3.9953887462615967,-0.5862089991569519,-3.173478603363037,-4.608843803405762,-3.060675859451294,1.3979463577270508,-7.524289608001709,0.6164593696594238,-1.156719446182251,-2.9994394779205322,-3.9458236694335938,-0.7190729379653931,4.228269577026367,-1.2678821086883545,1.849379062652588,2.8820273876190186,0.033527348190546036,-5.474428176879883,-5.757732391357422,-2.2080044746398926,5.497899532318115,-3.1207785606384277,-3.578320264816284,-0.2447691112756729,2.128586769104004,0.3318917453289032,-1.9738267660140991,-4.3063740730285645,-2.861624240875244,-3.651548147201538
2120_2017-06-09_2017-12-06.png,-0.21435418725013733,-3.404041290283203,-2.350011110305786,-0.7395381927490234,2.286951780319214,3.472410202026367,1.092704176902771,-0.9763338565826416,5.270740032196045,-1.1071956157684326,-2.0508625507354736,4.841735363006592,0.5893355011940002,-2.347989797592163,2.276304244995117,5.183529376983643,-3.865750789642334,-4.021106719970703,5.784665584564209,6.06512451171875,-4.6619873046875,-1.559349775314331,-10.721356391906738,-3.06573224067688,6.551429748535156,-5.7469892501831055,5.5610809326171875,1.1804810762405396,1.5458812713623047,6.67807674407959,-3.2435262203216553,6.027980804443359
2120_2016-11-14_2017-05-11.png,0.06748146563768387,-1.0286319255828857,0.9378432035446167,3.0806689262390137,4.560596466064453,1.2359731197357178,-1.8720065355300903,-1.3862535953521729,3.479698896408081,-2.3967061042785645,1.0406643152236938,-7.177422523498535,-3.0378081798553467,3.7448694705963135,4.999835014343262,-1.5471688508987427,-0.6854190826416016,-2.2209064960479736,-0.461592435836792,-7.094802379608154,-1.9882102012634277,0.2338298112154007,6.61992883682251,1.0930712223052979,8.637384414672852,-3.959934949874878,-2.3736014366149902,-1.8633168935775757,0.9476435780525208,3.595055103302002,-4.438032627105713,-2.3357160091400146
2120_2019-03-25_2019-09-20.png,1.6120749711990356,-0.46411046385765076,-2.2015163898468018,2.019503116607666,1.8265190124511719,-0.7460318207740784,4.81684684753418,1.8916691541671753,-2.0919859409332275,7.367088794708252,1.1242084503173828,3.46968674659729,-2.2375526428222656,-4.198624610900879,-0.07007329165935516,1.1423637866973877,3.172414541244507,5.264876365661621,-0.9222270250320435,1.946567416191101,1.2894634008407593,2.8323352336883545,3.5139288902282715,4.495810031890869,0.36485618352890015,-2.801914930343628,1.3509771823883057,2.8116419315338135,1.103836178779602,-1.8924368619918823,-3.8554165363311768,-1.2905559539794922
2120_2016-11-21_2017-05-19.png,-1.7287551164627075,0.05125868692994118,1.9349217414855957,0.07898619771003723,3.999178409576416,1.6208422183990479,0.44178640842437744,1.4934422969818115,4.761610984802246,-1.547798752784729,-1.0384210348129272,-5.683044910430908,-4.543431282043457,0.1272093802690506,4.784235954284668,-7.092021942138672,-1.2072614431381226,-3.5709950923919678,1.9175498485565186,-8.045388221740723,-4.539107322692871,2.5689616203308105,1.5010828971862793,1.6011563539505005,6.975117206573486,-1.6324273347854614,-2.981085777282715,2.107785940170288,1.9083048105239868,0.8281695246696472,-3.011406660079956,0.8686513304710388
2120_2017-06-29_2017-12-26.png,6.0026350021362305,5.428603172302246,0.11900616437196732,4.693620204925537,0.6741747260093689,1.3495103120803833,-2.149393320083618,6.6265130043029785,-4.644000053405762,2.850313186645508,-6.9130449295043945,-1.4215439558029175,-0.68141108751297,3.7657201290130615,3.8121273517608643,-1.2777706384658813,-5.904509544372559,-0.2352452576160431,0.4327816963195801,6.1119561195373535,2.555945634841919,-2.4512736797332764,-0.7483479380607605,-1.5990777015686035,6.295289516448975,3.26175594329834,1.846512794494629,1.421645998954773,-0.3366541862487793,-3.81577467918396,-0.246611550450325,4.3795671463012695
2120_2018-07-25_2019-01-21.png,1.649466872215271,6.1488213539123535,3.727764129638672,-2.111660957336426,3.3044497966766357,-0.36298245191574097,4.578947067260742,0.541560173034668,3.1137962341308594,-3.9204695224761963,0.40102168917655945,6.41727352142334,1.6508827209472656,-5.010018348693848,-3.662714719772339,3.1252245903015137,-3.5791561603546143,-0.6119921207427979,-2.071002244949341,2.034228801727295,-0.872812032699585,-2.7830355167388916,-0.8217545747756958,1.0899738073349,9.531810760498047,2.559884548187256,-0.10158936679363251,-3.5758931636810303,-1.5586298704147339,-3.367830753326416,3.979494333267212,2.919328451156616
2120_2017-10-23_2018-04-19.png,3.0214684009552,2.949429988861084,-2.05010724067688,-6.310004234313965,5.342696189880371,5.578033924102783,-0.21004417538642883,-3.0767929553985596,-3.692833662033081,1.3934239149093628,1.9996161460876465,-0.2724023163318634,0.14501835405826569,-1.4204083681106567,-4.21518087387085,-3.1471688747406006,-0.6444088816642761,-5.394855499267578,-0.804228663444519,4.187766075134277,-0.4871721565723419,3.6441383361816406,-1.3977264165878296,2.9500720500946045,-3.285951614379883,-2.8880865573883057,-7.916093826293945,-4.692488670349121,0.03594622388482094,1.054782748222351,-0.7738971710205078,5.436139106750488
2120_2017-07-28_2018-01-24.png,1.4611300230026245,-2.296311140060425,-6.680041313171387,2.39544677734375,-2.8401570320129395,-0.2638736069202423,5.549651145935059,1.9577049016952515,-4.933208465576172,-0.2356056571006775,2.508575916290283,-4.526610374450684,2.0847408771514893,-3.7791037559509277,-7.666141986846924,-1.4327725172042847,-5.869582653045654,0.5024461150169373,2.0137531757354736,2.240513801574707,1.645241379737854,-1.2047710418701172,-5.417661190032959,4.430442810058594,3.906766176223755,4.261096000671387,-1.2777198553085327,0.3651278018951416,1.4662859439849854,5.309409141540527,4.209418773651123,7.157565116882324
2120_2017-12-04_2018-05-31.png,-7.2326555252075195,6.2103986740112305,3.1663641929626465,-1.2004817724227905,-4.364537715911865,4.3276777267456055,-0.5272698402404785,1.9336669445037842,4.386693000793457,-3.59798002243042,0.40888240933418274,0.9691528677940369,-2.186285972595215,5.005603790283203,3.794950246810913,0.9365604519844055,-1.270349144935608,0.8004476428031921,-2.714717149734497,-0.021058712154626846,3.9702346324920654,-0.6960148215293884,-5.052928447723389,3.8279294967651367,-5.693302631378174,-5.51257848739624,7.150972843170166,-4.637196063995361,2.448427200317383,5.397363662719727,-5.296146392822266,-0.14978742599487305
2120_2017-05-12_2017-11-08.png,-6.835932731628418,4.076864242553711,-1.7576770782470703,-2.8999693393707275,-4.872823238372803,-4.20458459854126,1.2826957702636719,3.868682622909546,-5.914142608642578,0.7885391712188721,1.5543849468231201,8.708229064941406,0.5753761529922485,-0.49442651867866516,-0.6400272250175476,5.939683437347412,-6.277749061584473,-7.5445942878723145,6.294252872467041,2.9287538528442383,0.8197528719902039,-0.19543471932411194,-2.4615652561187744,-2.6266045570373535,4.083456516265869,4.725160598754883,-9.979872703552246,-0.7839926481246948,-0.8952425718307495,7.819485664367676,1.3603401184082031,6.468425273895264
2120_2017-08-07_2018-02-01.png,5.873766899108887,1.5080186128616333,-8.810251235961914,1.7842531204223633,-5.24782133102417,4.50739860534668,3.9789297580718994,4.664527416229248,-1.9165043830871582,-1.6295033693313599,3.512859582901001,0.2524765431880951,2.496213436126709,-3.9784021377563477,-5.6086859703063965,1.2518571615219116,-1.3134537935256958,1.4622435569763184,0.44631990790367126,4.444355010986328,-1.6482250690460205,3.130566120147705,-2.3791391849517822,4.163760662078857,7.732681751251221,1.4241352081298828,-4.0451836585998535,-1.514912724494934,1.1513407230377197,2.1893510818481445,2.846796751022339,4.945334434509277
2120_2017-10-18_2018-04-16.png,1.5431588888168335,4.447102069854736,0.6332582831382751,-3.854782819747925,4.2971673011779785,5.767766952514648,0.4882016181945801,-1.620832085609436,-5.472533226013184,2.438291549682617,3.6367874145507812,0.23715901374816895,2.4977126121520996,-1.4202755689620972,-3.223745822906494,-2.272801160812378,1.6027826070785522,-3.7813737392425537,1.3175510168075562,2.031057357788086,0.08184508234262466,3.897026300430298,-2.252485990524292,1.8646979331970215,-0.8333034515380859,-6.372406482696533,-6.437045574188232,-3.5902700424194336,-1.5428202152252197,-0.9839251637458801,2.0642220973968506,7.8152337074279785
2120_2017-10-05_2018-04-03.png,2.0546600818634033,2.167001485824585,4.8804121017456055,0.49533581733703613,-2.7459516525268555,-3.986107587814331,-2.108334541320801,2.001596450805664,-7.585817813873291,1.3129987716674805,3.879854202270508,-0.09606266766786575,-0.48915910720825195,1.4400371313095093,-2.6871304512023926,-3.750192642211914,2.84556245803833,2.6364986896514893,-0.39211368560791016,-1.8966388702392578,-1.1789984703063965,1.2582554817199707,-6.352296352386475,3.5709519386291504,7.652027606964111,-3.26863169670105,1.8370473384857178,-2.328481674194336,-0.07448351383209229,-0.666006863117218,5.700681686401367,9.357489585876465
2120_2017-08-03_2018-01-30.png,3.889000177383423,0.27956244349479675,-9.13812255859375,2.7976632118225098,-5.093513488769531,2.8094770908355713,4.130190849304199,4.649892807006836,-3.599836826324463,-1.8460227251052856,3.723397731781006,-1.7034822702407837,2.81546688079834,-3.416440963745117,-6.374820232391357,1.1002717018127441,-2.01153302192688,1.3068172931671143,1.0679610967636108,3.466160297393799,-1.6487644910812378,2.4174680709838867,-3.382359504699707,5.603020191192627,7.297306537628174,2.9418399333953857,-3.847691535949707,-0.5027941465377808,1.4525141716003418,3.0544986724853516,3.9293417930603027,6.69452428817749
2120_2016-11-21_2017-05-18.png,-1.3637899160385132,-0.5648272037506104,2.1358819007873535,0.6899017095565796,4.4457502365112305,1.4338228702545166,0.4679870009422302,0.684328019618988,4.529654026031494,-1.5959138870239258,-0.860064685344696,-5.633395671844482,-4.556088447570801,0.5200449228286743,4.6790056228637695,-7.302223205566406,-0.20733125507831573,-3.5522844791412354,1.962049961090088,-7.765355587005615,-4.703166484832764,2.3670997619628906,2.3076207637786865,0.8900057673454285,6.891616344451904,-1.662338376045227,-3.155886173248291,1.5777709484100342,2.4457101821899414,1.0330696105957031,-2.9884555339813232,0.3000706434249878
2120_2017-03-21_2017-09-15.png,-2.282620668411255,2.91044545173645,4.85310173034668,-5.5204033851623535,0.8005660176277161,-1.108376145362854,8.068653106689453,1.44716477394104,5.061861991882324,1.6028680801391602,-0.4339441657066345,1.502516746520996,0.6359682679176331,-2.17073130607605,-0.3591216206550598,0.9951741695404053,-0.9182658791542053,0.7074971795082092,3.5723555088043213,3.3011863231658936,-0.9448913335800171,-2.8444008827209473,-2.9435219764709473,-7.344852447509766,3.6562821865081787,0.3743024468421936,-0.23124314844608307,2.830594062805176,5.4526896476745605,5.834460735321045,9.092137336730957,2.869840621948242
2120_2019-02-12_2019-08-09.png,-1.7377941608428955,0.4307638108730316,-4.0749711990356445,-0.5078241229057312,-3.383118152618408,-4.849402904510498,-3.1524817943573,1.858646273612976,-7.9858222007751465,1.0771501064300537,-2.184229850769043,-3.203496217727661,-3.669534206390381,-0.35438475012779236,3.755336284637451,-1.5494356155395508,2.1067616939544678,2.8933463096618652,0.08529692888259888,-6.275974750518799,-6.4760050773620605,-1.9879695177078247,5.353723526000977,-3.6989567279815674,-3.476689100265503,-0.43052980303764343,2.025332450866699,0.4802525043487549,-1.9907333850860596,-4.352566719055176,-2.664536952972412,-3.434115409851074
2120_2018-03-23_2018-09-19.png,-2.9257378578186035,-5.037027359008789,-3.4043619632720947,2.876710891723633,4.186308860778809,1.0380676984786987,-1.2684431076049805,1.657647728919983,-1.3804011344909668,-2.0704221725463867,-5.495763301849365,-0.9064359664916992,1.968690276145935,5.2420783042907715,0.19751112163066864,3.195525646209717,1.9375734329223633,0.6422271132469177,-7.613525390625,-5.158767223358154,-1.4885118007659912,-0.383835107088089,3.474137306213379,-1.042555570602417,-1.6983524560928345,-0.7569119930267334,-4.732860088348389,-5.11451530456543,-1.3313848972320557,3.2066023349761963,1.6035367250442505,-5.779729843139648
2120_2017-08-14_2018-02-07.png,7.912299633026123,3.2552313804626465,-6.307985305786133,-0.4090167284011841,-5.102249622344971,5.718356132507324,0.9744914770126343,-0.07076318562030792,2.912224054336548,-1.613338828086853,2.2293245792388916,4.832851409912109,2.326167106628418,-2.591055393218994,-6.340081691741943,0.3535718619823456,-0.639202356338501,-0.3448825478553772,-0.0055665187537670135,3.8950681686401367,-0.8851512670516968,4.094493389129639,-1.5362516641616821,0.8988906145095825,8.648601531982422,-1.503779411315918,-1.7880443334579468,-3.1770124435424805,0.5595514178276062,-0.12845036387443542,1.3943434953689575,1.3552054166793823
2120_2018-01-09_2018-07-06.png,-4.451508522033691,3.584143877029419,-3.9874303340911865,0.6377996802330017,-3.1951491832733154,-1.9125771522521973,2.284688711166382,-0.6440901160240173,-1.666487216949463,-8.351873397827148,3.736546754837036,-1.1835933923721313,-5.73235559463501,0.8254971504211426,8.762228012084961,-3.931919813156128,-2.3368232250213623,2.360028028488159,-5.754936218261719,1.3422523736953735,-2.4806501865386963,-1.2557518482208252,1.5353190898895264,1.1298929452896118,-0.3158749043941498,-3.034224271774292,-0.22442810237407684,3.640683174133301,-1.4600361585617065,0.3566514849662781,-0.2810802757740021,-2.4166839122772217
2120_2016-07-21_2017-01-16.png,-2.703467607498169,-3.353874921798706,-2.0961496829986572,-3.505704402923584,3.5351767539978027,-1.055193543434143,-2.363013744354248,2.515205144882202,-1.2668169736862183,-7.87507963180542,-2.4219393730163574,-1.924896478652954,-1.2815173864364624,3.091256618499756,-2.2711215019226074,0.4437435567378998,7.2378387451171875,-0.40784403681755066,2.902919054031372,-1.0541975498199463,5.1324992179870605,-3.6802353858947754,-1.386382818222046,-2.273747682571411,-0.47379326820373535,-1.153934359550476,-0.3832232356071472,2.496849298477173,2.656385898590088,-5.838260173797607,-0.952995777130127,-3.4910662174224854
2120_2018-12-19_2019-06-17.png,-2.7147281169891357,-0.7050617337226868,0.9911581873893738,2.067326068878174,2.9897444248199463,-1.6040819883346558,0.3074761927127838,2.0446321964263916,3.7885329723358154,-0.6480157971382141,-1.7747448682785034,1.6067311763763428,0.4797554910182953,4.221920490264893,-2.271900177001953,3.528247356414795,5.2029643058776855,1.4269402027130127,-3.8839352130889893,-5.941349506378174,-1.8766356706619263,0.00040584549424238503,0.6498047709465027,0.18080151081085205,-1.6997270584106445,-0.6167121529579163,-2.3767759799957275,-1.501713752746582,-2.891899347305298,4.508472919464111,1.7167059183120728,-11.499573707580566
2120_2016-09-05_2017-03-02.png,2.203249454498291,-1.5663682222366333,0.4847588539123535,0.21526488661766052,-3.23117733001709,4.243028163909912,-3.891533613204956,-2.891937494277954,0.869660496711731,-0.7615578174591064,0.9251773953437805,-3.1097583770751953,-1.5209405422210693,-1.8152073621749878,0.7947770953178406,-1.6232457160949707,0.08412136882543564,-5.619246482849121,1.1028207540512085,-1.5812387466430664,-0.6393997073173523,4.710245609283447,3.4580588340759277,-2.9037535190582275,1.9580885171890259,-3.304358720779419,-2.592740297317505,2.2851881980895996,0.793282151222229,5.992337226867676,-6.7209391593933105,-7.540169715881348
2120_2016-08-15_2017-02-09.png,3.426098585128784,-0.6158710718154907,3.0159342288970947,3.084602117538452,1.8184324502944946,-2.6486363410949707,1.5634973049163818,-0.8248847723007202,-1.211995005607605,-0.17362332344055176,0.46884748339653015,-6.826262474060059,4.174198150634766,2.4557321071624756,0.11413690447807312,-1.7817072868347168,-2.0144119262695312,-4.52986478805542,4.601512908935547,-3.56355357170105,-0.41946709156036377,-4.389976501464844,0.14059196412563324,-2.189911127090454,-8.931856155395508,2.645233631134033,-0.4716348648071289,-1.5821747779846191,-1.2874997854232788,5.219839572906494,-1.3402316570281982,-2.7232768535614014
2120_2017-06-21_2017-12-18.png,2.3233656883239746,4.752295970916748,-1.9297451972961426,1.6807613372802734,-1.2244319915771484,3.8265321254730225,-2.288851499557495,2.614922285079956,-1.8239002227783203,4.428813934326172,-4.476189136505127,-0.04541933536529541,-3.188506841659546,2.2010765075683594,1.106391429901123,-4.270766735076904,-4.756226062774658,0.03591988608241081,2.0092105865478516,3.798257827758789,-0.26058799028396606,-6.21235466003418,0.8853148221969604,-2.6562421321868896,3.7890634536743164,2.2208611965179443,2.606795072555542,2.717210292816162,1.7704501152038574,1.2378507852554321,0.06322827935218811,2.9547877311706543
2120_2017-08-04_2018-01-31.png,5.103150844573975,0.7340466380119324,-9.372780799865723,2.5222063064575195,-5.5019121170043945,3.7723686695098877,4.057381629943848,4.740689754486084,-2.681997537612915,-2.2144086360931396,3.788947820663452,-0.7445292472839355,2.6598637104034424,-3.708984136581421,-6.071503639221191,1.8033497333526611,-1.6013725996017456,1.6260619163513184,0.5154412984848022,4.016818523406982,-1.5076484680175781,3.0702602863311768,-2.587066650390625,4.7354841232299805,7.662016868591309,2.2925422191619873,-4.023087501525879,-0.7519734501838684,1.3019969463348389,2.8616108894348145,3.72072172164917,5.693812370300293
2120_2016-07-21_2016-12-21.png,-4.1578049659729,1.3798465728759766,0.5615494251251221,-5.226161956787109,-3.7203030586242676,-0.8512139916419983,-3.128267288208008,3.9624040126800537,1.533968448638916,-7.630845546722412,-0.9330111742019653,-6.072265148162842,0.034738291054964066,-0.7523860931396484,-3.8280696868896484,-2.4488232135772705,3.477735996246338,-0.3589288890361786,0.5632579326629639,1.5416113138198853,3.5131049156188965,-0.5339918732643127,1.1992846727371216,-4.723219394683838,1.5647873878479004,3.4129302501678467,-1.3553577661514282,3.584494113922119,-0.9857805371284485,-0.8956432938575745,-1.9741222858428955,-6.589211940765381
2120_2017-03-13_2017-09-08.png,0.06722018867731094,0.13234825432300568,4.9044013023376465,-4.378276824951172,1.187247395515442,-0.2227993905544281,5.896056652069092,-3.656388998031616,7.003317356109619,0.5652973055839539,0.439275860786438,1.113208293914795,1.412264347076416,-2.1218578815460205,0.582349419593811,2.523451566696167,-5.956399440765381,1.1759309768676758,-2.0868165493011475,2.3985540866851807,2.4872305393218994,-2.5139262676239014,-4.218657970428467,-4.41145658493042,7.047767162322998,-0.1932191699743271,-1.5682605504989624,1.876764178276062,6.299808502197266,3.6056556701660156,4.334256649017334,3.507840156555176
2120_2017-12-29_2018-06-27.png,-7.651743412017822,6.828370571136475,-6.588953018188477,0.24368910491466522,-4.726550102233887,-4.417555332183838,0.636338472366333,-2.580883502960205,-0.8293139934539795,-2.7457833290100098,2.4359629154205322,-1.0509501695632935,-5.7819085121154785,-1.5040725469589233,8.849933624267578,-0.8924084901809692,0.24881015717983246,3.720339298248291,-3.049426794052124,1.8669605255126953,-0.9340150356292725,-4.369755744934082,3.335982084274292,0.9201814532279968,1.0766195058822632,-1.2399208545684814,-3.3090462684631348,-0.7809457778930664,-0.4941597878932953,1.4818724393844604,-2.0270729064941406,-1.0395768880844116
2120_2016-09-02_2017-03-01.png,3.0061087608337402,-2.106036424636841,-0.4026634693145752,0.8094544410705566,-2.9672043323516846,4.662794589996338,-3.2225723266601562,-2.806875467300415,0.28655391931533813,-1.0646413564682007,0.8497762084007263,-4.454010486602783,-0.671360433101654,-2.0436604022979736,1.012053370475769,-1.2342464923858643,0.6870437860488892,-5.614690780639648,0.9304078817367554,-1.487596035003662,-0.2188270092010498,4.884758472442627,3.4069583415985107,-1.4879523515701294,1.2590217590332031,-3.942979335784912,-2.698887825012207,2.5877504348754883,0.9755412936210632,6.083559036254883,-6.979452133178711,-7.571069240570068
2120_2016-12-12_2017-06-09.png,5.153919219970703,1.857896327972412,6.127479553222656,1.913885235786438,-5.879927158355713,4.992735862731934,-1.6049187183380127,-2.0932061672210693,7.0500054359436035,1.593825340270996,0.9537495970726013,2.144775390625,-0.7856764197349548,-2.6084578037261963,3.841287612915039,-1.2752710580825806,1.3420588970184326,1.998755931854248,0.5137941837310791,-2.692258596420288,3.868316173553467,1.2199857234954834,0.5957902073860168,7.908217430114746,-6.117237091064453,-2.633918285369873,-1.2744916677474976,7.264104843139648,-2.7305748462677,0.6283413767814636,-0.23334963619709015,-1.183466911315918
2120_2018-07-11_2019-01-07.png,-4.371109485626221,3.109459400177002,-3.1407089233398438,-0.7614974975585938,-1.4366875886917114,1.502553939819336,0.03187527880072594,0.8692185878753662,3.5471084117889404,5.21802282333374,0.021214205771684647,-2.0727972984313965,-1.180331826210022,-7.04433536529541,-7.796674728393555,1.4754124879837036,-2.944600820541382,-1.271842360496521,-4.87677526473999,-1.7108469009399414,1.52901029586792,0.6717674732208252,-0.0105386758223176,0.23217728734016418,1.7303946018218994,2.0812509059906006,0.9440171718597412,-1.097582459449768,1.121053695678711,-2.7793526649475098,5.945180416107178,6.2646355628967285
2120_2019-03-11_2019-09-06.png,1.7225850820541382,1.520654320716858,-2.554492950439453,3.4159340858459473,7.111841678619385,-0.27450627088546753,1.4442532062530518,5.301467418670654,1.109902262687683,2.9559214115142822,5.061464309692383,-1.2109483480453491,-0.22558636963367462,-1.9263466596603394,3.654961585998535,6.337604999542236,-2.909921407699585,2.3072946071624756,2.1315696239471436,0.28490984439849854,0.424233078956604,3.914011001586914,1.1684004068374634,2.2710866928100586,-4.047028064727783,-0.4883681833744049,-0.3556535243988037,0.8481442332267761,4.1610260009765625,-3.8547167778015137,-1.6594308614730835,-0.6969603300094604
2120_2017-02-03_2017-08-02.png,-1.4089832305908203,-3.3171632289886475,1.6905099153518677,0.3549008071422577,-0.1936875879764557,-7.166273593902588,6.939852237701416,-1.498814582824707,2.4930028915405273,7.919674396514893,0.6291706562042236,-0.15943008661270142,2.259510040283203,-2.6638453006744385,-5.718902587890625,-5.356377124786377,-5.90423583984375,2.170362949371338,3.6552741527557373,1.3380101919174194,4.9165730476379395,-6.078388214111328,-1.5762929916381836,2.843130588531494,-0.5933053493499756,-1.8998945951461792,-5.726589679718018,2.982895851135254,3.695119619369507,5.489985942840576,4.258485317230225,-1.8507425785064697
2120_2018-01-26_2018-07-25.png,0.7296149134635925,-3.3291056156158447,2.132722854614258,4.741908550262451,4.700371742248535,-0.41461822390556335,-3.859774351119995,-2.9531924724578857,-1.0444024801254272,-1.9956432580947876,2.026340961456299,1.321844220161438,-5.217690467834473,-3.635944366455078,7.279817581176758,0.15683414041996002,1.3957105875015259,4.236120223999023,0.07524055242538452,2.240402936935425,-2.7889397144317627,-0.5714380145072937,0.02036910504102707,0.7904059290885925,-6.766495227813721,-3.0453288555145264,-4.436336994171143,0.7066856622695923,4.681105613708496,-0.8654826879501343,0.5164608955383301,0.2309039980173111
2120_2018-08-17_2019-02-13.png,-3.6124467849731445,-2.58856463432312,-1.3165013790130615,-6.2596049308776855,-1.1408406496047974,0.39103659987449646,2.378908634185791,-6.665095806121826,0.6766178011894226,-0.6476628184318542,-0.8748599290847778,0.1277887523174286,-3.0340089797973633,2.989828109741211,-5.925863742828369,1.0022679567337036,0.5756303668022156,2.4587435722351074,4.139439582824707,5.074276447296143,-3.37913179397583,1.7928258180618286,-2.8113489151000977,1.4033446311950684,2.0185811519622803,3.727656602859497,2.3063879013061523,-2.827979326248169,-3.8985214233398438,-3.4190611839294434,6.280655384063721,8.023856163024902
2120_2017-04-05_2017-10-02.png,-3.6926393508911133,2.0430221557617188,2.9868383407592773,0.6189683079719543,-7.995827674865723,3.152592182159424,5.532041549682617,-1.616163730621338,-0.08411703258752823,-0.4607905149459839,-10.345484733581543,3.7060046195983887,-2.2989041805267334,0.9966999292373657,-4.045926570892334,1.0617704391479492,1.0236907005310059,4.419607162475586,1.7588064670562744,7.963942527770996,1.4212818145751953,4.035682201385498,-2.2521045207977295,0.6184679269790649,0.4114512801170349,5.303925037384033,-3.689250946044922,-1.5892481803894043,0.24303750693798065,2.176208972930908,4.637750148773193,2.9350075721740723
2120_2017-06-14_2017-12-11.png,0.7461791038513184,-2.7043800354003906,-0.6644611358642578,-3.94688081741333,-1.8440327644348145,2.978567600250244,1.2305970191955566,-2.44743275642395,5.649374961853027,4.251942157745361,-0.4054200053215027,-1.290475606918335,-1.9322422742843628,3.079225778579712,-0.37724196910858154,2.7639875411987305,-5.060844421386719,-2.5677859783172607,5.375833511352539,6.195345878601074,-6.2930588722229,-4.568133354187012,-5.236809253692627,-1.9553929567337036,2.677877187728882,-0.20092178881168365,2.6721527576446533,-0.9267548322677612,-2.4820873737335205,4.026049613952637,-1.6428900957107544,7.031093120574951
2120_2018-05-30_2018-11-26.png,3.000870943069458,1.052804946899414,-1.4030070304870605,-4.55812931060791,2.1020941734313965,-2.066169500350952,1.811652421951294,7.983684539794922,0.23481081426143646,2.3683009147644043,-0.6305163502693176,-3.54923939704895,-2.012965202331543,-3.583568811416626,4.494550704956055,5.277412414550781,-7.443580627441406,3.0727291107177734,2.6351423263549805,-6.208230972290039,0.26748090982437134,0.5385210514068604,0.9304351210594177,1.9055906534194946,-4.772383689880371,-7.395514488220215,-0.26976558566093445,2.599526882171631,0.6807432770729065,-3.067556619644165,-1.454170823097229,-0.5688757300376892
2120_2016-07-21_2017-01-17.png,-2.3077332973480225,-3.5675885677337646,-1.9250251054763794,-3.642151355743408,3.915715217590332,-1.3334912061691284,-2.131282329559326,2.1720893383026123,-1.1411291360855103,-7.928740978240967,-2.358034133911133,-1.610124945640564,-1.5753477811813354,3.2610361576080322,-2.132267713546753,0.4722927212715149,7.168623447418213,-0.6862031817436218,3.2759828567504883,-1.1093710660934448,5.426046848297119,-4.204078674316406,-1.2608680725097656,-2.3900418281555176,-1.0939520597457886,-1.9265975952148438,-0.2670495808124542,2.106534004211426,2.49178147315979,-5.9617085456848145,-1.0832737684249878,-3.2484309673309326
2120_2017-01-19_2017-07-18.png,3.382619857788086,3.624715566635132,0.28661367297172546,1.0956141948699951,3.4375507831573486,-3.7282161712646484,3.924513578414917,0.5077884793281555,1.7653422355651855,3.0764825344085693,-1.9104816913604736,2.299384355545044,2.343888282775879,2.000251054763794,0.27052339911460876,-1.3771308660507202,-6.445667743682861,0.25717097520828247,-0.8324284553527832,-4.148115158081055,5.739469528198242,0.43015924096107483,-1.2104096412658691,-3.086676597595215,0.040445901453495026,-4.144806385040283,-8.01877212524414,-0.699678361415863,0.04718099161982536,-8.922831535339355,1.4593464136123657,1.6298130750656128
2120_2016-07-21_2017-01-13.png,-2.655870199203491,-3.161306142807007,-2.0089261531829834,-3.447352886199951,2.9370059967041016,-0.9711663722991943,-2.657243490219116,2.453167676925659,-0.7335378527641296,-8.142633438110352,-2.443253755569458,-2.659386396408081,-1.4646211862564087,3.2399330139160156,-2.4133524894714355,0.6494193077087402,7.0443267822265625,-0.39372679591178894,2.446760892868042,-1.2601171731948853,4.905539512634277,-3.217571496963501,-1.4564223289489746,-2.75007700920105,-0.21134202182292938,-0.40984711050987244,0.12678952515125275,2.875304698944092,2.103328227996826,-5.497003078460693,-1.127586007118225,-3.6769540309906006
2120_2017-12-28_2018-06-26.png,-7.821045875549316,6.152542591094971,-5.962128162384033,0.8105044960975647,-4.297286033630371,-3.3327038288116455,-0.029428932815790176,-2.272325277328491,-0.32583996653556824,-1.702377200126648,2.5833702087402344,-1.0106115341186523,-5.250338077545166,-0.7337917685508728,7.471541404724121,-1.4868513345718384,0.7440097332000732,3.6570842266082764,-2.6888253688812256,1.8172662258148193,-0.5584509968757629,-5.0316548347473145,3.932461738586426,0.5178439617156982,1.300001621246338,-0.9153696894645691,-3.4186599254608154,-1.725176453590393,0.4218965768814087,1.4147862195968628,-2.1202919483184814,-0.5493609309196472
2120_2018-07-02_2018-12-27.png,-5.309683322906494,3.834792375564575,-2.8215219974517822,2.764814615249634,-4.041362285614014,-0.3179995119571686,-0.49369868636131287,1.7775112390518188,5.712379455566406,7.389599800109863,-0.1599860042333603,-4.5969014167785645,5.475165367126465,-5.979710102081299,-5.589478492736816,-0.7344371676445007,-3.0472922325134277,-2.1755435466766357,-5.32303524017334,0.8016919493675232,-1.4535400867462158,0.10754230618476868,-3.129171848297119,0.4315638244152069,1.8820183277130127,-2.785202741622925,1.1114716529846191,2.471261739730835,2.65021014213562,-1.9060503244400024,3.428765296936035,7.182346820831299
2120_2017-04-10_2017-10-06.png,-2.9189109802246094,1.69020414352417,4.920920372009277,1.1479744911193848,-11.478988647460938,0.7110486030578613,2.765204668045044,-2.45310115814209,0.17493203282356262,-1.5674057006835938,-9.23393726348877,4.388482570648193,-1.2422335147857666,2.68399715423584,-2.2475826740264893,3.320923328399658,0.3671777844429016,2.203408718109131,0.3825584650039673,7.709951400756836,1.4924709796905518,5.996926307678223,-1.7178295850753784,1.7621158361434937,3.945046901702881,3.6459481716156006,-2.731088161468506,-0.7806685566902161,1.027185320854187,1.1185773611068726,4.8095903396606445,3.987776279449463
2120_2019-04-12_2019-10-09.png,-3.140028715133667,-0.6716169118881226,2.658383369445801,3.0765271186828613,-3.9907684326171875,5.768259525299072,1.6096333265304565,2.730268955230713,-0.05581798776984215,4.093216896057129,-0.18376868963241577,-1.5269275903701782,9.680196762084961,-5.316261291503906,0.9383702278137207,2.321404218673706,-1.314528226852417,1.0413703918457031,-3.2753188610076904,2.701239824295044,-0.5238289833068848,-1.0700395107269287,-2.789301872253418,0.182966947555542,3.0978286266326904,1.39018976688385,0.7070419788360596,0.760221540927887,2.339975357055664,-7.0790886878967285,-0.4139302968978882,3.432338237762451
2120_2018-05-31_2018-11-27.png,3.460764169692993,0.6155413389205933,-1.3186781406402588,-4.779836177825928,2.2769811153411865,-2.597849130630493,1.8282859325408936,8.541790008544922,-0.05471592769026756,2.7948079109191895,-1.4688609838485718,-3.1819546222686768,-2.4232895374298096,-3.9614975452423096,4.26521110534668,5.436476230621338,-6.97036075592041,3.6436617374420166,2.419931650161743,-5.393474578857422,0.9345548152923584,0.8849836587905884,0.1762368232011795,3.264767646789551,-4.758566856384277,-7.068482875823975,-0.20564816892147064,2.577770709991455,0.6731392741203308,-2.779411554336548,-1.326729655265808,-1.4313018321990967
2120_2016-07-21_2016-12-19.png,-4.153035640716553,2.1147866249084473,1.2703572511672974,-4.596141338348389,-3.953904628753662,-0.902495265007019,-2.779994010925293,3.595940351486206,1.789994716644287,-7.297806739807129,-0.42293524742126465,-5.894220352172852,-0.08815095573663712,-1.6263490915298462,-4.506203651428223,-2.1916184425354004,2.3316116333007812,-0.6698467135429382,-0.07970486581325531,1.2772494554519653,3.035811424255371,-1.039690375328064,1.9259763956069946,-5.239637851715088,1.5471408367156982,3.224900245666504,-1.2819684743881226,3.3924765586853027,-1.0605454444885254,-0.06231708079576492,-2.074403762817383,-6.937856197357178
2120_2016-09-23_2017-03-21.png,-0.5582908391952515,-3.5243756771087646,0.49623459577560425,-0.6217302680015564,-2.6507997512817383,2.5121822357177734,-6.5235981941223145,4.414666175842285,6.8748555183410645,1.8551048040390015,-1.3722063302993774,-0.26124370098114014,-2.7051382064819336,0.06208376958966255,1.2849336862564087,-2.7187509536743164,5.324660778045654,0.06435760855674744,-2.7601025104522705,0.21687975525856018,-2.33567476272583,0.9377955198287964,-5.639738082885742,-3.2440035343170166,-3.1457743644714355,4.239170551300049,-1.146594762802124,2.9213950634002686,0.1864609271287918,-1.4307503700256348,-3.2140064239501953,-5.780933856964111
2120_2018-01-15_2018-07-13.png,-2.7450873851776123,-0.3681952655315399,-1.7228717803955078,1.293459177017212,0.7421966791152954,-0.3521781861782074,-0.8665938973426819,0.33532992005348206,-3.769695520401001,-8.633597373962402,1.5792349576950073,1.6532890796661377,-5.104702949523926,1.3345108032226562,6.978230953216553,-5.905130386352539,-0.9209009408950806,3.5835840702056885,-4.194794178009033,-1.0687564611434937,-6.45492696762085,0.23799163103103638,-0.1280432492494583,0.6927353143692017,-3.863680124282837,-5.730071544647217,0.9809256792068481,5.592497825622559,1.1340371370315552,-0.5646109580993652,0.11821828782558441,-1.0726369619369507
2120_2019-03-18_2019-09-12.png,2.7751667499542236,2.121579885482788,-2.9347100257873535,0.6695718169212341,5.59365701675415,-0.41631072759628296,4.182180404663086,5.035844802856445,-0.27725616097450256,5.683915138244629,2.4395225048065186,1.319856882095337,-1.5120054483413696,-3.3506574630737305,1.2651379108428955,3.4590766429901123,-0.3322910666465759,3.67008900642395,0.515475332736969,1.9391295909881592,0.25199949741363525,4.819005489349365,2.6837940216064453,3.8580448627471924,-1.7023015022277832,-2.1530325412750244,0.43543756008148193,2.1046643257141113,2.649325132369995,-2.6978750228881836,-2.9648003578186035,-1.9850553274154663
2120_2016-07-21_2017-01-06.png,-3.7849111557006836,-3.1108510494232178,-1.3384681940078735,-4.252655029296875,1.6885265111923218,-0.7829217910766602,-3.09490966796875,3.1760356426239014,0.3853604793548584,-8.726786613464355,-2.2511558532714844,-4.767274856567383,-0.8121138215065002,2.9273128509521484,-2.630309581756592,-0.45173144340515137,6.313287258148193,-0.01917325332760811,1.216859221458435,-1.452659249305725,4.371784210205078,-1.7805684804916382,-0.4741717576980591,-3.298792600631714,1.3561275005340576,1.5698143243789673,-0.10546179860830307,2.7827744483947754,1.5634584426879883,-5.139568328857422,-1.3887355327606201,-3.400038003921509
2120_2017-01-30_2017-07-28.png,-1.1378040313720703,-0.7931506037712097,2.5114593505859375,1.4294008016586304,1.4308103322982788,-9.506134986877441,5.523972511291504,-0.7273580431938171,3.363523006439209,6.4953932762146,-0.7321451306343079,2.446629762649536,4.774935245513916,-1.9421889781951904,-5.165796756744385,-5.095154762268066,-8.743609428405762,0.235137939453125,1.7869256734848022,0.398580402135849,5.39284086227417,-3.721705198287964,0.7939654588699341,1.2815684080123901,0.3105170726776123,-2.8900070190429688,-7.426544666290283,1.404561996459961,1.1165040731430054,3.0008223056793213,3.3630154132843018,-4.166186332702637
2120_2017-06-28_2017-12-25.png,5.502341270446777,5.73123836517334,-0.22913575172424316,3.921896457672119,0.5623007416725159,1.1180503368377686,-3.214014768600464,6.176558494567871,-4.759634017944336,3.5884788036346436,-6.91508674621582,-1.4493168592453003,-1.1535481214523315,3.6900007724761963,4.0430521965026855,-1.825039029121399,-5.2824859619140625,-0.0554625429213047,0.31515049934387207,5.916783332824707,1.9576166868209839,-2.1561405658721924,-0.9537631869316101,-1.707661509513855,6.356123447418213,3.374776840209961,2.0339415073394775,1.7307233810424805,-0.4129517674446106,-3.411843776702881,0.19452787935733795,4.058748245239258
2120_2017-12-27_2018-06-25.png,-7.831099510192871,5.331448078155518,-5.86096715927124,1.382279872894287,-3.609476089477539,-2.509943723678589,-0.6463677883148193,-1.9913721084594727,-0.4679470956325531,-0.5286939144134521,2.7988440990448,-1.0409009456634521,-5.085675239562988,-0.11279309540987015,6.347294807434082,-2.1120479106903076,1.0360260009765625,3.9626007080078125,-2.942157745361328,2.3444643020629883,0.0960373505949974,-5.920079231262207,4.608983993530273,0.3857778012752533,1.3050767183303833,-1.5077507495880127,-3.165914535522461,-2.5876846313476562,0.6875143647193909,1.5752924680709839,-2.5395758152008057,-0.15119732916355133
2120_2017-09-11_2018-03-08.png,2.791682720184326,5.17728328704834,1.646250605583191,-2.0771589279174805,-1.949074387550354,9.339495658874512,4.150510311126709,5.531418323516846,-0.6227023005485535,6.866714954376221,-2.6619884967803955,1.9126850366592407,-1.7588791847229004,1.7189804315567017,2.1473236083984375,-4.095845699310303,-6.308408260345459,0.009639655239880085,2.171527624130249,5.98093318939209,-0.24507597088813782,1.5876562595367432,4.0506591796875,-8.666502952575684,4.089748382568359,0.6702451705932617,4.844557285308838,2.624368906021118,1.731449842453003,1.855739712715149,6.281246662139893,5.54231071472168
2120_2017-10-30_2018-04-27.png,4.488286972045898,0.9625355005264282,-4.646219730377197,-9.496583938598633,1.5480862855911255,0.7028574347496033,-3.926675319671631,-2.8571276664733887,-2.71094012260437,0.6845150589942932,4.344510078430176,0.04206220433115959,-1.1043527126312256,-0.15063221752643585,-3.9207189083099365,-1.4433846473693848,-4.110220909118652,-3.370164394378662,-2.7248854637145996,5.252253532409668,-3.1645288467407227,-0.6729287505149841,-3.0295395851135254,3.4839701652526855,0.16465185582637787,0.5708390474319458,-6.793186664581299,-0.9273689389228821,1.099123477935791,5.237817287445068,-3.584242820739746,0.5774526596069336
2120_2016-11-28_2017-05-25.png,-0.9162498116493225,1.8940727710723877,0.6730464696884155,-3.846151351928711,2.4713375568389893,-1.7725011110305786,0.3708602488040924,2.0556137561798096,4.412879943847656,0.8552477955818176,-1.9052047729492188,-3.2012405395507812,-3.944148063659668,-1.0334484577178955,7.172922611236572,-7.9480133056640625,-1.3998265266418457,-2.3656091690063477,3.4523987770080566,-6.536253929138184,-4.664422512054443,5.134458541870117,-3.6092772483825684,4.331971645355225,3.9450876712799072,0.219636932015419,-2.3156118392944336,2.333280086517334,1.2231286764144897,-1.5954796075820923,-1.5371171236038208,-0.28402748703956604
2120_2018-05-16_2018-11-12.png,0.572593092918396,-0.8707616329193115,-0.2733876705169678,0.3039053678512573,0.6765909790992737,2.336719036102295,0.5986369848251343,-1.0149421691894531,0.47156649827957153,-1.834182620048523,1.6661254167556763,-0.6795060634613037,-2.1466896533966064,3.3210768699645996,3.7339463233947754,4.222759246826172,-2.024137020111084,-1.235581874847412,6.528263092041016,-12.482015609741211,-0.18909117579460144,-4.34526252746582,4.833946704864502,0.8835496306419373,-4.7096757888793945,-5.353973865509033,0.5493927597999573,0.9155150651931763,3.0838277339935303,-5.244600772857666,-1.7816123962402344,0.8091579675674438
2120_2019-01-04_2019-06-27.png,-2.1660611629486084,-1.2575023174285889,4.459725379943848,-0.32631245255470276,-0.6428946852684021,4.458134651184082,-1.1252899169921875,0.05159900337457657,-3.9356446266174316,-0.35520267486572266,0.6103104948997498,-0.3835982084274292,-2.9846320152282715,2.0464112758636475,-3.160306215286255,5.647798538208008,1.8644839525222778,3.6218905448913574,-5.880580902099609,-1.3948944807052612,-1.2835164070129395,0.9267358183860779,-0.47335147857666016,3.4183454513549805,-5.09161376953125,-0.5440815687179565,0.866053581237793,-0.6619082093238831,1.5475813150405884,3.9608449935913086,-0.9341822862625122,-8.961918830871582
2120_2017-07-14_2018-01-10.png,6.572515964508057,1.1288610696792603,4.024707794189453,5.173722267150879,0.6733560562133789,-2.2990434169769287,3.157419443130493,3.2473902702331543,-2.448744297027588,-0.16973477602005005,-3.697894811630249,0.16323813796043396,1.5161190032958984,-0.6086790561676025,-3.336623430252075,0.27753132581710815,-10.00942325592041,-8.007061958312988,0.42526552081108093,8.619000434875488,3.0992393493652344,2.637571096420288,-1.238692283630371,-2.2574682235717773,1.2732561826705933,-5.229183197021484,0.688969075679779,2.4110288619995117,-3.5881826877593994,-0.07920994609594345,0.18192000687122345,4.621495246887207
2120_2019-05-07_2019-10-30.png,-4.2696309089660645,3.1638102531433105,0.6707745790481567,-3.8041021823883057,3.2482972145080566,-0.8799823522567749,1.5459179878234863,-1.7478580474853516,-2.105686664581299,2.903801679611206,-0.26637890934944153,5.838690280914307,-1.687019944190979,-6.234066486358643,-3.2820827960968018,4.4324493408203125,-1.4055513143539429,-4.856151580810547,-3.8176019191741943,0.4249289631843567,2.743762254714966,-4.6995849609375,1.3654558658599854,1.4087620973587036,5.456988334655762,7.675984859466553,2.2554473876953125,3.6698265075683594,-1.1643997430801392,1.2631736993789673,1.376378059387207,4.075695991516113
2120_2018-05-18_2018-11-14.png,0.6787038445472717,0.1957230269908905,-0.7323687076568604,-0.29091864824295044,0.2288491576910019,2.6456077098846436,1.8611692190170288,-0.4894287884235382,0.8850104212760925,-0.8355058431625366,0.7215181589126587,-1.7349129915237427,-2.2457497119903564,2.1052775382995605,3.2397351264953613,4.391328811645508,-2.807180881500244,-0.6014321446418762,6.457893371582031,-12.554190635681152,-0.20048478245735168,-4.3277459144592285,4.814003944396973,0.586387038230896,-4.827784538269043,-6.764498710632324,1.448502540588379,1.454482078552246,2.690131187438965,-5.2469587326049805,-1.6096330881118774,2.1770215034484863
2120_2017-04-10_2017-10-05.png,-3.128779172897339,1.8331265449523926,4.781687259674072,0.5642290711402893,-11.210866928100586,1.1743474006652832,3.9026122093200684,-2.235154628753662,0.12645436823368073,-1.669982671737671,-9.838226318359375,4.2107062339782715,-1.8424814939498901,2.167003870010376,-2.476160764694214,3.1150667667388916,0.3523867428302765,2.672724723815918,0.09785064309835434,8.108183860778809,1.714971899986267,5.687062740325928,-1.7187674045562744,1.7494410276412964,3.054403781890869,4.27602481842041,-2.955962657928467,-1.2642619609832764,0.941763162612915,1.0166486501693726,4.400180339813232,4.271127223968506
2120_2018-07-30_2019-01-24.png,1.0494431257247925,5.945859909057617,4.414867877960205,-2.9823389053344727,2.9599697589874268,-0.3708968460559845,4.817889213562012,0.760297417640686,3.8051469326019287,-4.679189682006836,-0.9440747499465942,5.80612325668335,5.2001566886901855,-3.313659191131592,-4.224583148956299,2.4971706867218018,-1.0958400964736938,-0.5120583772659302,-0.5096522569656372,4.046497821807861,-4.665150165557861,-2.7616968154907227,-0.2641626298427582,1.587419867515564,8.52707576751709,1.4055120944976807,-0.2283409982919693,-1.6972100734710693,-0.5750706195831299,-2.188148260116577,3.0194995403289795,2.4909191131591797
2120_2017-07-27_2018-01-23.png,0.9315075874328613,-2.605159044265747,-5.960280895233154,2.3826241493225098,-2.883028507232666,-1.146862268447876,5.596854209899902,0.9749813079833984,-4.344144344329834,0.35424554347991943,1.8030825853347778,-4.6276350021362305,2.0832769870758057,-3.9021527767181396,-8.011924743652344,-2.6089682579040527,-7.155560493469238,-0.26403769850730896,2.414623737335205,2.1014106273651123,1.8555055856704712,-1.5416984558105469,-5.697618007659912,3.783670425415039,3.1924262046813965,3.4620957374572754,-0.5107997059822083,0.40207865834236145,1.4672350883483887,5.4983720779418945,3.9503636360168457,7.205268383026123
2120_2018-08-31_2019-02-27.png,-2.844730854034424,4.605827331542969,6.265944957733154,-0.03701865300536156,-0.4633287787437439,5.303838729858398,0.9999901056289673,-1.549634575843811,-3.745835065841675,-2.2024855613708496,2.5526058673858643,3.7947137355804443,1.0807431936264038,10.708353996276855,-4.160844802856445,-0.1231769323348999,-3.237105369567871,0.3920361399650574,1.7526127099990845,-0.20202243328094482,1.0598665475845337,2.2166266441345215,-7.185217380523682,-3.3189759254455566,-0.9593684673309326,0.9304172992706299,0.7757070064544678,-1.5556145906448364,-4.421602725982666,1.387559175491333,0.8444440364837646,2.1418941020965576
2120_2018-10-29_2019-04-26.png,8.226212501525879,-1.120682716369629,-1.3852758407592773,2.0094704627990723,2.1176817417144775,-3.50260329246521,1.0499078035354614,0.1324947476387024,-1.6558703184127808,2.866029739379883,4.1839375495910645,1.5834037065505981,-5.9952263832092285,-0.6548845767974854,2.9350101947784424,2.238349437713623,4.837924957275391,0.5196133255958557,-2.555161237716675,-0.6888797283172607,-2.6686413288116455,-4.3755340576171875,-4.220553398132324,-5.8600687980651855,-8.474479675292969,-1.0270280838012695,-2.3209612369537354,-2.1363654136657715,-0.7649403214454651,0.6254559755325317,-1.196820855140686,-3.44437837600708
2120_2017-06-26_2017-12-21.png,4.553450107574463,5.093927383422852,-2.590816020965576,2.7761752605438232,0.5830003023147583,2.292187452316284,-3.2240285873413086,5.971216678619385,-4.000680923461914,4.36079740524292,-6.195365905761719,-0.6025974750518799,-2.9236440658569336,3.534020185470581,3.0134384632110596,-4.186659812927246,-4.955836296081543,0.26150190830230713,0.8936783671379089,5.106976509094238,1.294640064239502,-3.3577303886413574,-1.7046712636947632,-2.710376262664795,5.228239059448242,3.3941071033477783,2.2459805011749268,2.7971417903900146,-0.22140315175056458,-1.6932117938995361,-0.10580088943243027,3.274367570877075
2120_2017-04-17_2017-10-12.png,-3.371692657470703,-1.5644117593765259,7.698981761932373,1.7177269458770752,-10.626016616821289,-1.8247909545898438,-0.3983224928379059,-2.4678468704223633,-1.7432656288146973,-1.6439955234527588,-6.4781975746154785,3.6651270389556885,0.2974798083305359,4.911277770996094,-1.2054790258407593,3.2116074562072754,1.3911741971969604,1.7862697839736938,-1.1054993867874146,6.999917030334473,2.306690216064453,6.5824480056762695,-2.799983501434326,0.8639546632766724,6.909016132354736,-0.6060671806335449,0.21812590956687927,0.44308555126190186,1.2060966491699219,2.07002854347229,5.108982086181641,3.2604329586029053
2120_2017-10-10_2018-04-06.png,1.2144590616226196,4.810478210449219,4.054442405700684,-1.418224811553955,-1.2631487846374512,-0.04985688254237175,-0.01618676260113716,2.105973243713379,-8.773782730102539,1.9222549200057983,6.01947546005249,-0.5356728434562683,3.164384126663208,1.12017822265625,-0.8863873481750488,-3.286977529525757,3.7093935012817383,2.2879436016082764,0.43944528698921204,-2.3838720321655273,-1.3058058023452759,0.9112600088119507,-6.226381301879883,2.3832902908325195,6.240819931030273,-6.130466461181641,-0.6758754253387451,-1.6784467697143555,-1.369387149810791,-1.7596076726913452,4.997218608856201,9.926567077636719
2120_2017-04-17_2017-10-13.png,-3.4459667205810547,-1.843288540840149,8.113471984863281,1.6661103963851929,-10.14246940612793,-1.8003255128860474,-0.6467753648757935,-2.253068208694458,-1.8770041465759277,-1.7511377334594727,-6.07130765914917,3.4917142391204834,0.45824742317199707,4.568063735961914,-1.4334849119186401,3.377070903778076,1.2733029127120972,2.0152745246887207,-1.2724989652633667,7.1776652336120605,1.972157597541809,6.775284767150879,-3.171684741973877,0.3956727683544159,6.974270343780518,-0.7492151260375977,-0.03332911431789398,1.2347073554992676,0.7835593223571777,2.3752400875091553,5.004563331604004,3.5666468143463135
2120_2017-04-24_2017-10-20.png,-4.528058052062988,-3.9182469844818115,5.482478618621826,1.3087337017059326,-6.552281379699707,-4.31755256652832,-2.3250532150268555,0.2097376435995102,-4.885297775268555,4.222933292388916,-2.0949525833129883,1.684763789176941,2.077122688293457,6.303829669952393,-3.31121826171875,3.184858798980713,2.7415611743927,3.0164830684661865,-0.8871999979019165,5.490090370178223,1.9684957265853882,4.779853343963623,-1.0399448871612549,-7.304680347442627,8.10605239868164,-4.894754409790039,-2.702238082885742,5.757988452911377,-0.9331880211830139,3.700084686279297,2.0322225093841553,7.256561756134033
2120_2018-08-23_2019-02-19.png,-4.252658367156982,1.0956661701202393,2.323122501373291,-4.420565605163574,-1.650172233581543,2.239518165588379,0.6320558190345764,-3.9910972118377686,-0.9270291924476624,-0.20263904333114624,1.6238930225372314,1.006168007850647,-4.204428672790527,4.474964141845703,-4.334630489349365,0.5241775512695312,-2.1282973289489746,2.426025152206421,3.8747942447662354,2.3541300296783447,-0.23916032910346985,1.7823899984359741,-6.25740909576416,-2.92964243888855,3.155534267425537,1.4887897968292236,2.6812477111816406,-2.836099863052368,-6.355947971343994,-1.971157193183899,5.727902412414551,4.493376731872559
2120_2018-08-06_2019-01-31.png,-1.395895004272461,2.4974441528320312,2.2064785957336426,-3.588593006134033,-0.7374252676963806,-2.085514545440674,4.451374053955078,-1.9286116361618042,4.896008491516113,-3.798914670944214,-4.918087959289551,0.996070921421051,6.845364093780518,0.6969409584999084,-6.316911220550537,0.025272581726312637,1.9014979600906372,1.2655327320098877,0.4654650092124939,5.980125427246094,-9.345174789428711,-0.5381861925125122,1.7148158550262451,3.887277841567993,2.7741692066192627,-0.1682676523923874,1.4296406507492065,0.7313328385353088,0.5747312307357788,-1.6221727132797241,4.185894012451172,4.409239292144775
2120_2017-06-07_2017-12-04.png,0.15314096212387085,-2.6608827114105225,-2.1822280883789062,-0.772343099117279,2.068895101547241,2.1294546127319336,-0.008142833597958088,-1.8393335342407227,5.039196491241455,-1.4178376197814941,-2.5456981658935547,5.263816833496094,1.3779284954071045,-3.540835380554199,0.9041449427604675,5.890621662139893,-3.7234482765197754,-3.2109923362731934,3.4144418239593506,4.341283321380615,-5.917893409729004,-1.5398588180541992,-10.352081298828125,-1.4271129369735718,9.489669799804688,-6.872147560119629,4.583841323852539,1.4717741012573242,1.1799324750900269,6.655351161956787,-3.858426094055176,5.821424961090088
2120_2017-10-02_2018-03-30.png,2.589031219482422,2.1924657821655273,5.778862953186035,0.9749651551246643,-4.704864978790283,-6.999030113220215,-2.920814037322998,1.8303947448730469,-4.471827507019043,0.5062865614891052,0.9956754446029663,0.9954187870025635,-3.7698824405670166,1.1307311058044434,-4.320036888122559,-3.005599021911621,0.3587150573730469,2.1435906887054443,-2.043581962585449,-1.0866755247116089,0.04726633056998253,-0.09044353663921356,-5.14017391204834,6.200710773468018,7.748351097106934,-1.5257676839828491,4.162191390991211,-3.7036266326904297,1.2756972312927246,0.7448088526725769,4.887547969818115,8.00951862335205
2120_2018-03-22_2018-09-18.png,-2.22393536567688,-5.200654029846191,-2.8955399990081787,3.5985841751098633,4.470026969909668,1.0195813179016113,-1.4012136459350586,1.17387056350708,-0.9825969934463501,-2.0973682403564453,-4.247264385223389,-1.0889954566955566,1.3100581169128418,4.37673807144165,0.44893407821655273,2.9823920726776123,1.9310933351516724,0.2993057072162628,-7.17510461807251,-4.366903305053711,-1.3606969118118286,0.23057472705841064,3.4025418758392334,-0.7367208003997803,-1.8531702756881714,-0.7501522302627563,-4.253097057342529,-4.597452163696289,-1.895745038986206,3.401951789855957,1.3869081735610962,-5.936387062072754
2120_2019-05-07_2019-10-31.png,-4.458959102630615,3.292889356613159,0.934988260269165,-4.046052932739258,3.2294130325317383,-0.9845115542411804,1.8106318712234497,-1.2924017906188965,-2.115090847015381,2.3657760620117188,-0.05149005725979805,6.04177713394165,-1.5954408645629883,-6.430092811584473,-3.2873237133026123,4.086160659790039,-1.2896864414215088,-4.631002902984619,-2.9793057441711426,0.49971121549606323,2.2788166999816895,-4.677664756774902,0.790050208568573,1.2024227380752563,6.260365962982178,7.53870964050293,2.3851661682128906,3.5359628200531006,-1.113185167312622,1.598541259765625,1.5210790634155273,4.245733737945557
2120_2017-10-19_2018-04-17.png,2.341869354248047,3.7460291385650635,-0.7864689826965332,-4.6046648025512695,5.260542392730713,6.715702056884766,0.15183967351913452,-2.32831072807312,-5.0058369636535645,2.1654937267303467,2.443685293197632,0.47770053148269653,1.8633685111999512,-1.4866769313812256,-4.353123664855957,-2.3093574047088623,0.8602182269096375,-4.464405059814453,0.6982143521308899,2.5100743770599365,0.7005336880683899,4.104100704193115,-2.03763747215271,2.0293521881103516,-2.29067063331604,-4.809769630432129,-7.046154499053955,-4.146581172943115,-1.5491026639938354,-0.08201318234205246,1.1350866556167603,7.1879143714904785
2120_2016-07-21_2017-01-05.png,-4.342162609100342,-3.0769553184509277,-1.2397600412368774,-4.482546806335449,1.3220049142837524,-0.44903409481048584,-3.388740301132202,3.3514373302459717,0.2867935001850128,-8.638140678405762,-2.3623714447021484,-4.880075454711914,-0.7478786110877991,2.61630916595459,-2.7949953079223633,-0.6484573483467102,6.160435676574707,0.10336872935295105,1.3980344533920288,-0.9563619494438171,4.230264663696289,-1.1165356636047363,-0.8091239333152771,-3.744180917739868,1.3429803848266602,1.9550402164459229,-0.3598787784576416,3.339381456375122,1.372102975845337,-4.720170497894287,-1.305461049079895,-3.779104471206665
2120_2018-12-25_2019-06-21.png,-0.6306507587432861,-0.09834219515323639,2.0082757472991943,0.7023981213569641,-0.24354764819145203,-0.42773714661598206,0.04597693309187889,1.6771310567855835,0.41126078367233276,1.059130072593689,-0.8774401545524597,-0.7106572985649109,-1.3262184858322144,3.4806225299835205,-2.821657657623291,5.327966690063477,4.960334777832031,3.181877613067627,-5.2623515129089355,-3.709948778152466,-2.93959903717041,-0.630915641784668,0.030699215829372406,2.730410575866699,-2.928277015686035,-0.28231537342071533,-1.6513391733169556,-1.3172215223312378,-3.0763823986053467,3.246617078781128,1.1955807209014893,-11.975226402282715
2120_2017-10-30_2018-04-26.png,4.7265944480896,0.8457381129264832,-4.902963638305664,-10.039464950561523,2.0832297801971436,1.1887518167495728,-3.8127505779266357,-3.1557371616363525,-2.5953369140625,0.6102344989776611,4.097364902496338,0.14839927852153778,-0.9879695773124695,-0.27307912707328796,-3.8355541229248047,-1.88438880443573,-3.8900983333587646,-3.748196601867676,-2.79111647605896,5.669227123260498,-2.904172420501709,-0.4239959716796875,-2.8296871185302734,3.6097967624664307,-0.22544942796230316,0.11283693462610245,-7.159246921539307,-0.7958263158798218,1.0209797620773315,5.046051502227783,-3.855548858642578,1.1897724866867065
2120_2018-08-29_2019-02-25.png,-3.5966243743896484,4.930022716522217,6.423222064971924,-0.5174393057823181,-1.7445564270019531,5.028726100921631,0.9685922861099243,-2.9274845123291016,-3.1331381797790527,-1.803640365600586,2.482963800430298,3.154906749725342,-0.12981019914150238,9.364531517028809,-4.43372106552124,-0.8627755641937256,-4.014034748077393,0.9065679907798767,3.1269774436950684,-0.31506115198135376,1.027379035949707,1.118143081665039,-7.8299055099487305,-4.409456729888916,0.7643433213233948,0.5165811777114868,3.0102853775024414,-1.3535538911819458,-6.686978340148926,0.9001198410987854,2.4629459381103516,1.7198573350906372
2120_2016-11-24_2017-05-23.png,-1.942667841911316,1.0260745286941528,1.4085904359817505,-1.7467412948608398,4.064964771270752,-0.3883930444717407,0.34978625178337097,1.614284634590149,3.8919785022735596,-0.5964051485061646,-1.7504892349243164,-4.1864471435546875,-4.4854936599731445,-1.3031281232833862,6.060235023498535,-8.375809669494629,-1.3430497646331787,-3.28873348236084,2.863079071044922,-8.017522811889648,-4.750742435455322,3.9124178886413574,-1.6513069868087769,2.6824891567230225,6.357931137084961,-0.19438883662223816,-2.4531807899475098,1.7270750999450684,1.7374911308288574,-0.2565053403377533,-2.22586727142334,0.6514296531677246
2120_2018-12-03_2019-05-30.png,-4.899631500244141,-2.8908517360687256,-3.674098491668701,4.465477466583252,4.151091575622559,-0.22254827618598938,0.3584524095058441,-0.39709681272506714,0.8730453252792358,-2.173234462738037,-2.3090405464172363,1.080416202545166,2.4280190467834473,0.39475148916244507,2.9717934131622314,1.5682371854782104,4.05322265625,-1.101477026939392,1.0035955905914307,0.30030885338783264,0.788810133934021,5.60135555267334,3.144367218017578,-1.3470983505249023,-3.71687912940979,3.1180007457733154,4.770366668701172,-2.9057061672210693,2.3110926151275635,-1.7125376462936401,-2.0002143383026123,-4.939618110656738
2120_2018-12-26_2019-06-24.png,-2.0880043506622314,-0.9921962022781372,3.8288357257843018,-0.5908226370811462,-0.04098296910524368,3.225269079208374,0.3724709153175354,-0.2128935009241104,-2.641186475753784,0.5345528721809387,0.6781560778617859,-1.1719566583633423,-2.887406826019287,1.8187782764434814,-4.419540882110596,5.621275901794434,2.8105762004852295,3.9159674644470215,-4.906342029571533,-1.3734567165374756,-2.7986912727355957,0.7717282772064209,-0.3691308796405792,3.901954174041748,-4.560121059417725,-0.40221109986305237,-0.21121658384799957,-0.8030193448066711,0.14950908720493317,3.513521909713745,-0.7625371217727661,-10.400084495544434
2120_2018-05-07_2018-11-01.png,1.5110435485839844,-2.8869457244873047,-0.031949933618307114,1.8738421201705933,0.728000819683075,0.15035241842269897,-5.143394947052002,-2.1377811431884766,-1.7271332740783691,-1.488710880279541,-2.2961244583129883,0.33353936672210693,2.1123762130737305,1.923353910446167,4.907235622406006,-0.5701272487640381,0.9521145224571228,0.2265237420797348,5.557110786437988,-8.220937728881836,0.4214423894882202,-4.982749938964844,5.974845886230469,-1.3642630577087402,-5.6732258796691895,-3.1611287593841553,1.2346928119659424,-3.284654378890991,2.537569999694824,-3.2695741653442383,0.15859918296337128,-2.9863975048065186
2120_2017-08-17_2018-02-13.png,6.657489776611328,2.682513952255249,-5.487847328186035,-2.597154378890991,-3.0038325786590576,4.332137584686279,-1.9161287546157837,-7.020583152770996,3.4351449012756348,-0.8006942272186279,1.4806251525878906,5.292240142822266,3.4242119789123535,-0.4165043234825134,-6.156796455383301,-0.23570799827575684,-0.36761215329170227,-2.7257707118988037,-3.5146772861480713,1.7985080480575562,0.05130540952086449,1.915077567100525,-2.581115245819092,-0.21238309144973755,8.10104751586914,-1.8573867082595825,0.6334737539291382,-2.032503604888916,0.6069674491882324,-0.18392975628376007,-1.0567026138305664,-0.9314206838607788
2120_2018-08-13_2019-02-07.png,-2.7943904399871826,-2.855438709259033,-1.0108424425125122,-5.716196060180664,-1.6283140182495117,-0.2350461333990097,4.40103006362915,-5.444587230682373,3.2926018238067627,-1.8479976654052734,-3.6439473628997803,-0.2934182286262512,1.2043579816818237,3.446150064468384,-7.155223369598389,0.4839089512825012,2.823394775390625,1.9408270120620728,2.0034377574920654,5.661322116851807,-6.891526222229004,2.4915335178375244,0.2620958983898163,3.4377028942108154,-0.25838014483451843,1.8108702898025513,2.5738401412963867,-2.6466786861419678,-1.8877463340759277,-3.873173713684082,6.44967794418335,7.666904449462891
2120_2018-12-06_2019-06-04.png,-4.002496242523193,-3.0832905769348145,-2.233635187149048,6.114226341247559,4.9978437423706055,-0.24108389019966125,0.24919120967388153,0.49859097599983215,2.634861946105957,-3.240422487258911,-1.0782549381256104,1.7184715270996094,1.2605364322662354,0.6601282358169556,2.4993648529052734,1.4345144033432007,4.835468769073486,-1.3600807189941406,-1.728206992149353,0.04943288117647171,0.234144389629364,4.942196846008301,1.5183684825897217,-0.9146801233291626,-2.5645411014556885,2.401693820953369,3.931047201156616,-3.390562057495117,1.9336509704589844,1.1467686891555786,0.25133147835731506,-5.411666393280029
2120_2018-01-22_2018-07-19.png,-0.8281116485595703,-3.2020416259765625,1.3436250686645508,3.149897575378418,3.90461802482605,-0.6521601676940918,-3.524346113204956,-1.576397180557251,-3.603963613510132,-4.862798690795898,0.6443305611610413,2.2498276233673096,-4.029880046844482,-1.3128492832183838,5.909286975860596,-4.804676532745361,0.3504011631011963,4.291778087615967,-2.4558627605438232,0.3348694443702698,-6.076838493347168,-0.4907653033733368,0.43506407737731934,-0.23519383370876312,-6.78259801864624,-5.573294162750244,-0.9580475091934204,3.2502706050872803,4.008116722106934,-1.1057966947555542,0.628839373588562,-0.021311771124601364
2120_2017-10-20_2018-04-18.png,2.815995216369629,3.4160351753234863,-1.578041434288025,-5.740443229675293,5.606447219848633,6.860889434814453,-0.20566082000732422,-2.647181987762451,-4.3545966148376465,1.8796460628509521,2.0669658184051514,0.48562687635421753,1.4328879117965698,-1.5294504165649414,-4.315167427062988,-2.774613618850708,-0.19213631749153137,-4.994080066680908,0.3172425627708435,3.657217264175415,0.39092302322387695,4.245959281921387,-1.9777412414550781,2.503091812133789,-3.3412208557128906,-3.995366096496582,-7.590260028839111,-4.226883411407471,-0.5779651403427124,0.5002627968788147,0.048669155687093735,6.470668792724609
2120_2018-03-15_2018-09-11.png,-3.0946717262268066,-5.0186614990234375,-1.2830009460449219,4.525761604309082,2.348903179168701,0.7727271914482117,-0.8794596791267395,-1.9468657970428467,1.2982393503189087,-4.2888946533203125,-0.5910599827766418,-0.6733708381652832,2.6709256172180176,-0.9336552619934082,5.919088363647461,-0.39168304204940796,3.854999542236328,-2.484875440597534,-3.570629835128784,-3.0266761779785156,1.1535736322402954,3.162801742553711,2.8234012126922607,-1.325589895248413,-4.059689521789551,-0.36891376972198486,-0.1268823742866516,-3.1248950958251953,-4.499439239501953,1.9141052961349487,5.350776195526123,-3.1959517002105713
2120_2018-03-08_2018-09-04.png,-3.406472682952881,-5.865529537200928,-0.45514315366744995,3.7978596687316895,1.205675482749939,0.21384289860725403,0.4373146891593933,-2.1367461681365967,2.4365272521972656,-4.5512309074401855,-0.7375187873840332,1.8915148973464966,3.965517997741699,-1.8202910423278809,7.2804365158081055,-0.2860541343688965,4.143434524536133,-1.9772933721542358,-3.287290334701538,-2.1995890140533447,1.9373655319213867,3.8352746963500977,2.9539003372192383,0.24652785062789917,-5.802641868591309,-0.29196086525917053,-1.4908372163772583,-2.7575623989105225,-3.6681511402130127,2.5602633953094482,5.021116256713867,-3.3564000129699707
2120_2018-03-12_2018-09-06.png,-3.693220853805542,-5.607914447784424,-0.19683435559272766,3.6569650173187256,1.7673605680465698,0.4401492178440094,0.27636411786079407,-2.1099064350128174,2.1987297534942627,-4.685154914855957,-0.3393633961677551,1.6976321935653687,3.645580530166626,-2.1255648136138916,7.33308744430542,0.12776675820350647,4.190690994262695,-2.5826168060302734,-3.1385343074798584,-2.4761290550231934,1.81850266456604,3.782322406768799,3.2227296829223633,-0.4073118269443512,-4.882632255554199,-0.5242806077003479,-0.9729136228561401,-2.7347605228424072,-3.6410069465637207,2.305192470550537,5.390224933624268,-3.394407033920288
2120_2017-06-19_2017-12-14.png,3.169954776763916,3.3257029056549072,-2.573107957839966,-2.301302194595337,-1.0382882356643677,3.767679214477539,-2.3218801021575928,1.800276279449463,0.8342896699905396,3.8657824993133545,-3.007115602493286,-0.6197275519371033,-2.8488404750823975,4.165852069854736,0.14069895446300507,-2.012681722640991,-6.578013896942139,-1.2125271558761597,3.113863706588745,4.735997676849365,-2.7643511295318604,-6.599167823791504,0.35102614760398865,-4.064985275268555,2.461609125137329,2.277837038040161,3.8941264152526855,3.375553846359253,-0.41632080078125,2.2352914810180664,-1.4571740627288818,4.693819522857666
2120_2018-08-27_2019-02-22.png,-3.8446669578552246,3.913058280944824,5.222250938415527,-1.8400472402572632,-2.3428986072540283,4.053588390350342,0.8959418535232544,-2.9321205615997314,-2.397866725921631,-0.7795256972312927,2.680875062942505,2.302621603012085,-1.7497950792312622,7.047722816467285,-4.441187381744385,-0.5988426208496094,-2.9016239643096924,1.5489251613616943,3.1147804260253906,0.713556170463562,0.7703760266304016,0.9274007081985474,-7.464519500732422,-3.6103720664978027,1.7872267961502075,0.6523939967155457,3.0749728679656982,-1.9584882259368896,-6.896260738372803,-0.3274462819099426,4.075578212738037,2.4735352993011475
2120_2018-03-12_2018-09-07.png,-3.9023184776306152,-4.877439975738525,-1.5139491558074951,4.209651947021484,2.278754472732544,0.6548826098442078,0.19789904356002808,-1.8499946594238281,1.7664225101470947,-4.812093734741211,0.2057785838842392,-1.1044962406158447,2.9968721866607666,-1.0905346870422363,5.513649940490723,0.23973529040813446,3.8136627674102783,-2.0967185497283936,-5.013053894042969,-2.456871509552002,0.7937616109848022,3.0403411388397217,2.097613573074341,-0.4496181011199951,-5.16303825378418,-0.8788261413574219,0.10853739082813263,-2.730530261993408,-4.470127105712891,2.6823947429656982,4.5709710121154785,-3.2548696994781494
2120_2019-01-25_2019-07-24.png,-1.5491782426834106,-4.158607006072998,1.0862735509872437,-2.472498893737793,3.079817771911621,2.6613969802856445,-4.28763484954834,4.608197212219238,-0.793759286403656,1.5592784881591797,2.265380620956421,-0.7105380296707153,-2.82444167137146,5.856287002563477,0.9306420683860779,1.1261414289474487,1.8311011791229248,2.0959219932556152,-6.824583530426025,2.0566000938415527,0.6395232677459717,-2.191092014312744,6.396981239318848,-1.3136926889419556,-4.24082088470459,-1.1506625413894653,-0.27407288551330566,-4.39076042175293,3.0160562992095947,-0.746009111404419,-0.1746435910463333,-3.3509364128112793
2120_2017-04-27_2017-10-24.png,-4.9178786277771,-1.1789697408676147,3.744006633758545,2.4119250774383545,-3.100813388824463,-4.810187816619873,-1.5227051973342896,-0.23581121861934662,-4.828814506530762,7.566623210906982,-1.6161234378814697,5.487659454345703,2.5495364665985107,2.5079784393310547,-3.873544692993164,2.5323293209075928,1.0307972431182861,2.3248422145843506,-0.020015668123960495,5.730809211730957,2.8845276832580566,2.5726873874664307,0.07912421971559525,-6.981574535369873,8.010337829589844,-3.939035654067993,-6.245604038238525,3.2379846572875977,-1.2649587392807007,6.013682842254639,2.1505956649780273,9.721949577331543
2120_2019-05-13_2019-11-07.png,-4.9054412841796875,2.6313581466674805,3.601555585861206,-3.289661407470703,1.7554385662078857,-2.5184760093688965,2.8575618267059326,1.4898393154144287,-2.5907914638519287,-2.0191128253936768,-1.3838841915130615,6.865623950958252,1.0455654859542847,-4.530913352966309,-2.6437606811523438,2.6491754055023193,0.0036719078198075294,-5.4580254554748535,0.13103163242340088,2.6296730041503906,-0.28021717071533203,-4.765720367431641,-1.7544476985931396,1.9207024574279785,7.544466972351074,6.373594760894775,3.6012396812438965,2.6613669395446777,-0.7290566563606262,-0.5798874497413635,2.6413567066192627,2.635019540786743
2120_2018-11-12_2019-05-09.png,3.8440165519714355,1.0085810422897339,-2.286275863647461,5.76824426651001,1.7003397941589355,-3.3552591800689697,4.0022053718566895,0.7728967666625977,-0.016756324097514153,1.5699007511138916,4.961587429046631,-0.82503741979599,2.201866865158081,1.0272849798202515,4.97294282913208,1.6043643951416016,4.776330471038818,3.7272472381591797,-0.04907308891415596,-1.0933889150619507,-2.6072280406951904,-1.3615108728408813,3.4981741905212402,-3.503418207168579,-7.142700672149658,0.39476215839385986,-5.759218215942383,-1.5446937084197998,-5.435993194580078,2.6548213958740234,-0.7510451078414917,-5.365931034088135
2120_2018-01-24_2018-07-23.png,0.2584690451622009,-3.153097629547119,2.16768217086792,4.131979465484619,4.101320266723633,-0.09596190601587296,-3.887712001800537,-2.8379809856414795,-2.262288808822632,-3.5114681720733643,1.0788326263427734,1.571044683456421,-4.029253005981445,-3.107142686843872,6.968832015991211,-2.4336419105529785,1.056431770324707,3.9885730743408203,-0.9506665468215942,1.2713526487350464,-4.284521102905273,-0.5683497786521912,1.0965923070907593,0.5212143063545227,-7.302557468414307,-4.450125694274902,-3.405726194381714,2.054091453552246,4.422825813293457,-0.5863985419273376,0.8063750267028809,0.23420648276805878
2120_2018-12-03_2019-05-31.png,-4.7457661628723145,-2.822972536087036,-3.530179738998413,4.309631824493408,3.9857985973358154,-0.09576303511857986,-0.0026922347024083138,-0.3939831852912903,0.7719520330429077,-2.350090742111206,-2.0629537105560303,1.1107137203216553,2.1289052963256836,0.466730535030365,3.205737352371216,1.0366334915161133,3.9944541454315186,-1.0795395374298096,1.1395376920700073,-0.03842225670814514,1.081072211265564,5.623517990112305,3.230379819869995,-1.5861716270446777,-3.449465751647949,3.017374277114868,5.060582160949707,-2.616450071334839,2.005981683731079,-1.5955663919448853,-1.7859666347503662,-4.785836219787598
2120_2019-05-07_2019-11-01.png,-4.275532245635986,3.2427899837493896,1.2487528324127197,-3.968104362487793,3.3535315990448,-1.2635817527770996,2.066605806350708,-0.9085850119590759,-2.0880510807037354,1.6394888162612915,-0.16757844388484955,6.162777900695801,-1.3876008987426758,-6.4335408210754395,-3.210016965866089,3.8000292778015137,-1.0347777605056763,-4.95475435256958,-2.2744548320770264,0.5774375796318054,1.9315030574798584,-4.564032554626465,0.5331339240074158,0.8823986649513245,6.623663425445557,7.366836071014404,2.5068607330322266,3.3996129035949707,-1.0722360610961914,1.7665151357650757,1.526706576347351,4.129756450653076
2120_2017-10-12_2018-04-10.png,0.6257932186126709,5.273576259613037,2.7656497955322266,-1.4381581544876099,0.6365299224853516,2.7266480922698975,0.7147234082221985,1.9825379848480225,-9.337977409362793,2.684537410736084,6.388379096984863,-0.4267227053642273,3.6699576377868652,0.8951658010482788,-0.6378592848777771,-2.8330612182617188,3.5278306007385254,0.7838119268417358,0.5017844438552856,-1.726577877998352,-1.291940450668335,1.3045289516448975,-5.181517124176025,1.2510091066360474,3.7342922687530518,-7.647982120513916,-2.1622800827026367,-1.0542807579040527,-1.3407655954360962,-1.7056684494018555,4.384106636047363,9.786160469055176
2120_2019-03-28_2019-09-24.png,1.1038196086883545,-4.5227556228637695,-1.4457108974456787,-0.6004989743232727,0.8510449528694153,0.9641098976135254,6.771772384643555,0.18332882225513458,-2.758638858795166,7.195626735687256,0.3558862805366516,3.0332515239715576,-2.54264235496521,-2.253051519393921,-0.7581011056900024,-2.0086615085601807,1.4733226299285889,3.170409679412842,-1.3946545124053955,-1.9717988967895508,3.5041277408599854,0.4226945638656616,3.508211374282837,5.3070902824401855,2.530275821685791,-0.9797172546386719,2.5315704345703125,0.1108313649892807,-1.2414238452911377,-1.870104193687439,-5.0470404624938965,-2.4239819049835205
2120_2019-03-04_2019-08-30.png,0.4597620368003845,-0.31719645857810974,-0.3200433552265167,6.407473087310791,4.080594539642334,-1.0487562417984009,-2.2403037548065186,3.7612836360931396,0.887168824672699,1.4859297275543213,4.819741249084473,-1.8358147144317627,-0.3298596739768982,-1.868537187576294,3.118539571762085,5.11328649520874,-4.301023006439209,4.142838001251221,4.917738437652588,-4.289607524871826,0.2219127118587494,0.4856167733669281,-0.4397812783718109,1.9001682996749878,-5.576241970062256,-1.1580133438110352,-0.2938297986984253,-1.0816054344177246,4.790278434753418,-3.24420428276062,-0.5048789381980896,-0.07558571547269821
2120_2018-08-03_2019-01-30.png,-0.5060853958129883,3.6254162788391113,2.999711036682129,-3.2764499187469482,-0.37091395258903503,-1.7425991296768188,4.488813400268555,-0.9020931720733643,5.444422245025635,-4.3496623039245605,-4.190201759338379,1.4719743728637695,7.399479389190674,-0.30885955691337585,-5.950971603393555,0.24812458455562592,0.6862078309059143,1.219626784324646,0.31343597173690796,5.662378311157227,-8.96218204498291,-1.0490394830703735,1.2659677267074585,3.7865116596221924,3.802576780319214,0.09954599291086197,1.3510452508926392,0.6818073391914368,1.1148161888122559,-1.2120598554611206,3.60528302192688,3.6795575618743896
2120_2018-03-26_2018-09-21.png,-2.696707248687744,-4.466436386108398,-4.032595157623291,2.2367477416992188,4.2025556564331055,0.7053974866867065,-1.8069555759429932,1.513035535812378,-1.8082695007324219,-1.6148284673690796,-5.547077655792236,-0.2663841247558594,1.862995982170105,4.767762660980225,0.8258628845214844,2.9896299839019775,2.6901302337646484,1.2860665321350098,-7.397000789642334,-5.532355785369873,-1.0807304382324219,0.04924936965107918,4.195316791534424,-0.8566017746925354,-1.7579362392425537,-0.341403990983963,-4.710220813751221,-4.615664482116699,-0.3699156641960144,2.7815475463867188,2.014590263366699,-6.191747665405273
2120_2018-09-19_2019-03-18.png,-0.34130847454071045,1.7097772359848022,-0.18173421919345856,-4.775087833404541,-4.847162246704102,-0.18880300223827362,1.0004019737243652,-0.36848556995391846,-1.7501846551895142,1.2497270107269287,7.44755220413208,-0.27297183871269226,-2.928267002105713,9.594664573669434,-2.7225027084350586,-2.246382236480713,1.69212806224823,-9.23202896118164,1.1426068544387817,4.731078624725342,-2.052499771118164,-3.3897805213928223,5.271508693695068,1.8091727495193481,-0.861025333404541,-3.656487464904785,2.731715440750122,-1.070048213005066,4.735112190246582,3.1388041973114014,2.1528067588806152,0.02208234742283821
2120_2017-04-28_2017-10-25.png,-5.193986415863037,-0.8546102046966553,3.1325764656066895,2.0335042476654053,-2.4202804565429688,-4.670957565307617,-1.394197702407837,0.313466340303421,-4.558720111846924,7.573993682861328,-2.066133737564087,6.333259105682373,2.2871885299682617,1.677213430404663,-3.6307573318481445,2.485964775085449,0.7202095985412598,1.0061112642288208,0.44055742025375366,5.689101696014404,3.4750068187713623,2.7285592555999756,0.8839491605758667,-6.578938961029053,7.682654857635498,-2.9440758228302,-6.6595048904418945,2.87799072265625,-1.7195801734924316,6.160917282104492,1.6257017850875854,10.2160062789917
2120_2018-07-26_2019-01-22.png,1.901407241821289,6.148575782775879,4.295867919921875,-2.06526780128479,2.9143970012664795,-0.26690930128097534,4.7222113609313965,1.0489431619644165,3.7469568252563477,-4.276242733001709,-0.109963059425354,6.647575378417969,3.1297712326049805,-4.6494140625,-3.3390748500823975,3.0565056800842285,-3.2812557220458984,-0.7583703398704529,-2.015679121017456,2.9352643489837646,-1.7752478122711182,-2.860213041305542,-0.868966281414032,1.3405787944793701,9.644548416137695,2.2124600410461426,-0.40889906883239746,-3.0018224716186523,-1.544906735420227,-3.2206897735595703,3.345086097717285,3.047485589981079
2120_2018-01-25_2018-07-24.png,0.41354966163635254,-3.4871482849121094,2.2912793159484863,4.595629692077637,4.750818252563477,0.07689694315195084,-4.029424667358398,-3.055920362472534,-1.6405725479125977,-2.8307056427001953,1.4136371612548828,1.6447573900222778,-4.643082141876221,-3.386796236038208,7.7369818687438965,-1.0234168767929077,1.0618621110916138,4.427898406982422,-0.16324694454669952,1.6474825143814087,-3.5822653770446777,-0.4974088966846466,0.6022968888282776,0.8137752413749695,-7.09689998626709,-3.7358288764953613,-3.7707014083862305,1.337340235710144,4.701347827911377,-0.5277233719825745,0.7702161073684692,0.3624263405799866
2120_2017-12-04_2018-06-01.png,-6.818966388702393,5.5718183517456055,3.207740068435669,-1.5881799459457397,-4.001270771026611,3.6432156562805176,-0.39936625957489014,2.3850529193878174,3.9603066444396973,-3.6048150062561035,1.1110531091690063,0.8113910555839539,-1.9235098361968994,5.156827926635742,4.073859214782715,0.9408115148544312,-2.016571521759033,0.8896661400794983,-3.1384780406951904,0.2865768373012543,4.135781288146973,-0.13296984136104584,-4.752640247344971,3.658506155014038,-5.551892280578613,-5.437958717346191,7.53262186050415,-4.459948539733887,2.2058310508728027,5.466724872589111,-5.127758979797363,-0.4300958812236786
2120_2018-10-17_2019-04-15.png,5.311715602874756,-0.8865138292312622,-1.6534873247146606,-1.2416126728057861,0.6117329597473145,2.2665927410125732,-2.364206552505493,-3.303790330886841,-6.734940052032471,-2.752980947494507,0.7216491103172302,6.063656806945801,-4.43428373336792,2.5583605766296387,5.087581157684326,-3.609835386276245,-1.1437910795211792,-2.2910349369049072,-1.2012239694595337,0.2953277826309204,-4.825352191925049,1.5203361511230469,-0.8574524521827698,-5.760984897613525,-5.043805122375488,0.20719563961029053,-3.285057544708252,2.510437488555908,3.3813793659210205,-2.131300210952759,-1.9558266401290894,-2.8238818645477295
2120_2017-09-29_2018-03-28.png,2.238197088241577,2.304081439971924,4.523564338684082,0.7785075306892395,-4.346944332122803,-7.69337797164917,-3.5504403114318848,2.819133758544922,-3.2545807361602783,0.30837005376815796,-0.8474504947662354,0.8289286494255066,-4.5546464920043945,0.1064651682972908,-5.13384485244751,-2.7750375270843506,-0.4701753258705139,1.6302756071090698,-2.7125749588012695,-0.009565658867359161,1.1482566595077515,-0.35894671082496643,-4.796735763549805,6.877110958099365,7.350588798522949,-1.2693073749542236,5.028845310211182,-4.16505765914917,1.4909006357192993,0.8258713483810425,3.9179563522338867,6.806527614593506
2120_2019-01-24_2019-07-23.png,-1.8780145645141602,-3.897243022918701,1.2812221050262451,-2.2418277263641357,3.171821355819702,3.0227599143981934,-4.0356574058532715,4.5911383628845215,-0.26285260915756226,1.1879724264144897,2.3048019409179688,-0.6331884264945984,-2.532142162322998,5.26716947555542,0.3695041537284851,1.3487317562103271,1.1918611526489258,2.2332260608673096,-7.904222011566162,2.798551321029663,0.27729207277297974,-1.81338369846344,6.4121928215026855,-1.426527738571167,-4.257174968719482,-1.9574346542358398,0.5435178875923157,-4.05853796005249,2.75884747505188,-0.6160368919372559,-0.05690767243504524,-3.308044195175171
2120_2017-08-10_2018-02-06.png,7.671339511871338,2.8505959510803223,-7.003050327301025,0.20941844582557678,-5.438072204589844,5.713640213012695,1.61751127243042,1.5928300619125366,1.8429882526397705,-1.5172789096832275,2.519040584564209,4.125794887542725,2.621462821960449,-2.5730831623077393,-5.754255771636963,0.8081396818161011,-0.4459202289581299,0.2929758131504059,0.20930887758731842,4.351476669311523,-0.9364825487136841,4.6095170974731445,-0.904379665851593,1.6894824504852295,8.699437141418457,-0.8612549901008606,-2.710092782974243,-3.3518269062042236,0.8055585622787476,-0.22103849053382874,1.7625685930252075,2.403458833694458
2120_2016-11-17_2017-05-16.png,0.25941652059555054,-0.8004538416862488,2.243074655532837,2.0213146209716797,4.489207744598389,1.4215126037597656,0.5843498110771179,0.5597682595252991,4.635335922241211,-3.1358582973480225,0.2837405204772949,-5.978823184967041,-4.799271583557129,2.468465566635132,4.831827163696289,-4.612398147583008,-0.3596738874912262,-3.1849558353424072,1.5038692951202393,-8.752839088439941,-4.377114772796631,0.6142210960388184,5.0606584548950195,0.8672924041748047,8.31688117980957,-2.949531078338623,-3.1667776107788086,0.9041975736618042,1.267782211303711,2.6947572231292725,-4.465768814086914,-0.12491746246814728
2120_2017-08-23_2018-02-19.png,3.2674753665924072,0.7954248189926147,-3.288428544998169,-5.632823944091797,-1.2711073160171509,1.9358998537063599,-3.5986568927764893,-10.335356712341309,4.543613910675049,0.8623915314674377,1.8947360515594482,3.6280837059020996,5.496753692626953,2.2096991539001465,-4.6739091873168945,-1.7577389478683472,-0.8355382680892944,-2.2188034057617188,-6.5055928230285645,-0.2429421991109848,-0.616191029548645,-0.2400691956281662,-5.711431503295898,-0.01511803362518549,6.079705715179443,-0.6845475435256958,2.451647996902466,-1.1378028392791748,2.952242851257324,1.015891432762146,-2.0630035400390625,-0.41451799869537354
2120_2018-10-24_2019-04-22.png,8.421409606933594,-2.5428054332733154,-1.1913220882415771,-1.3521113395690918,0.7621725797653198,-1.6697548627853394,-0.6496204137802124,-2.2786571979522705,-4.327841758728027,1.3305397033691406,3.917102098464966,4.919170379638672,-6.704565048217773,0.2175278216600418,2.991377353668213,-1.4166724681854248,3.5391767024993896,-1.4485708475112915,-1.8380504846572876,-0.4605322480201721,-3.2898683547973633,-1.2693527936935425,-4.516754150390625,-7.225624084472656,-8.553985595703125,-0.7407631874084473,-1.242526888847351,-0.29921218752861023,2.7310049533843994,-1.5173441171646118,-1.4527336359024048,-2.418137788772583
2120_2017-11-10_2018-05-09.png,0.9200555682182312,-3.3352601528167725,-6.591665267944336,-9.707257270812988,-2.203976631164551,-0.17491509020328522,-3.4357783794403076,-0.4272160828113556,-1.0049341917037964,1.037446141242981,8.756926536560059,2.012619972229004,-1.3438822031021118,0.27807947993278503,-3.8458969593048096,0.8999699950218201,-2.999210834503174,1.8334852457046509,-0.19411589205265045,0.7096896767616272,-10.109223365783691,1.3532589673995972,-4.655372619628906,-1.1923273801803589,5.385430335998535,-2.044800281524658,-0.38006752729415894,0.5385337471961975,-3.371950626373291,4.646723747253418,-3.661301374435425,-1.8537960052490234
2120_2018-10-19_2019-04-17.png,6.000057697296143,-1.959242343902588,-1.0884928703308105,-2.3165225982666016,0.34439390897750854,0.8970028162002563,-2.1634509563446045,-3.8279151916503906,-6.319797515869141,-1.0715184211730957,1.493804693222046,6.1223063468933105,-5.0501909255981445,1.1315335035324097,4.303189754486084,-3.224632978439331,1.1322921514511108,-2.1735312938690186,-0.9991285800933838,0.11422868818044662,-4.597793102264404,0.47533848881721497,-2.5428225994110107,-5.913320541381836,-6.424696445465088,-0.10041726380586624,-2.0052998065948486,1.9276787042617798,4.0895609855651855,-2.643057107925415,-2.2438416481018066,-2.9841692447662354
2120_2018-01-11_2018-07-10.png,-4.248548984527588,2.401888132095337,-2.4643287658691406,0.8496130704879761,-1.8526244163513184,-1.326865792274475,1.4849168062210083,-0.2686958611011505,-3.0925769805908203,-8.579887390136719,3.0811595916748047,0.102042555809021,-5.957380771636963,1.4456311464309692,8.542606353759766,-4.77252721786499,-1.8775588274002075,2.9109456539154053,-5.164892673492432,0.028369568288326263,-4.714493751525879,-0.06631229817867279,0.38911399245262146,1.3769923448562622,-1.9088873863220215,-4.118847370147705,0.6765530705451965,4.933887481689453,-1.302842378616333,-0.19625358283519745,0.40044936537742615,-2.044343948364258
2120_2018-08-06_2019-02-01.png,-1.7114760875701904,1.733559250831604,1.6386613845825195,-3.7163357734680176,-1.2193108797073364,-1.6593067646026611,4.440672397613525,-2.1531407833099365,5.070186138153076,-3.6627261638641357,-5.179120063781738,0.6551409363746643,6.176375865936279,1.154695987701416,-6.559419631958008,0.1521049588918686,2.2901275157928467,1.4899652004241943,0.35001322627067566,6.225720405578613,-9.199851036071777,-0.48447367548942566,1.3105640411376953,4.039002895355225,2.721163272857666,0.1388857513666153,1.5395007133483887,0.701546311378479,0.40739014744758606,-2.003605842590332,4.277937412261963,4.8897624015808105
2120_2017-07-10_2018-01-05.png,6.6558003425598145,3.241513729095459,3.207674741744995,5.016491413116455,0.3883170485496521,-0.5948684215545654,2.883559226989746,4.460816860198975,-3.690122604370117,0.030635593459010124,-4.946313858032227,0.31499820947647095,0.748650848865509,1.493597149848938,-0.49894484877586365,1.4460129737854004,-9.400179862976074,-5.7962541580200195,0.8382569551467896,8.651167869567871,3.781735420227051,3.4774460792541504,-0.4485746920108795,-3.4929990768432617,3.743891716003418,-3.614140272140503,0.5272043347358704,3.300493001937866,-2.089181900024414,-3.8062188625335693,0.22423578798770905,5.093120098114014
2120_2019-03-29_2019-09-25.png,0.4481375813484192,-5.562379837036133,-0.10642065852880478,0.07081073522567749,0.015720626339316368,1.6168708801269531,7.273617267608643,-0.2719910442829132,-3.082401752471924,7.037214279174805,-0.50920170545578,3.2870688438415527,-1.6347466707229614,-2.353217124938965,-0.6373858451843262,-2.355358839035034,1.4545636177062988,2.684309482574463,-1.4955483675003052,-2.6297199726104736,4.286483287811279,-1.0957733392715454,3.176285982131958,5.550631999969482,3.3741774559020996,0.11836523562669754,1.9863816499710083,0.3253975212574005,-1.2179120779037476,-2.2227485179901123,-5.133052825927734,-1.8977688550949097
2120_2019-03-07_2019-09-03.png,0.9387613534927368,0.8164645433425903,-1.2777519226074219,4.837676048278809,5.5576348304748535,-1.287781000137329,-0.7410148978233337,4.111913204193115,0.7525340914726257,2.2884929180145264,5.17745304107666,-1.8353320360183716,-0.16623763740062714,-1.8424962759017944,3.9829041957855225,6.608576774597168,-3.0268242359161377,3.2613108158111572,4.550422191619873,-3.063671350479126,0.3669235408306122,2.045947790145874,-0.11211670190095901,2.4458870887756348,-4.441104412078857,-0.23902511596679688,-1.1461085081100464,-0.3401944935321808,4.65407133102417,-3.6390440464019775,-0.9242664575576782,0.05521892383694649
2120_2017-12-25_2018-06-21.png,-8.930733680725098,3.552657127380371,-5.270179748535156,2.0445289611816406,-2.01574444770813,-1.2323417663574219,-1.5788624286651611,-1.5885802507400513,-0.06343957781791687,1.2786681652069092,3.1328184604644775,-1.5109602212905884,-3.665295362472534,2.0612242221832275,4.945562839508057,-2.59379506111145,2.0411019325256348,4.050990104675293,-2.810342788696289,2.8072402477264404,0.3327180743217468,-5.993321418762207,5.395661354064941,0.2659524381160736,1.2497936487197876,-2.4277565479278564,-1.7066830396652222,-3.5834076404571533,1.4031702280044556,2.313288688659668,-2.3231189250946045,0.222838893532753
2120_2018-10-03_2019-04-01.png,-1.2895796298980713,0.920887291431427,-5.3369317054748535,-1.1290855407714844,-7.318359375,0.7182231545448303,-0.2132067084312439,-1.0501620769500732,-6.6354451179504395,-1.5096057653427124,0.10659275203943253,-1.489310383796692,-4.952867031097412,2.5636284351348877,1.9150911569595337,-5.622440814971924,-3.6322224140167236,-1.018065333366394,-1.554749608039856,6.061696529388428,-2.907217025756836,-4.408633232116699,-0.8343774080276489,-2.562343120574951,1.464646577835083,-6.805269241333008,-3.829007387161255,-0.8999836444854736,-1.1137431859970093,3.8232264518737793,1.8312647342681885,-4.599359035491943
2120_2019-04-11_2019-10-08.png,-3.432123899459839,-1.7679857015609741,3.151339292526245,2.663447856903076,-3.9654176235198975,5.468218803405762,2.15910267829895,2.1379778385162354,-0.8128047585487366,4.1205878257751465,0.0946798250079155,-0.47449830174446106,10.320446968078613,-5.185554027557373,1.589398741722107,2.3351125717163086,-1.349783182144165,1.6848278045654297,-3.4986953735351562,2.3016350269317627,-0.5863232612609863,-1.1596884727478027,-3.1841330528259277,0.8994933366775513,4.538142681121826,1.923194169998169,0.35360389947891235,0.932633638381958,1.509772539138794,-6.247936725616455,-1.2668254375457764,2.7139151096343994
2120_2016-11-11_2017-05-10.png,6.286996841430664,-1.5447816848754883,-5.344876766204834,2.96557354927063,3.9667887687683105,-5.627420902252197,-4.315187931060791,-1.2433688640594482,-1.5735390186309814,-1.6927945613861084,2.211977243423462,-6.165482521057129,3.094829559326172,5.8818535804748535,3.2766685485839844,1.5381181240081787,0.1505553275346756,-0.2126237004995346,3.394275665283203,-3.4748947620391846,2.5892772674560547,0.05896324664354324,-4.943841934204102,-0.38844501972198486,2.032270669937134,3.44751238822937,-0.8234093189239502,-5.915154933929443,1.2322462797164917,-2.84456729888916,2.0477566719055176,-5.122478485107422
2120_2018-12-20_2019-06-18.png,-1.6494085788726807,-0.6027660369873047,2.0199320316314697,0.42741841077804565,2.009808301925659,-1.6737005710601807,0.9635412693023682,3.1197142601013184,1.4746649265289307,1.129746437072754,-1.2919261455535889,-0.3345322906970978,-1.3939920663833618,4.180570125579834,-3.2438511848449707,5.154378890991211,5.094945430755615,2.8777925968170166,-4.5629682540893555,-3.995342493057251,-3.646955728530884,-0.37931180000305176,-1.010136604309082,1.86965012550354,-2.3049564361572266,-0.8843744397163391,-2.2204809188842773,-2.136568069458008,-3.2922534942626953,3.4719059467315674,0.6354646682739258,-12.13012409210205
2120_2018-10-22_2019-04-18.png,7.65250825881958,-2.1483473777770996,-1.2280374765396118,-2.6534781455993652,0.0956764742732048,-0.46443110704421997,-1.6131434440612793,-3.548410415649414,-6.064093112945557,-0.6148509979248047,2.3493294715881348,5.7652435302734375,-5.180933952331543,0.8939921259880066,4.417593479156494,-2.863511562347412,2.0965912342071533,-2.08040452003479,-1.0120015144348145,-0.4509166479110718,-3.956129789352417,-0.5804033279418945,-3.267254590988159,-6.475255489349365,-7.152126312255859,-0.35758015513420105,-1.8503464460372925,1.5016599893569946,4.206036567687988,-2.480666160583496,-2.2645668983459473,-2.9986040592193604
2120_2017-07-18_2018-01-11.png,5.39633321762085,0.10733763873577118,4.185537815093994,5.081655025482178,0.36505845189094543,-2.820221185684204,3.4019460678100586,2.1498563289642334,-2.5696635246276855,0.8018783926963806,-2.833493709564209,-0.035616159439086914,2.0114407539367676,-1.6259300708770752,-4.466023921966553,0.06544733047485352,-10.27963638305664,-8.095279693603516,0.2107969969511032,7.6560444831848145,3.3475515842437744,1.934493899345398,-1.8445216417312622,-1.8290098905563354,0.9545435905456543,-4.845263957977295,1.0580748319625854,1.9117907285690308,-3.520855665206909,1.3978731632232666,0.17216752469539642,4.678869247436523
2120_2017-07-19_2018-01-15.png,4.44573450088501,-1.5938546657562256,3.178696870803833,4.941317081451416,0.0003758877865038812,-3.9580135345458984,4.077572822570801,0.3951120674610138,-1.9239126443862915,0.7532697319984436,-1.1826809644699097,-0.9610704183578491,2.220258951187134,-3.0585479736328125,-6.154106140136719,-1.458702802658081,-9.731724739074707,-7.262379169464111,0.6689068675041199,5.6658244132995605,3.176060914993286,0.28769341111183167,-3.566638946533203,-1.4630206823349,0.28878268599510193,-4.097386360168457,1.0316667556762695,0.8503694534301758,-2.9045119285583496,3.430398941040039,0.9554184675216675,5.301275730133057
2120_2016-09-15_2017-03-14.png,-2.4164860248565674,-3.279677629470825,3.2612996101379395,-3.2873713970184326,-4.471134662628174,3.1560707092285156,-5.808261394500732,2.097367763519287,4.889073848724365,3.570150375366211,-0.6324765086174011,0.4199928045272827,-4.10837459564209,-0.32236239314079285,2.2060046195983887,-7.142033100128174,0.2009914368391037,-2.42067551612854,-2.6263837814331055,-3.1801862716674805,-2.519627571105957,5.029099941253662,-4.606695652008057,-6.42946195602417,-1.5939677953720093,0.8688145875930786,-1.4415209293365479,3.028876304626465,-1.6918400526046753,1.9935048818588257,-3.587301254272461,-7.386132717132568
2120_2018-12-07_2019-06-05.png,-3.2100107669830322,-2.9068148136138916,-2.156397819519043,6.088263511657715,5.38633918762207,-0.17110280692577362,0.2550412714481354,0.6701459884643555,2.8795928955078125,-3.256293773651123,-1.2382962703704834,1.704345703125,0.6778877973556519,0.962011456489563,2.0808322429656982,1.65264093875885,4.989608287811279,-1.291353464126587,-2.470912456512451,-0.3508605360984802,0.30989524722099304,4.311361312866211,1.3019983768463135,-0.8363503813743591,-2.6421899795532227,1.5325206518173218,2.7885873317718506,-3.8788132667541504,1.0257556438446045,2.0207464694976807,0.5661167502403259,-5.180842876434326
2120_2017-08-18_2018-02-14.png,5.5603837966918945,2.159113883972168,-4.382589340209961,-3.4453084468841553,-2.8876888751983643,3.694464921951294,-2.1803596019744873,-8.080854415893555,4.708990573883057,-0.284207820892334,1.2727670669555664,4.571197986602783,3.967118740081787,-0.38201379776000977,-6.085981369018555,-0.8904708027839661,-0.36303308606147766,-3.046942710876465,-4.029552936553955,1.0190702676773071,-0.5737817287445068,1.5929936170578003,-2.8580691814422607,-0.4239412844181061,6.855224609375,-1.6664067506790161,1.7279552221298218,-2.028818368911743,1.3322219848632812,-0.025216899812221527,-1.3965128660202026,-0.9271234273910522
2120_2017-02-06_2017-08-03.png,-1.579447865486145,-3.5979163646698,1.210294246673584,0.31805458664894104,-0.6164838671684265,-6.838118076324463,7.3548197746276855,-1.1280981302261353,2.4251561164855957,8.137324333190918,0.7098105549812317,-0.6827025413513184,2.138885259628296,-2.5296483039855957,-6.069421291351318,-5.024582386016846,-5.7449951171875,2.35123610496521,4.382857799530029,0.9244269132614136,5.253661632537842,-6.393933296203613,-2.690457820892334,3.360170602798462,-0.5852174162864685,-0.7675297856330872,-5.892793655395508,3.1235413551330566,4.0465006828308105,5.827753067016602,4.748196601867676,-1.4299991130828857
2120_2017-08-25_2018-02-21.png,-0.031745556741952896,-0.2148081213235855,-1.4098278284072876,-5.891452789306641,-1.6166081428527832,0.10460957139730453,-2.610090732574463,-9.521306991577148,4.8966288566589355,1.8690569400787354,2.122887372970581,3.279568672180176,5.213357448577881,2.899610757827759,-4.085683822631836,-1.3766628503799438,-2.339771270751953,-1.714524745941162,-5.057310581207275,-0.8337771892547607,-2.1496148109436035,-1.1446222066879272,-6.7362823486328125,0.06545722484588623,4.431550979614258,1.0266486406326294,3.3029916286468506,-1.061713457107544,3.9299259185791016,1.7209283113479614,-0.3980449140071869,1.1197088956832886
2120_2019-01-11_2019-07-10.png,-0.4940795302391052,-4.629636287689209,3.6499428749084473,-2.272554874420166,-0.7052971720695496,4.968382835388184,-3.2984344959259033,3.624769687652588,-2.2207486629486084,-1.1607202291488647,2.8537957668304443,-1.7032490968704224,0.47718700766563416,4.780258655548096,0.3817427158355713,3.548621416091919,-0.7021795511245728,1.0057790279388428,-9.558647155761719,0.6195171475410461,0.4397038519382477,0.8316397070884705,4.763650894165039,-2.080199956893921,-3.9428796768188477,-0.6134113073348999,2.8515710830688477,-1.7981501817703247,0.12364117056131363,3.4924392700195312,2.409233570098877,-5.62213659286499
2120_2018-12-28_2019-06-26.png,-2.343472480773926,-1.107704758644104,4.389623641967773,-0.441719651222229,-0.04673204571008682,4.298465728759766,-0.4027442932128906,-0.2966431677341461,-3.9081273078918457,-0.22337134182453156,0.5562038421630859,-0.5809680223464966,-2.9438376426696777,1.9742176532745361,-3.7841670513153076,5.824732780456543,2.310192584991455,3.674847364425659,-5.635751724243164,-1.4873923063278198,-2.1983754634857178,0.6040527820587158,-0.5079172849655151,3.983544111251831,-4.949514865875244,-0.31063130497932434,0.07104502618312836,-0.9257869720458984,1.009854793548584,3.704742670059204,-0.8048920035362244,-9.533631324768066
2120_2017-12-22_2018-06-20.png,-9.36331558227539,2.4430320262908936,-5.327784538269043,1.5600922107696533,-0.6238152384757996,-0.36694589257240295,-1.4564604759216309,-0.7659484148025513,-0.406022310256958,1.6106431484222412,3.3458633422851562,-1.2291772365570068,-3.5846869945526123,2.8346364498138428,4.292905807495117,-2.751030206680298,2.2868518829345703,3.6781680583953857,-3.177384376525879,3.025737762451172,-0.2605155110359192,-5.795868396759033,5.787320137023926,-0.10366494953632355,0.7923752665519714,-3.3072397708892822,-1.0424271821975708,-3.6951351165771484,1.9018440246582031,2.240614891052246,-1.5935169458389282,0.45973047614097595
2120_2017-12-11_2018-06-07.png,-7.063088893890381,0.4711662232875824,2.3434667587280273,-2.8522191047668457,-1.6713677644729614,0.5823295712471008,-0.5625280141830444,2.509611129760742,2.796679973602295,-0.8000016808509827,5.764851093292236,-2.8640735149383545,-1.09445059299469,8.231961250305176,5.023027420043945,1.7618565559387207,-1.075327754020691,0.594487726688385,-5.610944747924805,0.22436627745628357,2.9395875930786133,1.6801921129226685,0.28264716267585754,0.9902463555335999,-4.3711652755737305,-6.5375165939331055,8.324568748474121,-4.610518932342529,0.6183558702468872,3.729656219482422,-2.3387770652770996,-0.5113661885261536
2120_2017-06-05_2017-12-01.png,-0.2929835915565491,-1.4352481365203857,-2.1712801456451416,-0.9174452424049377,0.3145982325077057,2.7222883701324463,-1.0322705507278442,-2.877854347229004,2.884580612182617,-1.2472361326217651,-2.773946762084961,4.996613502502441,0.4804050326347351,-3.0002918243408203,-0.08595196902751923,5.190906524658203,-3.0795841217041016,-2.329974412918091,1.7965123653411865,5.035998344421387,-5.159135818481445,-0.8673909306526184,-7.379216194152832,-1.8001312017440796,8.402789115905762,-7.882951259613037,3.4281206130981445,0.28758588433265686,2.007263660430908,4.656518936157227,-3.189211130142212,4.297019004821777
2120_2016-09-26_2017-03-24.png,-0.22955068945884705,-3.4741692543029785,-0.5299469232559204,0.532072126865387,-1.14165198802948,1.5880006551742554,-5.939561367034912,4.923921585083008,8.174299240112305,2.2037901878356934,-1.6312099695205688,-0.8968856930732727,-2.324659824371338,-0.6506432294845581,1.013401985168457,-0.5075483918190002,6.411551475524902,-0.3376387357711792,-1.8865543603897095,0.2811134457588196,-2.01377272605896,0.46072936058044434,-5.53922176361084,-2.344794511795044,-4.9120917320251465,5.23053503036499,-1.6469718217849731,1.9794520139694214,0.9066339135169983,-2.4134044647216797,-2.94683575630188,-4.787735462188721
2120_2019-01-17_2019-07-16.png,-0.9039215445518494,-5.111586570739746,2.656355381011963,-2.081313371658325,-0.12041763216257095,3.9729480743408203,-4.156877040863037,4.761290550231934,-1.9198005199432373,-0.6676231622695923,2.9791266918182373,-2.108607530593872,0.14504490792751312,5.041168689727783,1.6864196062088013,2.4117932319641113,-0.2897889018058777,0.7601287961006165,-8.837349891662598,0.8437860608100891,0.8380742073059082,0.40119513869285583,5.777978897094727,-3.5804574489593506,-3.066519260406494,0.0899864211678505,2.9343152046203613,-2.1988301277160645,-0.18116550147533417,0.9905974268913269,2.1085288524627686,-4.719267845153809
2120_2018-07-13_2019-01-09.png,-2.803842782974243,3.559048891067505,-1.7208961248397827,-1.6698963642120361,-0.7469179034233093,1.6630858182907104,1.1801036596298218,0.030443916097283363,3.0699639320373535,3.5248498916625977,0.5968079566955566,-0.11528041958808899,-1.745941400527954,-7.952269077301025,-7.498809337615967,2.0541441440582275,-3.9386160373687744,-1.7711968421936035,-5.782644271850586,-2.4646053314208984,2.693614959716797,0.23063094913959503,-0.49840331077575684,0.7475553154945374,2.7088518142700195,3.530424118041992,0.4088522791862488,-3.1468605995178223,0.2611026167869568,-3.1498630046844482,6.00733757019043,6.359864234924316
2120_2017-09-08_2018-03-07.png,2.417222023010254,5.549503326416016,2.6563732624053955,-2.973667860031128,-1.8325074911117554,9.803668022155762,4.157871246337891,5.512537956237793,-0.23689812421798706,6.385031700134277,-0.956665575504303,1.6230639219284058,-1.2622323036193848,1.3463037014007568,2.26102614402771,-3.049104928970337,-6.651895046234131,0.3728793263435364,1.479971170425415,4.4940080642700195,-0.5938764810562134,0.5207273364067078,1.8798863887786865,-8.180930137634277,4.448413372039795,-0.42058342695236206,3.4332094192504883,3.5823137760162354,1.6983528137207031,1.6957999467849731,5.855370998382568,6.285821437835693
